<?xml version="1.0"?>
<opencv_storage>
<my_svm type_id="opencv-ml-svm">
  <svm_type>C_SVC</svm_type>
  <kernel><type>RBF</type>
    <gamma>8.9999999999999997e-02</gamma></kernel>
  <C>10.</C>
  <term_criteria><epsilon>1.1920928955078125e-07</epsilon>
    <iterations>2147483647</iterations></term_criteria>
  <var_all>324</var_all>
  <var_count>324</var_count>
  <class_count>2</class_count>
  <class_labels type_id="opencv-matrix">
    <rows>1</rows>
    <cols>2</cols>
    <dt>i</dt>
    <data>
      0 3</data></class_labels>
  <sv_total>442</sv_total>
  <support_vectors>
    <_>
      3.57667916e-02 1.07357755e-01 2.00625345e-01 8.32470059e-02
      8.30355659e-02 2.35948879e-02 1.46587575e-02 1.67770814e-02
      6.09418191e-02 1.47406474e-01 1.79959029e-01 1.87119573e-01
      1.35382876e-01 1.65744394e-01 7.16419071e-02 5.51207624e-02
      1.19458467e-01 1.42344818e-01 6.68274984e-02 1.77104160e-01
      2.85546273e-01 2.85546273e-01 1.74398735e-01 2.98801698e-02
      4.34628986e-02 5.32540269e-02 1.30058616e-01 2.85546273e-01
      2.85546273e-01 2.85546273e-01 1.76217884e-01 9.51020122e-02
      3.68245095e-02 2.16515362e-01 2.85546273e-01 2.85546273e-01
      2.06059098e-01 1.10115364e-01 6.40355796e-02 5.80428615e-02
      6.85787722e-02 5.20326942e-02 1.03147522e-01 1.98141158e-01
      1.61357939e-01 1.15749933e-01 6.13155998e-02 2.75988765e-02
      1.21644838e-02 1.47654992e-02 5.76327890e-02 2.74462819e-01
      1.99854210e-01 1.34842232e-01 2.83795059e-01 2.47689798e-01
      2.15881988e-01 4.76454906e-02 1.94484293e-02 3.38361785e-02
      2.60655224e-01 2.83795059e-01 2.83795059e-01 1.46214947e-01
      9.33749080e-02 8.25910568e-02 2.49360148e-02 5.09305596e-02
      1.27987757e-01 2.83795059e-01 2.83795059e-01 2.40413025e-01
      4.55143452e-02 4.79645729e-02 2.36980245e-02 2.14602612e-02
      3.25522423e-02 9.23517719e-02 3.66407692e-01 2.07122609e-01
      7.45268986e-02 2.68681329e-02 2.45643891e-02 2.58841738e-02
      3.23699825e-02 3.01746223e-02 3.49098630e-02 9.27325711e-02
      5.49984500e-02 3.33027132e-02 8.07311609e-02 4.16254662e-02
      7.01030493e-02 7.59687722e-02 2.81493425e-01 3.66407692e-01
      3.66407692e-01 3.66407692e-01 1.59201086e-01 3.29720639e-02
      1.47503857e-02 2.56081745e-02 8.91104043e-02 1.99473545e-01
      2.27387398e-01 3.66407692e-01 1.32453069e-01 3.55649330e-02
      3.37385647e-02 1.00997083e-01 2.72361845e-01 2.72361845e-01
      1.61527425e-01 7.16001391e-02 5.78119531e-02 1.08772770e-01
      1.05002679e-01 1.64141133e-01 1.45932660e-01 2.72361845e-01
      1.41478166e-01 4.36090603e-02 1.89421773e-02 1.87893704e-01
      2.63603479e-01 2.20262229e-01 4.60610166e-02 1.06303826e-01
      1.42456040e-01 1.63522109e-01 1.16215751e-01 1.51164189e-01
      2.10367516e-01 2.72361845e-01 1.81756467e-01 6.54173195e-02
      5.10972887e-02 6.82534352e-02 6.76399171e-02 4.22694646e-02
      5.66250011e-02 2.72361845e-01 2.72361845e-01 2.53764093e-01
      1.80479914e-01 1.15433127e-01 1.12351470e-01 2.45040227e-02
      1.28837787e-02 9.42685362e-03 2.15765536e-01 2.92188734e-01
      1.78229555e-01 6.86382204e-02 3.63968611e-02 1.03294760e-01
      9.05339569e-02 1.67769238e-01 1.10928431e-01 2.92188734e-01
      2.92188734e-01 1.46962643e-01 3.82752605e-02 2.22908873e-02
      1.99084599e-02 1.45898070e-02 3.23905870e-02 3.10221687e-02
      2.92188734e-01 2.92188734e-01 1.15867503e-01 2.65213568e-02
      3.35385986e-02 1.54435098e-01 2.06478357e-01 2.57892162e-01
      1.37439087e-01 2.92188734e-01 2.92188734e-01 5.56309298e-02
      2.64376905e-02 6.29840139e-03 8.74474943e-02 1.32524505e-01
      2.65476078e-01 2.30011687e-01 2.65476078e-01 2.52252847e-01
      5.66188544e-02 1.49632189e-02 3.66267562e-03 1.79591738e-02
      6.68929443e-02 2.10139036e-01 1.57696664e-01 1.38763711e-01
      4.35819700e-02 8.43574572e-03 5.27856611e-02 3.77899855e-02
      2.15182200e-01 2.65476078e-01 2.65476078e-01 2.59678483e-01
      2.65476078e-01 2.65476078e-01 6.34878427e-02 1.53066099e-01
      3.70803587e-02 5.66828176e-02 1.54010400e-01 2.65476078e-01
      1.74851716e-01 1.13669686e-01 1.27941579e-01 1.71596795e-01
      5.53841442e-02 5.93514480e-02 4.98697795e-02 5.58004789e-02
      8.21690634e-02 1.35792479e-01 2.73172498e-01 2.73172498e-01
      1.56068251e-01 1.29503921e-01 4.23841029e-02 6.76741004e-02
      6.24203123e-02 1.99740380e-01 7.67455697e-02 2.73172498e-01
      2.73172498e-01 2.73172498e-01 3.47502343e-02 4.59098518e-02
      9.87749547e-02 9.26524699e-02 1.11309990e-01 8.83896276e-02
      1.66304097e-01 1.78955600e-01 1.21142790e-01 1.84026167e-01
      1.03256010e-01 2.40940556e-01 1.49233460e-01 2.73172498e-01
      1.35856673e-01 1.26300201e-01 2.54681379e-01 2.73172498e-01
      5.53212427e-02 3.24521735e-02 3.04361507e-02 2.78624464e-02
      8.72230232e-02 3.04593202e-02 2.67113775e-01 2.67113775e-01
      1.45116463e-01 3.76076438e-02 9.72683951e-02 2.17699468e-01
      2.43765756e-01 1.19144134e-01 8.71340185e-02 2.67113775e-01
      2.67113775e-01 7.19840974e-02 1.97504982e-01 1.03199683e-01
      8.50817189e-02 4.10004817e-02 1.29058927e-01 4.45073619e-02
      2.04646915e-01 2.67113775e-01 2.67113775e-01 1.36649475e-01
      1.66155368e-01 1.69166878e-01 1.61391437e-01 4.57987599e-02
      2.86936797e-02 2.67113775e-01 2.41481751e-01 1.91145450e-01
      1.07606359e-01 1.75545409e-01 2.68629521e-01 2.68629521e-01
      2.66153574e-01 1.60485774e-01 2.52304286e-01 2.68629521e-01
      1.02775164e-01 2.68629521e-01 1.14915468e-01 1.40801668e-01
      1.31974891e-01 1.47049025e-01 9.26555917e-02 1.06790572e-01
      2.08351418e-01 2.68629521e-01 1.02886900e-01 1.90934896e-01
      2.68629521e-01 2.28925511e-01 6.72038347e-02 3.03821769e-02
      1.18172526e-01 1.13699883e-01 1.03760831e-01 1.42931625e-01
      9.57920477e-02 1.17320195e-01 4.91053350e-02 2.81408336e-02
      1.97968148e-02 4.34362032e-02 8.41247812e-02 1.31108522e-01</_>
    <_>
      1.32465243e-01 1.94876581e-01 2.96555817e-01 1.21573359e-01
      4.53785062e-02 2.36943904e-02 8.92579742e-03 1.97205991e-02
      4.64224853e-02 2.03965664e-01 2.15540424e-01 1.47186100e-01
      6.83408901e-02 5.27389869e-02 3.77254598e-02 1.07817994e-02
      4.64502461e-02 1.07824527e-01 2.69253552e-01 2.33985305e-01
      2.96555817e-01 1.33533999e-01 5.32601885e-02 2.87567880e-02
      1.34263029e-02 2.43772507e-01 1.92661107e-01 2.96555817e-01
      2.30298638e-01 2.12411121e-01 4.69316989e-02 4.08109426e-02
      3.94672528e-02 1.47056347e-02 2.96555817e-01 2.96555817e-01
      2.35783815e-01 1.41433895e-01 7.35003352e-02 3.63635905e-02
      4.20746766e-02 3.58645096e-02 1.21234246e-02 5.64684458e-02
      1.29288331e-01 1.21584468e-01 5.39671183e-02 4.65361774e-02
      2.18131058e-02 2.88476758e-02 4.27846238e-02 7.32805952e-02
      1.21960796e-01 1.62607834e-01 3.13573122e-01 3.08316410e-01
      1.93131879e-01 2.04197802e-02 3.12302839e-02 3.81288491e-02
      1.07823625e-01 3.13573122e-01 3.13573122e-01 2.60923296e-01
      1.02359273e-01 7.26476163e-02 6.51286915e-03 1.40064741e-02
      2.96244640e-02 3.13573122e-01 3.13573122e-01 3.13573122e-01
      7.52271190e-02 3.41320746e-02 2.29380485e-02 1.47649199e-02
      7.00902864e-02 1.69477358e-01 1.84361607e-01 2.01059505e-01
      1.47554398e-01 1.28857255e-01 9.62491632e-02 3.20058577e-02
      1.53492074e-02 1.13521487e-01 2.54301250e-01 2.83977807e-01
      2.83977807e-01 1.75428838e-01 1.03325121e-01 3.13312486e-02
      3.01747005e-02 1.26839085e-02 3.25483978e-02 9.79788005e-02
      2.76922345e-01 2.83977807e-01 2.83977807e-01 1.22622266e-01
      8.28051940e-02 7.41339475e-02 4.15281057e-02 1.00335971e-01
      2.02895388e-01 2.83977807e-01 2.46402666e-01 2.82772273e-01
      1.06878296e-01 1.62687227e-01 2.70274967e-01 1.03017606e-01
      2.51887590e-02 1.35849351e-02 3.89855653e-02 1.84589028e-01
      1.44505531e-01 2.13084117e-01 1.55546233e-01 1.64879933e-01
      2.56544519e-02 1.69193763e-02 1.18401116e-02 3.85477282e-02
      2.70274967e-01 2.70274967e-01 1.44825906e-01 9.84721035e-02
      2.70274967e-01 6.68120682e-02 2.25596577e-02 4.58195619e-02
      2.70274967e-01 2.70274967e-01 2.70274967e-01 1.60520494e-01
      7.74590969e-02 9.64877456e-02 2.54776310e-02 1.23745268e-02
      3.25953290e-02 2.70274967e-01 2.70274967e-01 2.32433468e-01
      2.70381063e-01 2.09451288e-01 1.57467201e-01 1.02838296e-02
      7.85515457e-03 1.97653007e-02 1.21676296e-01 2.96328843e-01
      2.86782742e-01 1.64680585e-01 6.84531257e-02 6.03001639e-02
      1.14164827e-02 2.56483499e-02 2.32168473e-02 2.96328843e-01
      2.96328843e-01 2.96328843e-01 1.05033919e-01 7.15458691e-02
      6.39010072e-02 1.30988704e-02 8.04081094e-03 3.16759832e-02
      1.44879669e-01 2.96328843e-01 1.86398357e-01 9.65797305e-02
      4.55383994e-02 4.37396355e-02 2.93979235e-02 5.89509085e-02
      1.87338907e-02 1.58341557e-01 2.96328843e-01 2.71552682e-01
      1.10164180e-01 3.59979197e-02 3.36054601e-02 3.51214148e-02
      9.85426679e-02 2.87784245e-02 2.30444342e-01 2.71250904e-01
      2.71250904e-01 9.37242657e-02 3.93542573e-02 4.35324423e-02
      6.45607039e-02 1.79016471e-01 8.70147571e-02 1.81655660e-01
      2.39050835e-01 1.62602365e-01 1.18941374e-01 6.74026906e-02
      7.56485537e-02 9.43493173e-02 2.01910704e-01 3.35045233e-02
      2.28467524e-01 2.71250904e-01 2.34009594e-01 1.32083893e-01
      6.98165223e-02 1.60500973e-01 1.59034103e-01 2.71250904e-01
      1.07438207e-01 2.71250904e-01 2.71250904e-01 1.91602990e-01
      1.92335591e-01 4.52258773e-02 7.63769820e-02 4.40784283e-02
      4.92176749e-02 1.07306488e-01 2.83956617e-01 2.83956617e-01
      2.83956617e-01 2.23812431e-01 4.50991727e-02 7.55864978e-02
      5.30685037e-02 5.53319901e-02 9.04189795e-02 2.83956617e-01
      2.83956617e-01 2.83956617e-01 6.45247623e-02 2.59619895e-02
      4.68536131e-02 7.05216825e-02 6.72386140e-02 7.58854672e-02
      1.36216521e-01 1.21678740e-01 7.87212402e-02 1.34387881e-01
      6.38051182e-02 1.33152276e-01 1.46327645e-01 2.42022961e-01
      1.46555871e-01 2.35835001e-01 2.61249512e-01 2.31712520e-01
      1.25667095e-01 1.53723937e-02 2.65141875e-02 1.28332768e-02
      2.11281404e-02 3.21213827e-02 2.63113767e-01 2.81405300e-01
      2.81405300e-01 7.79155567e-02 3.89697030e-02 4.13866192e-02
      3.10177524e-02 4.44100313e-02 2.31201425e-02 1.75798729e-01
      2.81405300e-01 2.10521951e-01 1.60235971e-01 3.63117643e-02
      7.11461976e-02 4.96532470e-02 1.51980489e-01 7.48054013e-02
      2.81405300e-01 2.81405300e-01 2.81405300e-01 1.51916757e-01
      7.71523193e-02 8.37740526e-02 3.97913828e-02 4.97790240e-02
      7.45824352e-02 2.81405300e-01 2.81405300e-01 2.81405300e-01
      6.91678971e-02 1.13823287e-01 2.14294583e-01 9.23836455e-02
      1.15711719e-01 2.82978192e-02 1.32090107e-01 2.55760491e-01
      1.21000953e-01 1.14504650e-01 2.02989131e-01 2.82748967e-01
      1.63921237e-01 1.61040083e-01 4.03981768e-02 2.72191793e-01
      2.82748967e-01 1.30723432e-01 1.34086341e-01 2.20335871e-01
      2.82748967e-01 8.18028674e-02 6.09505661e-02 5.24841882e-02
      1.15952544e-01 2.44626820e-01 1.97052822e-01 1.07645772e-01
      2.64542580e-01 2.82748967e-01 9.95944813e-02 6.09941110e-02
      1.30386129e-02 2.80284807e-02 5.59169762e-02 4.97094356e-02</_>
    <_>
      2.00531378e-01 2.48837814e-01 2.59297788e-01 1.11639775e-01
      4.59180847e-02 1.79125890e-02 1.72679480e-02 2.98967920e-02
      1.38373464e-01 2.14258805e-01 1.63291842e-01 8.11652690e-02
      6.16500154e-02 4.71391007e-02 2.47570872e-02 8.53709579e-02
      1.58589274e-01 2.69252837e-01 2.69252837e-01 1.84710950e-01
      2.03009069e-01 1.37182668e-01 6.10049479e-02 3.80928516e-02
      1.05172731e-01 2.69252837e-01 2.69252837e-01 2.69252837e-01
      1.73462212e-01 6.69360757e-02 5.71641885e-02 1.93119757e-02
      4.07776833e-02 1.29378811e-01 2.69252837e-01 2.69252837e-01
      1.45360291e-01 8.63906965e-02 2.93180309e-02 4.16672565e-02
      6.59507811e-02 5.13139516e-02 2.59057522e-01 2.65011609e-01
      2.79796332e-01 1.11319564e-01 6.78924695e-02 2.42985878e-02
      1.85751934e-02 6.86954558e-02 9.74735022e-02 2.79796332e-01
      2.79796332e-01 2.79796332e-01 1.38824135e-01 9.90804657e-02
      3.59000973e-02 4.56843749e-02 4.33503725e-02 7.15484545e-02
      2.37736538e-01 2.79796332e-01 2.79796332e-01 8.96659121e-02
      5.37441783e-02 3.23029086e-02 4.92252223e-02 1.13593191e-01
      1.56977206e-01 2.79796332e-01 2.62789071e-01 1.56689391e-01
      6.22539595e-02 3.54380570e-02 1.01456400e-02 4.93660104e-03
      2.46004518e-02 6.59436360e-02 3.45041782e-01 3.45041782e-01
      1.65083632e-01 2.62107048e-02 2.12231502e-02 5.54336375e-03
      2.59541092e-03 1.12022795e-02 4.13247012e-02 3.45041782e-01
      3.45041782e-01 6.92152679e-02 6.74393699e-02 4.68104705e-02
      2.22290400e-02 2.47937590e-02 8.55035707e-02 1.27933860e-01
      3.07170659e-01 2.44721353e-01 1.02859907e-01 4.41297218e-02
      2.02181432e-02 2.44484581e-02 1.43359099e-02 5.70439249e-02
      1.70469597e-01 3.45041782e-01 3.45041782e-01 7.17198849e-02
      2.02263728e-01 1.55712187e-01 1.39375210e-01 7.16482326e-02
      5.79540245e-02 4.43716459e-02 1.12796679e-01 2.79614717e-01
      2.41584256e-01 2.46509746e-01 1.43737420e-01 9.79984924e-02
      1.79466475e-02 1.97816603e-02 4.36054058e-02 2.25109026e-01
      2.79614717e-01 2.79614717e-01 9.75057706e-02 1.06421739e-01
      1.11162990e-01 8.91990736e-02 7.76929185e-02 8.98906291e-02
      2.79614717e-01 2.79614717e-01 1.33746028e-01 8.21605325e-02
      7.63104558e-02 1.11693427e-01 2.07519345e-02 4.18582223e-02
      7.80360773e-02 2.79614717e-01 2.79614717e-01 1.81640267e-01
      7.56977648e-02 4.40207012e-02 2.66818684e-02 8.78193602e-03
      1.94194503e-02 3.92996110e-02 3.08433771e-01 3.28358680e-01
      2.42357463e-01 2.58254539e-02 9.15472396e-03 5.13003627e-03
      1.35087464e-02 4.17071022e-02 5.59433624e-02 2.53325701e-01
      3.28358680e-01 1.29156336e-01 3.11823934e-02 1.52237089e-02
      2.74403058e-02 6.45224191e-03 4.04392853e-02 6.18273616e-02
      3.28358680e-01 3.28358680e-01 1.97247818e-01 3.11317854e-02
      6.61521079e-03 3.21190208e-02 1.35910744e-02 7.40017369e-02
      1.06555760e-01 3.28358680e-01 3.28358680e-01 1.82888940e-01
      5.57360202e-02 2.15860792e-02 1.03839524e-02 2.09708009e-02
      8.66651908e-02 1.33863524e-01 2.58523017e-01 2.55024016e-01
      1.20574445e-01 8.56187716e-02 2.50821579e-02 2.07762625e-02
      1.64849926e-02 7.95533136e-02 2.37063751e-01 2.83401012e-01
      2.83401012e-01 1.06560320e-01 7.81133398e-02 3.63965593e-02
      3.77221443e-02 2.85518728e-02 1.19709238e-01 2.55535871e-01
      2.83401012e-01 2.83401012e-01 1.77918538e-01 1.57052383e-01
      5.73594198e-02 3.18567157e-02 5.92028126e-02 1.43152699e-01
      2.83401012e-01 2.70198315e-01 2.34499559e-01 1.87530652e-01
      7.43634403e-02 2.31355987e-02 2.14650966e-02 3.58938575e-02
      5.05521744e-02 1.18851915e-01 3.25415462e-01 3.25415462e-01
      9.78169665e-02 3.78923193e-02 1.95181128e-02 1.44401472e-02
      6.29260950e-03 3.20454538e-02 7.69214481e-02 3.25415462e-01
      3.25415462e-01 6.32684007e-02 6.13340177e-02 1.64089799e-02
      8.78839474e-03 1.61301587e-02 6.05472513e-02 1.47867411e-01
      3.25415462e-01 3.11210275e-01 8.66658315e-02 1.16204299e-01
      5.41074350e-02 1.82247348e-03 3.38753723e-02 1.01426005e-01
      1.82325229e-01 3.25415462e-01 3.25415462e-01 1.14162423e-01
      1.73657332e-02 1.50895901e-02 2.57054940e-02 1.76286586e-02
      4.08315063e-02 4.88740653e-02 2.34858423e-01 2.74408281e-01
      6.53654635e-02 4.65179384e-02 9.81988013e-02 1.45791695e-01
      9.99709517e-02 1.15017876e-01 1.61119938e-01 2.74408281e-01
      2.74408281e-01 9.64487195e-02 5.70080914e-02 4.80157994e-02
      5.54222949e-02 5.99219464e-02 5.17225154e-02 1.10668905e-01
      2.74408281e-01 2.74408281e-01 1.13749191e-01 3.70249040e-02
      1.64209351e-01 2.71451980e-01 2.47549385e-01 1.50246903e-01
      2.74408281e-01 2.74408281e-01 2.74408281e-01 1.11209594e-01
      5.64258285e-02 9.78045762e-02 1.12531632e-01 7.93770030e-02
      1.21906027e-01 2.46907860e-01 2.46907860e-01 2.46907860e-01
      8.74633566e-02 6.97286800e-02 4.73029651e-02 4.45097499e-02
      6.69216365e-02 1.43174767e-01 2.36652866e-01 1.68906525e-01
      1.28749534e-01 8.19848031e-02 2.34523062e-02 1.43373683e-01
      2.21392751e-01 2.20490232e-01 2.41272584e-01 2.46907860e-01
      2.46907860e-01 2.39523008e-01 4.44289707e-02 5.41593730e-02
      1.35941729e-01 1.77510396e-01 1.27759397e-01 2.46907860e-01
      2.09790945e-01 2.46907860e-01 1.52623788e-01 4.27395627e-02</_>
    <_>
      2.24190041e-01 2.18523949e-01 1.90672055e-01 8.57536644e-02
      6.44269735e-02 2.93576811e-02 2.64028274e-02 4.15822305e-02
      1.48346946e-01 2.45984256e-01 8.54537413e-02 6.26655966e-02
      8.23342502e-02 1.20377362e-01 9.58578661e-02 1.77642971e-01
      2.04225957e-01 2.59700656e-01 2.59700656e-01 1.76025018e-01
      2.15019360e-01 9.17846859e-02 6.98744059e-02 4.06179354e-02
      1.29546121e-01 2.59700656e-01 2.40296379e-01 2.43772954e-01
      1.29219249e-01 7.53589720e-02 4.29131389e-02 6.97158724e-02
      8.41694325e-02 2.26416633e-01 2.59700656e-01 2.59700656e-01
      1.60016432e-01 3.91395204e-02 2.31191609e-02 4.27968353e-02
      9.48860720e-02 1.33964345e-01 2.93890774e-01 2.93890774e-01
      2.40524605e-01 8.15768987e-02 1.56715438e-02 3.14496201e-03
      8.60389415e-03 4.48871255e-02 1.25890046e-01 2.93890774e-01
      2.93890774e-01 2.89803058e-01 8.41720849e-02 3.65738496e-02
      2.16771625e-02 4.43275757e-02 6.89961761e-02 1.48529619e-01
      2.58564562e-01 2.63673842e-01 1.40284717e-01 3.38377319e-02
      1.28839081e-02 1.14167826e-02 3.35936472e-02 5.97021990e-02
      1.96736485e-01 2.93890774e-01 2.93890774e-01 1.30830228e-01
      2.33155098e-02 3.05929873e-03 6.72409020e-04 1.60630711e-03
      8.23243707e-03 3.26613523e-02 3.35173219e-01 3.35173219e-01
      1.10712796e-01 6.07866235e-03 2.48484965e-03 8.15352774e-04
      3.07117891e-03 9.44425724e-03 3.44187133e-02 3.35173219e-01
      2.79018492e-01 3.12244985e-02 1.37524661e-02 5.37095871e-03
      5.00421086e-03 1.48690511e-02 3.08294389e-02 1.32907793e-01
      3.35173219e-01 3.35173219e-01 6.01365939e-02 1.33694354e-02
      2.33696337e-04 8.67579016e-04 8.42246599e-03 7.33924657e-02
      2.94796586e-01 3.35173219e-01 3.35173219e-01 3.04117780e-02
      2.12778881e-01 1.04414143e-01 1.15412749e-01 5.61968014e-02
      4.30806503e-02 3.72985974e-02 1.52341053e-01 3.09543192e-01
      2.21294075e-01 1.49808109e-01 8.26814026e-02 4.96588312e-02
      1.97225790e-02 2.66937912e-02 3.65185812e-02 3.09543192e-01
      3.09543192e-01 2.66992301e-01 1.09124549e-01 4.42587174e-02
      6.43050298e-02 4.84122708e-02 3.62082124e-02 7.46360049e-02
      3.09543192e-01 3.09543192e-01 1.20654821e-01 5.08869737e-02
      2.81321704e-02 3.40859368e-02 3.03751938e-02 3.98694538e-02
      6.92617521e-02 3.09543192e-01 3.09543192e-01 1.37857810e-01
      2.94558946e-02 1.24721332e-02 8.49851780e-03 1.32366605e-02
      2.30306834e-02 5.01870401e-02 3.08181971e-01 3.08181971e-01
      1.48937851e-01 2.30957661e-02 9.76624247e-03 6.18984969e-03
      2.41836142e-02 4.02369313e-02 1.20747305e-01 2.89889604e-01
      3.08181971e-01 1.00812584e-01 4.05479632e-02 3.26095037e-02
      2.95618009e-02 5.73164634e-02 7.99377933e-02 1.17415018e-01
      3.08181971e-01 3.08181971e-01 1.23879865e-01 7.44830221e-02
      7.61257857e-02 6.17229305e-02 9.64671597e-02 1.33048311e-01
      3.05102289e-01 3.08181971e-01 3.08181971e-01 1.27665564e-01
      3.45020518e-02 1.53318308e-02 6.67979755e-03 2.73207184e-02
      5.12883291e-02 1.50409460e-01 2.88573653e-01 2.78521061e-01
      5.76430820e-02 3.95914204e-02 5.91962459e-03 3.20703303e-03
      3.41651402e-02 2.33235359e-01 2.88573653e-01 2.88573653e-01
      2.71012515e-01 3.61341015e-02 9.17512104e-02 7.76195079e-02
      4.80461419e-02 7.15808570e-02 1.45669803e-01 2.16909334e-01
      2.47344375e-01 1.91141069e-01 1.15645602e-01 9.78482142e-02
      5.58925644e-02 3.23012695e-02 1.20688736e-01 2.88573653e-01
      2.88573653e-01 2.88573653e-01 1.48886606e-01 7.39026517e-02
      8.12557340e-02 4.00593691e-02 2.78081056e-02 3.19339857e-02
      2.58433353e-02 1.29597515e-01 3.31939310e-01 3.31939310e-01
      7.51347616e-02 9.55927148e-02 1.73828844e-02 3.24498788e-02
      5.35066910e-02 6.66135848e-02 9.57980752e-02 3.31939310e-01
      3.31939310e-01 1.31910905e-01 7.48670325e-02 4.92129810e-02
      2.90879179e-02 4.00268622e-02 3.03445961e-02 7.78757706e-02
      2.87874341e-01 2.01450765e-01 4.99067642e-02 1.67712569e-01
      3.61513793e-02 4.50326391e-02 9.28039178e-02 1.25030234e-01
      1.26693413e-01 3.31939310e-01 3.31939310e-01 2.07212225e-01
      7.21751899e-02 6.98002279e-02 7.48821869e-02 1.65676549e-01
      1.43792510e-01 1.33209422e-01 2.41390213e-01 2.41390213e-01
      8.46640468e-02 7.17816427e-02 1.17666639e-01 1.09451085e-01
      2.22282186e-01 1.75476581e-01 2.41390213e-01 2.41390213e-01
      2.28052691e-01 8.95834789e-02 1.21481188e-01 6.63326606e-02
      7.95441642e-02 1.72360957e-01 2.07147300e-01 1.24305904e-01
      2.41390213e-01 2.41390213e-01 1.40872806e-01 9.33688581e-02
      1.24699384e-01 1.48355231e-01 2.41390213e-01 1.89046070e-01
      1.45039827e-01 2.41390213e-01 1.66309685e-01 8.59287083e-02
      8.36184621e-02 1.04651205e-01 9.84247625e-02 1.69827417e-01
      1.86491936e-01 2.41716191e-01 2.41716191e-01 1.57871112e-01
      1.35297254e-01 1.44252300e-01 9.85138491e-02 1.38591290e-01
      2.34698832e-01 2.41716191e-01 2.41716191e-01 1.50284410e-01
      8.50128606e-02 1.28727347e-01 1.01221606e-01 2.22981855e-01
      2.21295252e-01 2.41716191e-01 1.20737329e-01 8.56645405e-02
      2.26550922e-01 1.31827846e-01 9.67023224e-02 1.44754678e-01
      1.90676913e-01 2.41716191e-01 2.34890074e-01 1.42222852e-01
      5.45540005e-02 4.44362499e-02 4.62516360e-02 1.12444229e-01</_>
    <_>
      1.16916738e-01 1.61966488e-01 2.50962317e-01 1.56252965e-01
      6.99200705e-02 7.21472502e-02 5.77147640e-02 1.07888907e-01
      1.01093791e-01 1.76662967e-01 2.43472695e-01 2.50962317e-01
      2.22892836e-01 7.61127472e-02 4.38206419e-02 1.08651996e-01
      1.69768006e-01 2.34833792e-01 9.96816978e-02 9.32745188e-02
      2.50962317e-01 2.50962317e-01 1.21631943e-01 6.52727112e-02
      7.24215135e-02 1.20115608e-01 1.24802209e-01 2.27413744e-01
      2.19383895e-01 2.50962317e-01 2.35424131e-01 6.27639517e-02
      3.24633233e-02 1.04934275e-01 1.79235458e-01 2.50962317e-01
      1.73096672e-01 2.02726305e-01 2.56218344e-01 1.28209561e-01
      6.21882342e-02 3.15212198e-02 1.26401752e-01 2.10516885e-01
      2.61584282e-01 1.54866874e-01 7.67133310e-02 3.71367931e-02
      3.95011567e-02 5.08494005e-02 8.48556682e-02 2.65350461e-01
      2.65350461e-01 2.65350461e-01 1.73694938e-01 1.79511011e-01
      2.62056530e-01 7.56080300e-02 3.36144380e-02 2.05918439e-02
      1.02239966e-01 1.76394194e-01 2.07016408e-01 1.17245242e-01
      5.06373681e-02 3.66579778e-02 3.80333513e-02 3.84678841e-02
      4.70960177e-02 2.65350461e-01 2.65350461e-01 2.65350461e-01
      7.84429535e-02 3.09244059e-02 1.97919253e-02 3.58969048e-02
      5.68185076e-02 1.32875994e-01 2.97142118e-01 2.97142118e-01
      1.99286178e-01 5.45409694e-02 1.54092452e-02 1.72981992e-02
      2.20330227e-02 1.97474994e-02 1.41689241e-01 2.97142118e-01
      2.75421888e-01 1.30637556e-01 6.99483305e-02 1.52016096e-02
      3.65983173e-02 9.25084203e-02 1.64834142e-01 1.40821755e-01
      2.97142118e-01 2.97142118e-01 2.68170327e-01 5.53595088e-02
      1.21325273e-02 4.10943739e-02 7.20621645e-02 1.52028129e-01
      1.95306018e-01 2.97142118e-01 2.47949556e-01 1.17166281e-01
      6.04219064e-02 3.93443294e-02 1.64332479e-01 3.01586777e-01
      1.95631579e-01 5.83145693e-02 1.16144896e-01 2.00834647e-01
      1.07520305e-01 8.29538703e-02 8.44150782e-02 1.09664522e-01
      1.79892346e-01 6.48554638e-02 5.99894933e-02 2.24704772e-01
      3.01586777e-01 1.27793327e-01 1.11689404e-01 3.28464694e-02
      6.10896833e-02 6.84860945e-02 1.31816298e-01 1.39374495e-01
      3.01586777e-01 3.01586777e-01 2.56718844e-01 4.79800440e-02
      2.38082632e-02 3.20093557e-02 2.96962522e-02 3.87642346e-02
      1.16472155e-01 3.01586777e-01 3.01586777e-01 1.85607225e-01
      1.17416598e-01 1.08064458e-01 1.02216817e-01 5.83274625e-02
      4.55869325e-02 4.69134785e-02 1.90969571e-01 2.58131504e-01
      1.09408818e-01 1.05879664e-01 8.37176740e-02 1.24852479e-01
      1.13581203e-01 1.13404311e-01 8.02980959e-02 2.65336841e-01
      3.22557122e-01 1.70062423e-01 5.06410748e-02 4.70837429e-02
      4.93754223e-02 3.09728198e-02 4.55444194e-02 8.20001438e-02
      3.22557122e-01 3.22557122e-01 1.72500372e-01 1.22344039e-01
      1.24272831e-01 1.52804613e-01 1.02821313e-01 1.28835991e-01
      1.23530328e-01 3.22557122e-01 3.22557122e-01 9.81324166e-02
      3.10325865e-02 3.20072360e-02 8.67319107e-02 1.54389277e-01
      2.43608072e-01 1.45967290e-01 2.62978047e-01 2.44206473e-01
      7.96331316e-02 2.83696726e-02 1.74602251e-02 6.84470013e-02
      1.14278108e-01 2.31902286e-01 1.43994033e-01 2.62978047e-01
      1.71316341e-01 4.91895527e-02 6.25109598e-02 5.78522161e-02
      1.68165445e-01 1.21956557e-01 1.57649592e-01 1.12497494e-01
      2.62978047e-01 2.20729202e-01 5.76617792e-02 4.18657549e-02
      3.97663377e-02 2.62978047e-01 2.06635922e-01 2.62978047e-01
      1.26534209e-01 2.62978047e-01 2.62978047e-01 7.84345567e-02
      8.24473873e-02 1.65447220e-02 5.59952334e-02 4.08763327e-02
      4.17531654e-02 1.26714513e-01 2.57597744e-01 2.57597744e-01
      1.74574450e-01 6.32010028e-02 2.04004701e-02 3.35520692e-02
      2.62133013e-02 2.07854230e-02 1.04072861e-01 2.57597744e-01
      2.57597744e-01 1.58353463e-01 2.05554232e-01 7.89153427e-02
      1.08287498e-01 1.26801163e-01 1.09518938e-01 2.22735032e-01
      2.57597744e-01 2.57597744e-01 2.57597744e-01 1.71948895e-01
      5.20845242e-02 7.49995559e-02 9.72516984e-02 7.39445090e-02
      2.20247105e-01 2.57597744e-01 2.57597744e-01 2.41394654e-01
      2.79182922e-02 2.29798574e-02 3.12293023e-02 2.64754780e-02
      1.92328431e-02 4.16316986e-02 3.08372706e-01 3.08372706e-01
      1.03102125e-01 5.01736887e-02 4.45257276e-02 1.74296215e-01
      9.78823304e-02 5.68294376e-02 4.74847332e-02 2.48042718e-01
      3.08372706e-01 5.97747713e-02 7.91300312e-02 5.40995002e-02
      4.54692729e-02 4.91733290e-02 3.34393196e-02 5.88606037e-02
      3.08372706e-01 3.08372706e-01 1.35084316e-01 1.49738252e-01
      1.16920657e-01 3.08372706e-01 1.41428992e-01 5.58284782e-02
      2.99625620e-02 3.08372706e-01 3.08372706e-01 9.37884301e-02
      3.99854630e-02 4.79224697e-02 3.37114096e-01 1.55622944e-01
      6.72361478e-02 3.45985293e-02 1.10477023e-01 1.23735473e-01
      2.95405332e-02 4.07664813e-02 7.24473745e-02 3.37114096e-01
      2.80982494e-01 1.69353023e-01 4.88053188e-02 1.46275058e-01
      9.81182605e-02 6.14025593e-02 1.30197108e-01 2.14526162e-01
      3.37114096e-01 2.10723862e-01 5.28850965e-02 1.59151442e-02
      1.20601431e-01 1.77052781e-01 3.28769013e-02 7.13684633e-02
      3.37114096e-01 3.37114096e-01 2.15332240e-01 6.25622123e-02
      1.07077062e-02 4.40595788e-04 1.89161040e-02 3.48652452e-02</_>
    <_>
      7.10041225e-02 1.78178385e-01 2.78543442e-01 1.34275153e-01
      1.48767024e-01 1.19643085e-01 8.50216225e-02 1.04700528e-01
      7.23880902e-02 2.70431846e-01 2.78543442e-01 2.58719623e-01
      1.00270115e-01 1.35745063e-01 1.17826588e-01 1.10066265e-01
      1.51778132e-01 1.59344047e-01 1.31720632e-01 2.78543442e-01
      2.78543442e-01 1.76338732e-01 8.74689519e-02 4.88549396e-02
      1.63419247e-02 2.40498781e-02 3.57581750e-02 2.43781239e-01
      2.78543442e-01 2.78543442e-01 1.56351119e-01 7.96269849e-02
      7.61253387e-02 8.51211473e-02 5.79500645e-02 8.24948847e-02
      2.91612595e-01 2.09041670e-01 9.37140137e-02 3.46114524e-02
      4.01110090e-02 7.99300224e-02 8.97743478e-02 1.35224104e-01
      2.91612595e-01 1.93295673e-01 6.57285377e-02 4.43006903e-02
      2.35765707e-02 6.07738234e-02 6.94187135e-02 1.50151357e-01
      2.91612595e-01 2.91612595e-01 2.91379333e-01 1.60323575e-01
      1.14328220e-01 7.43216276e-02 3.55551764e-02 1.02486014e-01
      1.31507829e-01 1.14379048e-01 2.19946995e-01 1.96862400e-01
      7.92230591e-02 5.03871329e-02 6.06621020e-02 9.25847888e-02
      1.29131615e-01 1.65407181e-01 2.91612595e-01 2.91612595e-01
      5.06806001e-02 3.30151021e-02 1.46409720e-02 4.99013532e-03
      3.36164981e-02 2.16968432e-02 2.71235615e-01 3.21799934e-01
      2.16058359e-01 2.26921104e-02 1.63223706e-02 1.28466580e-02
      5.59603516e-03 1.68434419e-02 6.06924221e-02 3.21799934e-01
      3.21799934e-01 8.38512480e-02 3.58238332e-02 2.53172405e-02
      2.30284519e-02 3.00355311e-02 5.25352769e-02 7.93707594e-02
      3.21799934e-01 3.21799934e-01 1.14774458e-01 2.53548883e-02
      1.15973968e-02 1.87025126e-02 2.51888856e-02 2.06268802e-02
      3.21799934e-01 3.21799934e-01 3.21799934e-01 5.33102937e-02
      1.39630944e-01 2.03276679e-01 2.54009068e-01 1.57369465e-01
      9.57439467e-02 8.09402540e-02 3.68444473e-02 4.21137810e-02
      5.34788668e-02 2.54009068e-01 1.84799656e-01 2.54009068e-01
      1.59274399e-01 1.14849776e-01 7.13298395e-02 5.90986349e-02
      9.00147408e-02 1.31282330e-01 9.95018408e-02 1.69216767e-01
      1.73250660e-01 2.12475091e-01 2.54009068e-01 2.16426119e-01
      1.07452393e-01 8.48837644e-02 5.66365421e-02 2.32443914e-01
      1.58682317e-01 2.43127853e-01 1.84851989e-01 2.54009068e-01
      2.50497192e-01 6.84239939e-02 1.24633275e-01 1.51612028e-01
      2.82298774e-01 1.64485261e-01 9.85397622e-02 5.87121770e-02
      4.44164425e-02 2.49122269e-02 7.19691962e-02 1.44758701e-01
      2.63173044e-01 2.82298774e-01 1.21068150e-01 1.78306978e-02
      3.77466679e-02 4.82134037e-02 6.41830489e-02 1.49154127e-01
      1.77796572e-01 2.82298774e-01 2.82298774e-01 1.69916019e-01
      1.02391914e-01 8.32145587e-02 2.08688647e-01 6.26015067e-02
      5.00244834e-02 1.24955364e-01 2.34191135e-01 2.82298774e-01
      1.68548122e-01 5.81550412e-02 1.24247819e-01 1.50611982e-01
      1.11192256e-01 1.64016932e-01 1.68019652e-01 2.82298774e-01
      8.80418420e-02 3.38274017e-02 2.60223188e-02 3.44390012e-02
      3.75378616e-02 9.82795209e-02 2.35841036e-01 1.83739722e-01
      1.99991718e-01 6.44218102e-02 3.32634114e-02 4.81796153e-02
      3.52571718e-02 3.38581055e-02 2.65231550e-01 2.65231550e-01
      1.55252904e-01 8.61647427e-02 1.22567087e-01 4.52771932e-02
      3.90195809e-02 8.11789408e-02 1.74134105e-01 1.60745084e-01
      2.40337595e-01 2.65231550e-01 2.65231550e-01 9.25905034e-02
      7.56600723e-02 1.48137078e-01 1.31520212e-01 2.65231550e-01
      2.65231550e-01 2.21852764e-01 2.65231550e-01 2.65231550e-01
      7.80205131e-02 8.93820673e-02 1.40079036e-01 1.06473796e-01
      2.17768237e-01 2.11407676e-01 1.47975534e-01 1.02876030e-01
      7.35758767e-02 1.42786667e-01 1.22248143e-01 1.79601088e-01
      7.63339847e-02 2.71579593e-01 2.40086094e-01 8.23821425e-02
      1.84062719e-01 2.05971450e-01 1.55448377e-01 8.83912593e-02
      1.30606502e-01 3.61900777e-02 1.42559946e-01 1.32642254e-01
      2.00167477e-01 2.01818198e-01 1.42159000e-01 2.71579593e-01
      1.63298115e-01 1.36080638e-01 2.24256758e-02 1.69686660e-01
      9.98453125e-02 1.98375002e-01 2.71579593e-01 2.71579593e-01
      1.88321739e-01 7.38852620e-02 6.88897148e-02 6.17453232e-02
      1.61299750e-01 5.73368929e-02 2.28090752e-02 1.34914204e-01
      2.61747152e-01 1.63941100e-01 7.57831931e-02 6.94588050e-02
      1.65100485e-01 1.66975424e-01 9.07090083e-02 4.52415235e-02
      9.15802643e-02 2.22538143e-01 3.01328689e-01 1.18688390e-01
      6.41430095e-02 3.65576893e-02 1.10643171e-01 5.83069175e-02
      8.54659081e-02 3.10103506e-01 3.10103506e-01 2.94197500e-01
      7.38166645e-02 5.62191345e-02 1.00371368e-01 1.66237742e-01
      1.21725284e-01 6.69652149e-02 3.10103506e-01 3.10103506e-01
      6.97995424e-02 2.38550641e-02 2.99655758e-02 1.32838205e-01
      2.82704920e-01 1.33628249e-01 9.18713287e-02 1.45109788e-01
      2.03250676e-01 4.62453328e-02 4.47318293e-02 1.44869134e-01
      2.69591838e-01 2.82704920e-01 1.89663216e-01 9.88435522e-02
      1.30120054e-01 1.44754276e-01 1.19563989e-01 4.52239178e-02
      5.91946878e-02 1.67232767e-01 2.82704920e-01 1.19172394e-01
      9.08580944e-02 2.82704920e-01 2.82704920e-01 8.51679072e-02
      6.89385012e-02 1.52267426e-01 2.82704920e-01 2.82704920e-01
      9.06320587e-02 6.50212318e-02 1.35241121e-01 8.62853602e-02</_>
    <_>
      8.81253108e-02 2.49183789e-01 2.71151245e-01 1.26589850e-01
      7.38878474e-02 6.26293421e-02 6.29232451e-02 6.57445788e-02
      6.01694509e-02 1.97397873e-01 2.85886407e-01 1.83108672e-01
      9.98780057e-02 7.43407011e-02 3.26203592e-02 5.25505319e-02
      3.94048505e-02 8.57694820e-02 1.41647696e-01 2.85886407e-01
      1.76288381e-01 2.85886407e-01 2.00888619e-01 1.25844881e-01
      4.77103963e-02 5.32952659e-02 4.93859649e-02 2.85886407e-01
      2.85886407e-01 2.16704175e-01 2.85886407e-01 1.71726570e-01
      1.50464490e-01 3.81133258e-02 4.87231202e-02 8.67611542e-02
      2.67121613e-01 2.67121613e-01 8.27765465e-02 3.87575217e-02
      3.89473513e-02 2.04178803e-02 3.91776375e-02 4.41227630e-02
      1.30240709e-01 2.67121613e-01 2.28065565e-01 4.90278974e-02
      5.10422885e-03 3.45922820e-02 7.72005469e-02 2.10369065e-01
      2.35070169e-01 2.67121613e-01 2.67121613e-01 2.67121613e-01
      1.50357023e-01 1.55224100e-01 5.65645397e-02 4.70222048e-02
      1.57829970e-02 2.70841531e-02 1.31948724e-01 2.67121613e-01
      2.67121613e-01 8.75466987e-02 2.30435207e-02 2.80843601e-02
      8.52033347e-02 1.70970291e-01 2.17530072e-01 2.67121613e-01
      1.45578310e-01 7.96427727e-02 2.84864716e-02 4.65312265e-02
      3.62570807e-02 8.84518847e-02 2.55637795e-01 2.55637795e-01
      1.97450221e-01 9.35550705e-02 1.55455500e-01 2.18433946e-01
      1.54570222e-01 7.80421197e-02 8.46776068e-02 2.12010339e-01
      1.74211010e-01 7.96657205e-02 2.44874135e-01 1.63669690e-01
      2.05910373e-02 6.80117011e-02 1.49264991e-01 2.16286197e-01
      2.55637795e-01 1.88842744e-01 2.55637795e-01 1.02607772e-01
      7.75614679e-02 4.94139008e-02 1.56896546e-01 2.55637795e-01
      2.55637795e-01 2.55637795e-01 7.44985864e-02 1.27470464e-01
      6.82181939e-02 2.40056768e-01 7.53516182e-02 2.21115261e-01
      1.93151057e-01 1.75671294e-01 1.05828442e-01 5.50765954e-02
      1.31628020e-02 1.74539730e-01 2.44576082e-01 1.01757132e-01
      2.44576082e-01 1.43552974e-01 1.15746640e-01 6.50825649e-02
      2.03426387e-02 1.78770795e-02 1.85501557e-02 9.64384750e-02
      6.10418916e-02 1.97422832e-01 2.44576082e-01 2.44576082e-01
      2.44576082e-01 1.15804069e-01 3.51001397e-02 1.99998841e-01
      2.44576082e-01 1.49783552e-01 1.87226996e-01 2.37439677e-01
      2.44576082e-01 2.44576082e-01 7.16337413e-02 1.17525168e-01
      2.21853077e-01 2.72770226e-01 8.23710412e-02 1.13214590e-01
      4.80280258e-02 3.32970098e-02 8.82536266e-03 1.46672949e-02
      5.84555753e-02 3.09833080e-01 3.09833080e-01 5.55517562e-02
      2.21084058e-02 2.18000151e-02 4.45701815e-02 2.96206661e-02
      3.38057764e-02 1.71069056e-01 3.09833080e-01 3.09833080e-01
      1.77303776e-01 5.87072819e-02 6.08339347e-02 4.86146994e-02
      3.82782482e-02 3.22731882e-02 2.46529505e-01 3.09833080e-01
      3.09833080e-01 1.58608243e-01 4.21005487e-02 6.70264438e-02
      3.44130956e-02 1.04170563e-02 1.76421106e-02 3.09833080e-01
      2.39099428e-01 2.53292382e-01 2.96720602e-02 4.62542623e-02
      1.38806686e-01 1.98651835e-01 1.80404589e-01 5.28658666e-02
      1.80075973e-01 8.88373107e-02 1.28644302e-01 3.42812911e-02
      8.17419738e-02 2.60916680e-01 2.60916680e-01 2.60916680e-01
      3.79139036e-02 8.73734653e-02 2.60916680e-01 2.60916680e-01
      2.24518895e-01 6.59418479e-02 8.07627067e-02 1.26166001e-01
      6.34794831e-02 3.24717164e-02 2.41420761e-01 1.56174868e-01
      2.60916680e-01 1.89954400e-01 6.68707192e-02 1.26752645e-01
      2.00201467e-01 1.29812062e-01 5.90883605e-02 1.21303126e-01
      1.77167468e-02 1.38227835e-01 2.13045627e-01 1.07217416e-01
      1.62551358e-01 2.16562420e-01 2.51133293e-01 1.30943581e-01
      7.96519071e-02 2.47176558e-01 2.51133293e-01 2.51133293e-01
      1.50246471e-01 1.53286889e-01 2.51133293e-01 2.51133293e-01
      2.20110193e-01 2.51133293e-01 3.33521627e-02 2.08248466e-01
      2.51133293e-01 4.64777723e-02 2.78161466e-02 3.02684270e-02
      5.58828861e-02 3.70743759e-02 4.12116721e-02 1.62912145e-01
      1.25615031e-01 2.01433390e-01 5.27957305e-02 2.99616717e-02
      8.97489861e-02 1.25535026e-01 1.52576402e-01 1.97692484e-01
      2.73796111e-01 2.73796111e-01 2.52590984e-01 5.46845496e-02
      7.98512101e-02 6.79404289e-02 8.99390355e-02 1.07734501e-01
      2.73796111e-01 2.73796111e-01 2.73796111e-01 1.88148469e-01
      8.14694390e-02 1.86306924e-01 7.33054131e-02 1.26988828e-01
      3.55092101e-02 2.73796111e-01 2.19662055e-01 1.87411159e-01
      9.52042341e-02 3.48504931e-02 4.41980772e-02 5.55261038e-02
      6.41659498e-02 1.16095051e-01 2.52837062e-01 1.29489273e-01
      1.94225252e-01 9.56869349e-02 5.12460619e-02 9.69737545e-02
      7.52283260e-02 2.44588673e-01 6.59741983e-02 1.57371402e-01
      3.20910245e-01 3.20910245e-01 3.20910245e-01 1.50834203e-01
      1.70295566e-01 9.63571370e-02 2.74532944e-01 9.04655084e-02
      1.98291034e-01 1.00120053e-01 1.87982589e-01 2.79071301e-01
      9.14183706e-02 4.86715473e-02 7.42224753e-02 1.77719861e-01
      1.13872319e-01 7.78054744e-02 5.90867884e-02 6.25290945e-02
      8.49991813e-02 6.14440106e-02 9.84766558e-02 9.74428654e-02
      3.20910245e-01 1.62610337e-01 4.20388170e-02 2.23227702e-02
      1.94963496e-02 4.17455398e-02 4.31862101e-02 6.30405173e-02
      4.35273498e-02 3.20910245e-01 1.76879168e-01 2.10208017e-02</_>
    <_>
      3.13797556e-02 2.06828639e-01 3.32076252e-01 2.03281134e-01
      8.15484747e-02 5.33986874e-02 5.71857626e-03 8.47733580e-03
      1.30396886e-02 1.02843538e-01 3.32076252e-01 3.32076252e-01
      1.44298092e-01 5.67361861e-02 4.73376028e-02 6.14824984e-03
      2.42977589e-02 2.38290839e-02 7.56298900e-02 1.29678085e-01
      3.32076252e-01 3.32076252e-01 2.01576874e-01 8.06365758e-02
      3.03866751e-02 2.02454068e-02 2.49704979e-02 1.51284084e-01
      1.74782336e-01 3.32076252e-01 2.25722089e-01 1.09544620e-01
      5.48161641e-02 4.40164991e-02 6.68565556e-02 6.84888363e-02
      9.84220654e-02 2.31582671e-01 2.02549949e-01 1.22028336e-01
      8.20191726e-02 3.46024148e-02 1.46075794e-02 1.42279267e-02
      2.67653763e-02 2.42213011e-01 2.25227892e-01 2.53816843e-01
      2.47501090e-01 1.58002868e-01 4.65498492e-02 3.27942781e-02
      4.32362370e-02 1.28544062e-01 7.47272745e-02 1.42235667e-01
      2.34878063e-01 2.53816843e-01 1.93365619e-01 1.32995814e-01
      3.32079120e-02 2.51949672e-02 4.76126187e-02 2.53816843e-01
      2.30511174e-01 2.53816843e-01 2.53816843e-01 2.53816843e-01
      1.88426211e-01 5.01821525e-02 1.77018028e-02 1.83970779e-01
      2.54434913e-01 1.18382894e-01 2.65827328e-01 2.65827328e-01
      1.06310911e-01 4.94864210e-02 7.21241757e-02 1.54432684e-01
      1.53504357e-01 2.65827328e-01 7.02066049e-02 1.16517723e-01
      1.20139249e-01 3.60601507e-02 4.47639786e-02 2.58084953e-01
      2.65827328e-01 2.65827328e-01 1.55631259e-01 9.80211198e-02
      2.48074621e-01 2.15738729e-01 9.84038115e-02 8.33322629e-02
      4.33070511e-02 4.48812470e-02 1.12131245e-01 1.50596544e-01
      6.71403706e-02 1.64300963e-01 2.25106552e-01 1.46409616e-01
      8.20116997e-02 7.39677250e-02 2.18976602e-01 1.86041772e-01
      8.22427422e-02 9.77029651e-02 1.29980028e-01 2.67981112e-01
      2.67981112e-01 8.42067376e-02 3.31091285e-02 3.63156535e-02
      3.08095813e-02 1.34058222e-01 1.32558435e-01 1.67843223e-01
      2.60278165e-01 1.64445952e-01 8.33596066e-02 4.84500751e-02
      7.07581043e-02 5.38322851e-02 9.93326008e-02 6.63373098e-02
      5.87600730e-02 2.15325043e-01 2.67981112e-01 2.67981112e-01
      1.73068747e-01 1.80226952e-01 8.95741582e-02 7.81909972e-02
      1.18217662e-01 1.80682272e-01 2.46963784e-01 2.52322644e-01
      2.67981112e-01 1.58955440e-01 2.67981112e-01 9.93644670e-02
      2.68925522e-02 8.98113623e-02 2.41097882e-01 2.41097882e-01
      2.21252814e-01 1.63797170e-01 3.53872329e-02 2.82157846e-02
      2.04450246e-02 5.07400222e-02 6.71323240e-02 2.11546585e-01
      2.41097882e-01 2.27680206e-01 1.91182882e-01 7.13105649e-02
      6.37436882e-02 6.24990910e-02 2.38390770e-02 1.12477623e-01
      2.41097882e-01 2.22365305e-01 2.41097882e-01 2.41097882e-01
      1.64135367e-01 2.22620204e-01 5.89079484e-02 6.35376722e-02
      7.08814561e-02 1.78396165e-01 1.67823076e-01 1.65302515e-01
      1.82952613e-01 2.15172648e-01 2.41097882e-01 1.77750722e-01
      5.20892739e-02 3.47219817e-02 1.20876141e-01 1.72198415e-01
      1.42169893e-01 9.39361304e-02 7.56347477e-02 1.16741389e-01
      6.22153468e-02 5.10669202e-02 5.00000566e-02 3.05668622e-01
      3.05668622e-01 3.05668622e-01 1.52369782e-01 2.95802783e-02
      8.11276734e-02 6.18548505e-02 6.82293996e-02 4.17211726e-02
      1.35868609e-01 2.11439431e-01 1.15407534e-01 8.06277692e-02
      1.80416182e-01 2.65494794e-01 1.68396801e-01 3.22954915e-02
      6.32756352e-02 3.05668622e-01 3.05668622e-01 3.05668622e-01
      2.47902945e-01 5.08564413e-02 6.91863000e-02 4.05849218e-02
      8.85121301e-02 4.62924875e-02 3.95213775e-02 5.82495220e-02
      1.31584004e-01 2.63737202e-01 3.23041916e-01 1.91434294e-01
      8.87618363e-02 5.33496365e-02 4.31340300e-02 6.40616119e-02
      9.25080702e-02 1.31935626e-01 1.90685824e-01 3.23041916e-01
      3.22283179e-01 7.74476826e-02 4.73955050e-02 3.77054699e-02
      2.01409068e-02 9.15784948e-03 2.75729708e-02 1.88996851e-01
      3.23041916e-01 2.28033647e-01 6.15372956e-02 5.40342368e-02
      4.31829132e-02 3.73832174e-02 3.21169309e-02 8.40529576e-02
      1.79985493e-01 3.23041916e-01 3.23041916e-01 6.75587133e-02
      2.61221528e-02 4.34352420e-02 9.85279158e-02 1.69311345e-01
      2.32302278e-01 1.85871199e-01 1.52714431e-01 2.19914362e-01
      5.82312420e-02 7.37065226e-02 3.48782986e-02 9.47142541e-02
      2.01523349e-01 2.45242596e-01 1.44975096e-01 1.61995739e-01
      2.04136387e-01 1.49755731e-01 6.14071377e-02 4.26572748e-02
      7.02446774e-02 1.22040428e-01 2.29242131e-01 1.29610524e-01
      2.50398725e-01 2.50398725e-01 1.00319050e-01 2.06480294e-01
      3.60143371e-02 8.05199593e-02 1.53816879e-01 2.50398725e-01
      1.04028262e-01 2.49009311e-01 2.50398725e-01 2.50398725e-01
      6.56570494e-02 3.44657972e-02 9.40990523e-02 1.50461808e-01
      1.42294511e-01 5.51693216e-02 8.86503756e-02 1.52975738e-01
      1.32450372e-01 2.64663845e-02 5.68629950e-02 2.73842394e-01
      2.73842394e-01 2.73842394e-01 1.17139116e-01 2.58554500e-02
      5.76891266e-02 4.20011878e-02 1.87522084e-01 3.09245046e-02
      1.07763700e-01 1.51375920e-01 1.85081184e-01 7.23449811e-02
      1.26710847e-01 2.73842394e-01 2.73842394e-01 8.88343379e-02
      1.19426943e-01 2.73842394e-01 2.73842394e-01 2.73842394e-01
      1.38134316e-01 8.23619515e-02 2.51428455e-01 1.65574506e-01</_>
    <_>
      1.60167757e-02 9.23093483e-02 2.95691192e-01 2.91507304e-01
      1.51429176e-01 4.48609330e-02 1.76323708e-02 4.87846974e-03
      4.91381437e-03 4.61316109e-02 2.95305878e-01 2.95691192e-01
      2.41195560e-01 1.03086405e-01 2.53904648e-02 2.13235822e-02
      3.05017494e-02 3.41925174e-02 3.50840911e-02 3.81694511e-02
      2.87725508e-01 2.95691192e-01 2.95691192e-01 1.34052590e-01
      3.19369361e-02 1.21133309e-02 8.74116085e-03 6.61995336e-02
      1.40896067e-01 2.95691192e-01 2.88064003e-01 2.16683730e-01
      1.07221276e-01 6.32454827e-02 5.17013110e-02 4.96491119e-02
      5.09284697e-02 1.86901644e-01 2.48846069e-01 1.47446871e-01
      1.26821116e-01 4.50262949e-02 3.30235846e-02 3.16514820e-02
      2.37364434e-02 2.40169153e-01 2.67079324e-01 2.67079324e-01
      2.55372167e-01 2.01127633e-01 6.88641667e-02 4.86548580e-02
      4.03179154e-02 5.51743656e-02 3.05793528e-02 9.11984071e-02
      2.23866597e-01 2.67079324e-01 2.67079324e-01 1.11652710e-01
      8.16916078e-02 5.24105839e-02 3.28699127e-02 1.30218491e-01
      1.54511213e-01 2.67079324e-01 2.67079324e-01 2.67079324e-01
      1.36895254e-01 1.53281048e-01 1.08162828e-01 6.18469492e-02
      1.94669649e-01 1.79970786e-01 2.72757351e-01 2.47331426e-01
      1.61950782e-01 4.55698408e-02 4.06382233e-02 1.33583680e-01
      1.23870328e-01 1.98630914e-01 1.03461929e-01 2.07350016e-01
      2.01266676e-01 1.65897369e-01 3.84169817e-02 1.46100238e-01
      2.72757351e-01 2.72757351e-01 8.46254230e-02 7.09579140e-02
      1.56027272e-01 1.92276940e-01 1.40994638e-01 6.42889217e-02
      1.11919485e-01 1.23027712e-01 7.79502764e-02 2.92344373e-02
      3.07732299e-02 2.72757351e-01 2.72757351e-01 2.72757351e-01
      1.33911401e-01 7.26232305e-02 7.77361393e-02 9.98732075e-02
      5.26840501e-02 3.59774530e-02 9.71315503e-02 1.90730050e-01
      2.76678532e-01 2.76678532e-01 5.26793972e-02 3.52740251e-02
      2.77428795e-02 5.83389364e-02 5.10780066e-02 1.50305077e-01
      1.71997398e-01 2.38044292e-01 2.35659003e-01 1.47410765e-01
      9.50410366e-02 3.64326611e-02 1.30235717e-01 1.16734937e-01
      1.09730870e-01 3.98052558e-02 2.23821148e-01 2.76678532e-01
      2.56289989e-01 1.90952122e-01 1.81502938e-01 6.94052577e-02
      4.54540998e-02 7.11179376e-02 4.39877622e-02 1.62116557e-01
      2.76678532e-01 2.76678532e-01 2.76678532e-01 1.05935693e-01
      1.51253976e-02 2.13854257e-02 1.91759184e-01 2.47095734e-01
      1.65640742e-01 1.45035103e-01 1.51832178e-01 9.80685651e-02
      1.77764818e-02 6.14192598e-02 6.82833716e-02 1.68484285e-01
      2.47095734e-01 1.72556892e-01 1.13040745e-01 1.65764078e-01
      2.00073630e-01 1.11549258e-01 2.28565317e-02 1.68451052e-02
      1.00614510e-01 1.74774230e-01 1.85590610e-01 1.94994673e-01
      2.47095734e-01 2.38392711e-01 3.67130078e-02 1.32902861e-01
      5.80270737e-02 1.19209431e-01 2.47095734e-01 2.47095734e-01
      2.34145343e-01 2.47095734e-01 2.47095734e-01 1.72358215e-01
      6.49719611e-02 3.93848531e-02 6.92669973e-02 1.42056584e-01
      7.60158151e-02 4.24378626e-02 9.09474716e-02 2.02256009e-01
      1.73809856e-01 3.16970088e-02 6.10856107e-03 2.76177198e-01
      2.76177198e-01 2.76177198e-01 1.38050288e-01 3.83451432e-02
      6.80219904e-02 7.59246349e-02 2.01693699e-01 4.59101424e-02
      8.54016766e-02 1.56078503e-01 1.89225674e-01 1.34662077e-01
      1.45485163e-01 2.76177198e-01 2.58313388e-01 1.10609524e-01
      3.66893597e-02 2.76177198e-01 2.76177198e-01 2.76177198e-01
      2.28727043e-01 8.43920186e-02 9.91889834e-02 1.20464973e-01
      1.12549424e-01 1.09118663e-01 7.86205456e-02 1.48835797e-02
      5.48059195e-02 1.67343140e-01 3.72261316e-01 2.23392531e-01
      2.05638289e-01 2.56907418e-02 4.05159891e-02 2.45962758e-02
      9.17053502e-03 5.12187593e-02 1.96911126e-01 3.72261316e-01
      3.72261316e-01 1.22080408e-01 3.83558348e-02 2.35977881e-02
      2.16384046e-02 7.72223435e-03 1.34231355e-02 3.86348628e-02
      2.03463003e-01 9.90090966e-02 7.47888610e-02 4.36626934e-02
      3.56215686e-02 1.44130569e-02 4.14901599e-03 1.86312143e-02
      1.01443589e-01 3.72261316e-01 3.72261316e-01 1.21904716e-01
      2.99084093e-02 2.15530787e-02 1.43244956e-02 8.99121463e-02
      1.76564768e-01 1.42116249e-01 2.67731786e-01 2.15494886e-01
      6.88877478e-02 2.03504443e-01 3.80862728e-02 4.71256822e-02
      2.07292333e-01 2.67731786e-01 1.84168071e-01 2.04403073e-01
      2.67731786e-01 2.67731786e-01 9.52594206e-02 4.78543751e-02
      5.95112471e-03 9.72149149e-03 5.76935746e-02 7.33230859e-02
      2.60196477e-01 2.42600754e-01 1.50738120e-01 2.67731786e-01
      7.82307833e-02 1.02392426e-02 2.30342876e-02 9.28221494e-02
      5.74304536e-02 1.77358508e-01 2.67731786e-01 2.67731786e-01
      2.45237201e-01 5.98430485e-02 5.38129471e-02 7.24501535e-02
      1.34867877e-01 9.60430056e-02 1.07487902e-01 2.52159178e-01
      2.52159178e-01 1.64763927e-01 1.33236527e-01 1.78202778e-01
      2.12634444e-01 2.52159178e-01 1.91198573e-01 7.01331347e-02
      1.19949825e-01 1.70954078e-01 2.52159178e-01 1.12437442e-01
      2.70285849e-02 2.40914691e-02 5.63517734e-02 5.26834354e-02
      1.08614966e-01 2.52159178e-01 2.52159178e-01 2.43732929e-01
      1.72598302e-01 9.40455124e-02 7.40907639e-02 1.78350270e-01
      1.96410805e-01 1.18793197e-01 1.53325558e-01 2.34402746e-01</_>
    <_>
      4.09957655e-02 1.53188676e-01 2.76301265e-01 1.35075405e-01
      9.97339934e-02 2.70745214e-02 1.80679560e-02 2.16753017e-02
      2.26798225e-02 1.33134171e-01 2.50985205e-01 2.76301265e-01
      2.67210692e-01 1.98510200e-01 5.77708222e-02 5.94596751e-02
      8.42187256e-02 3.48904170e-02 3.89314592e-02 7.70062804e-02
      2.76301265e-01 2.23403320e-01 2.76301265e-01 1.28086165e-01
      7.19140992e-02 4.70000654e-02 5.20958677e-02 6.24341965e-02
      1.72967851e-01 2.76301265e-01 2.76301265e-01 2.76301265e-01
      1.53167889e-01 2.09293231e-01 1.12965509e-01 5.52549809e-02
      2.09836841e-01 1.68723240e-01 2.10192069e-01 2.37845927e-01
      2.33175009e-01 1.10906430e-01 3.72712202e-02 6.14976101e-02
      5.74098118e-02 2.53093332e-01 1.74327210e-01 1.36092886e-01
      2.19417647e-01 2.37693533e-01 1.46529436e-01 7.18512759e-02
      4.53399979e-02 1.47334650e-01 4.32104506e-02 1.29502937e-01
      1.82954445e-01 2.53093332e-01 2.53093332e-01 2.10432887e-01
      1.53774917e-01 8.47058371e-02 2.86420491e-02 5.08275256e-02
      4.38312553e-02 9.53455046e-02 2.53093332e-01 2.53093332e-01
      2.53093332e-01 1.31676748e-01 2.97314785e-02 3.06922439e-02
      2.11242020e-01 9.21341330e-02 9.45795774e-02 2.65336633e-01
      2.37608060e-01 1.50925592e-01 2.00391546e-01 1.01187281e-01
      1.29051298e-01 6.48073107e-02 1.62936509e-01 2.00164035e-01
      1.34469762e-01 1.07967466e-01 6.15786128e-02 1.34360179e-01
      1.05631530e-01 4.50270697e-02 5.21771237e-02 4.48603183e-02
      6.53532743e-02 2.65336633e-01 2.65336633e-01 2.60432184e-01
      2.46559054e-01 6.66907132e-02 6.23767264e-02 1.20935969e-01
      1.97510600e-01 1.86095342e-01 2.65336633e-01 2.65336633e-01
      1.24693081e-01 1.79158315e-01 9.88131538e-02 9.88257602e-02
      5.94300032e-02 3.45571600e-02 1.09317057e-01 1.58752486e-01
      2.69984722e-01 2.69984722e-01 1.37230471e-01 5.14543615e-02
      5.71803302e-02 7.32693821e-02 7.34740719e-02 1.25462234e-01
      1.86981469e-01 2.69984722e-01 2.69984722e-01 2.65404195e-01
      1.47432432e-01 7.92069137e-02 9.29745734e-02 5.61738871e-02
      7.09507316e-02 8.55251849e-02 1.32494837e-01 2.69984722e-01
      2.69984722e-01 9.27258804e-02 6.96978644e-02 1.02403499e-01
      6.66072443e-02 9.55064222e-02 9.62259471e-02 1.71721801e-01
      2.69984722e-01 2.69984722e-01 2.38997012e-01 1.12027258e-01
      1.45510174e-02 2.86021065e-02 5.14170341e-02 1.66595832e-01
      2.54811496e-01 2.54811496e-01 1.76898822e-01 1.45108387e-01
      5.74402921e-02 6.24707341e-03 1.20155616e-02 1.97915509e-02
      1.49572656e-01 2.54811496e-01 2.54811496e-01 1.33403778e-01
      6.96494132e-02 3.46638262e-02 4.43373844e-02 2.73520127e-02
      3.38846520e-02 7.82915279e-02 2.24438921e-01 2.54811496e-01
      2.23311961e-01 2.10898340e-01 1.59209281e-01 2.54811496e-01
      1.17683165e-01 3.16101983e-02 9.51434076e-02 2.54811496e-01
      2.54811496e-01 2.15942994e-01 1.69203937e-01 2.54811496e-01
      2.95499712e-02 2.01147106e-02 1.84895806e-02 1.94797575e-01
      2.58607358e-01 2.58607358e-01 1.45046905e-01 1.41257429e-02
      3.31403650e-02 1.15817793e-01 6.86767921e-02 6.67020455e-02
      2.58607358e-01 2.58607358e-01 2.02194959e-01 1.22958079e-01
      5.75698502e-02 1.15437396e-01 2.58607358e-01 1.65991142e-01
      6.91358000e-02 1.52399033e-01 2.58607358e-01 2.58607358e-01
      1.64974779e-01 4.32290994e-02 1.20832331e-01 1.96257338e-01
      8.95156935e-02 9.49177667e-02 2.28112802e-01 2.58607358e-01
      2.47252539e-01 1.63518772e-01 5.23454063e-02 8.85385498e-02
      1.71598181e-01 2.26655155e-01 2.42954731e-01 1.10789418e-01
      7.61630163e-02 1.94151253e-01 2.77223021e-01 1.34238198e-01
      9.87033173e-02 1.23797901e-01 1.35864869e-01 1.63168162e-01
      7.17045814e-02 7.63033703e-02 2.27844656e-01 2.77223021e-01
      2.77223021e-01 1.99807465e-01 1.78763762e-01 2.77223021e-01
      2.77223021e-01 5.88869788e-02 3.12037300e-02 3.59470211e-02
      3.48294154e-02 5.74031025e-02 7.63777122e-02 1.07717022e-01
      1.07183397e-01 1.21793635e-01 3.33791226e-02 3.00020333e-02
      4.84435707e-02 1.91661760e-01 2.38958344e-01 2.05492318e-01
      1.22253507e-01 9.21210721e-02 9.83374342e-02 1.70598570e-02
      1.24600045e-01 2.43415251e-01 2.32480541e-01 2.59362370e-01
      2.79474765e-01 2.81731546e-01 2.81731546e-01 1.34406418e-01
      4.38328683e-02 1.71720475e-01 2.81731546e-01 1.62037537e-01
      1.72776073e-01 2.81731546e-01 9.54706222e-02 6.52526468e-02
      6.61893636e-02 5.43690240e-03 2.07619388e-02 3.07436232e-02
      8.27059373e-02 1.63315341e-01 2.32212096e-01 2.45558590e-01
      1.72968999e-01 1.02716558e-01 1.16411438e-02 2.09876429e-02
      2.80754808e-02 1.44343404e-02 6.88763484e-02 2.29873106e-01
      3.05373907e-01 3.05373907e-01 1.73013836e-01 1.06242269e-01
      1.38351381e-01 2.05067948e-01 2.38702163e-01 7.14777112e-02
      2.58368969e-01 2.36735359e-01 1.51393056e-01 1.11397520e-01
      1.18316054e-01 1.44330278e-01 2.38894984e-01 3.05373907e-01
      7.75904581e-02 5.02666719e-02 2.06372693e-01 1.53671399e-01
      8.22103247e-02 2.82697175e-02 2.21579764e-02 5.97742237e-02
      1.30623132e-01 3.79889011e-02 8.98551494e-02 6.78154603e-02
      3.81161831e-02 3.97053733e-02 3.08479965e-02 7.58984610e-02
      2.53444225e-01 3.05373907e-01 1.30727991e-01 2.80648954e-02</_>
    <_>
      6.72424808e-02 2.08233431e-01 2.66842484e-01 7.64144659e-02
      1.61211729e-01 1.15533486e-01 1.30873069e-01 4.51005884e-02
      6.56334609e-02 2.66842484e-01 2.49677941e-01 1.80062220e-01
      7.60320500e-02 2.17411265e-01 1.30630955e-01 1.46374792e-01
      1.14520878e-01 2.66842484e-01 1.23590216e-01 2.66842484e-01
      2.66842484e-01 1.92527667e-01 7.11228922e-02 5.77048995e-02
      4.10496779e-02 3.56727876e-02 4.54492867e-02 2.20464975e-01
      2.04319969e-01 2.66842484e-01 2.14801833e-01 7.41556585e-02
      7.32971504e-02 9.73548219e-02 1.01856917e-01 1.45573363e-01
      2.79257923e-01 1.29727378e-01 4.05633003e-02 2.97539309e-02
      6.47112578e-02 4.65173759e-02 7.55130798e-02 2.52326310e-01
      2.97705024e-01 1.62125096e-01 3.75622958e-02 1.74473580e-02
      1.67722087e-02 2.30280198e-02 2.54860315e-02 1.94401681e-01
      2.97705024e-01 2.97705024e-01 2.10035071e-01 9.11513641e-02
      1.01347558e-01 8.11585560e-02 6.68462589e-02 6.36851266e-02
      1.36886895e-01 2.15918347e-01 2.62426853e-01 1.25359401e-01
      3.76001298e-02 4.81619164e-02 4.99747470e-02 1.19292513e-01
      6.61352947e-02 2.97705024e-01 2.97705024e-01 2.46943831e-01
      6.16515614e-02 6.51536463e-03 5.89751638e-03 7.27484329e-03
      8.20478611e-03 2.11727861e-02 3.30636442e-01 3.45226079e-01
      1.47280946e-01 2.70386394e-02 1.63115151e-02 1.96003821e-02
      5.65443374e-03 1.17714452e-02 5.48285693e-02 2.56633788e-01
      2.18523756e-01 7.77898058e-02 4.13959362e-02 9.15333349e-03
      7.31817307e-03 1.56115331e-02 3.98240127e-02 1.49069905e-01
      3.45226079e-01 3.45226079e-01 1.09253414e-01 2.69140657e-02
      8.74691922e-03 2.78871395e-02 8.33078846e-03 2.55409330e-02
      3.45226079e-01 3.45226079e-01 3.11880738e-01 5.96249178e-02
      1.56641275e-01 1.76261052e-01 2.32681781e-01 1.58600956e-01
      8.59025419e-02 5.90981580e-02 6.16727471e-02 7.29423314e-02
      7.31016546e-02 1.92065746e-01 1.50119647e-01 1.69459179e-01
      1.47565350e-01 8.07494000e-02 9.82518122e-02 1.49536997e-01
      1.76947489e-01 1.08948782e-01 1.26659364e-01 2.00718701e-01
      1.31947592e-01 2.42733359e-01 2.42733359e-01 1.42009407e-01
      1.24160118e-01 1.24163277e-01 9.81335118e-02 2.10805640e-01
      1.80770829e-01 1.26929849e-01 2.25798056e-01 2.42733359e-01
      1.16628774e-01 2.42733359e-01 2.42733359e-01 2.42733359e-01
      1.94174260e-01 8.57429579e-02 1.32007703e-01 8.20099413e-02
      6.92107603e-02 8.40346813e-02 1.20725662e-01 1.95030317e-01
      1.61148906e-01 1.66601419e-01 4.56115864e-02 6.98258728e-02
      3.98769304e-02 7.86830038e-02 1.20427117e-01 2.02374890e-01
      2.37862125e-01 2.05736101e-01 2.45659783e-01 1.51222274e-01
      2.43420586e-01 1.27441168e-01 1.07840732e-01 8.51780102e-02
      1.63461983e-01 2.45659783e-01 2.45659783e-01 1.73236862e-01
      9.53340828e-02 1.46038100e-01 7.23123848e-02 9.47809368e-02
      2.45659783e-01 2.45659783e-01 2.45659783e-01 2.45659783e-01
      8.65798891e-02 2.10710447e-02 6.14583725e-03 1.67743359e-02
      5.01233600e-02 1.87778562e-01 2.85452634e-01 1.85481191e-01
      1.27756968e-01 5.13240062e-02 2.99100671e-02 5.55447601e-02
      2.83937287e-02 5.81967086e-02 2.85452634e-01 2.85452634e-01
      1.11582160e-01 5.21644205e-02 1.03890285e-01 3.70292962e-02
      3.82447056e-02 8.06250647e-02 1.22589730e-01 2.59213120e-01
      2.20017344e-01 2.85452634e-01 2.39727229e-01 1.00038804e-01
      8.38810056e-02 2.63220966e-01 1.87316224e-01 1.55508593e-01
      2.85452634e-01 2.59566128e-01 1.94348916e-01 8.95877555e-02
      6.51862025e-02 1.51436076e-01 8.73236805e-02 1.76528990e-01
      2.54230171e-01 1.39421612e-01 1.26777619e-01 1.59228638e-01
      7.04677776e-02 1.91649020e-01 1.06074154e-01 4.49806862e-02
      1.49576500e-01 2.18913883e-01 5.23953550e-02 1.47688553e-01
      2.71032006e-01 2.71032006e-01 1.00895248e-01 9.89124551e-02
      1.07149735e-01 7.26021454e-02 9.76874232e-02 8.26429650e-02
      2.71032006e-01 2.71032006e-01 9.70284119e-02 2.44333163e-01
      1.04184046e-01 7.01877624e-02 5.33901490e-02 8.02224800e-02
      6.80783018e-02 2.51688361e-01 2.71032006e-01 2.71032006e-01
      1.99238032e-01 6.19475134e-02 8.04381222e-02 4.47411686e-02
      5.33194765e-02 2.53885500e-02 7.75484964e-02 2.59401172e-01
      2.80638069e-01 9.79461148e-02 4.47071083e-02 6.63686916e-02
      8.20447505e-02 9.93733332e-02 1.31004080e-01 1.30378053e-01
      2.80638069e-01 2.44688451e-01 2.18754619e-01 6.11164607e-02
      2.79604346e-02 1.74730550e-02 8.50972533e-02 8.78927186e-02
      1.78071827e-01 2.80638069e-01 2.80638069e-01 1.63761228e-01
      9.12232846e-02 7.08725974e-02 1.57440692e-01 1.73313260e-01
      7.15080500e-02 2.64129788e-01 2.80638069e-01 2.80638069e-01
      4.44185548e-02 2.83479560e-02 8.82289484e-02 2.51408964e-01
      2.60437101e-01 1.61527067e-01 1.04679152e-01 2.60437101e-01
      1.73782721e-01 5.34550957e-02 8.08243155e-02 2.60437101e-01
      2.60437101e-01 2.60437101e-01 1.47998556e-01 7.40679726e-02
      1.33052856e-01 5.18677533e-02 7.47940466e-02 1.04128078e-01
      1.72509015e-01 2.60437101e-01 2.60437101e-01 7.97851831e-02
      1.53222486e-01 1.76151544e-01 1.31384462e-01 4.55503277e-02
      8.88398215e-02 2.16294020e-01 2.60437101e-01 2.58155674e-01
      7.31008649e-02 3.67936827e-02 4.00850996e-02 2.36320160e-02</_>
    <_>
      1.02956332e-01 1.05262116e-01 2.60673761e-01 2.37964094e-01
      1.79267123e-01 5.44947460e-02 5.74037433e-02 5.00005148e-02
      4.86736968e-02 1.04271315e-01 1.90370739e-01 2.60673761e-01
      2.60673761e-01 2.60673761e-01 2.60673761e-01 1.65121302e-01
      3.19641568e-02 4.24972177e-02 5.65591343e-02 4.89417315e-02
      1.48825243e-01 2.05661327e-01 2.60673761e-01 1.80446267e-01
      4.48469259e-02 5.84652051e-02 4.22780700e-02 4.59126756e-02
      6.74926043e-02 1.76663458e-01 1.81811512e-01 2.09037557e-01
      2.60673761e-01 2.60673761e-01 1.68791696e-01 4.55083698e-02
      6.30073175e-02 1.87913597e-01 1.98922470e-01 1.77442968e-01
      2.30396211e-01 2.92752832e-01 1.85981929e-01 2.08636783e-02
      2.01217234e-02 4.69251573e-02 9.10246223e-02 7.10457116e-02
      4.36215363e-02 2.23981738e-01 2.92752832e-01 2.92752832e-01
      1.01345435e-01 1.94137339e-02 1.46292001e-02 3.60534824e-02
      1.40670136e-01 1.30273223e-01 1.76244691e-01 2.92752832e-01
      2.92752832e-01 1.40045047e-01 2.96855848e-02 3.17276753e-02
      2.14556698e-02 2.94780489e-02 3.30702551e-02 1.31213918e-01
      2.92752832e-01 2.92752832e-01 8.95391628e-02 3.93580683e-02
      5.54042868e-02 2.70828381e-02 5.04229441e-02 3.62684429e-02
      2.11537257e-01 2.96984375e-01 2.96984375e-01 1.28885403e-01
      4.01154719e-02 1.19649619e-01 5.91109730e-02 7.95470178e-02
      7.45117068e-02 2.29084373e-01 2.18172669e-01 2.96984375e-01
      7.00556487e-02 6.53623417e-02 3.30747552e-02 2.43115816e-02
      2.44318657e-02 1.32596912e-02 1.73612520e-01 2.96984375e-01
      2.96984375e-01 8.98610726e-02 2.83388998e-02 5.95324002e-02
      5.47006354e-02 8.39226842e-02 1.05876952e-01 2.96984375e-01
      2.96984375e-01 2.96984375e-01 1.11811049e-01 5.55711426e-02
      3.28073837e-02 5.43876290e-02 7.24420995e-02 1.36306122e-01
      2.59526491e-01 3.08442175e-01 1.92357317e-01 8.20213929e-02
      6.07770793e-02 3.56392190e-02 7.38067552e-02 7.41512403e-02
      7.48337060e-02 1.32406354e-01 3.08442175e-01 3.08442175e-01
      2.18454957e-01 8.61901939e-02 2.67550610e-02 3.50761786e-02
      3.22972126e-02 5.19787632e-02 5.01810014e-02 3.08442175e-01
      3.08442175e-01 1.82523549e-01 4.78265844e-02 3.61384824e-02
      4.73233610e-02 4.96598780e-02 7.89277032e-02 7.22459927e-02
      2.39906013e-01 3.08442175e-01 2.62568444e-01 7.20575526e-02
      4.57000509e-02 4.04033698e-02 2.38680020e-02 4.33801413e-02
      1.17374443e-01 2.74752855e-01 2.74752855e-01 1.68885350e-01
      1.22355707e-01 1.08347222e-01 9.48721170e-02 2.70081125e-02
      2.41045356e-02 7.84553736e-02 2.19750017e-01 2.74752855e-01
      1.83744520e-01 2.00918958e-01 8.91058296e-02 6.73641786e-02
      2.73295473e-02 5.72914034e-02 6.20180890e-02 1.71760961e-01
      2.70254940e-01 1.61012501e-01 1.91198498e-01 2.56442219e-01
      2.23572120e-01 9.19240490e-02 3.74646485e-02 3.01163476e-02
      1.35531470e-01 2.74752855e-01 2.74752855e-01 2.74752855e-01
      6.87258914e-02 1.69979930e-01 9.66253802e-02 1.25274416e-02
      5.70312217e-02 1.90958530e-01 2.73777515e-01 9.87760350e-02
      5.78147992e-02 3.79232652e-02 2.57974267e-01 2.17331454e-01
      1.08032852e-01 1.77819073e-01 1.95876747e-01 2.73777515e-01
      1.23032495e-01 4.65711951e-02 2.59710580e-01 2.73777515e-01
      2.73777515e-01 3.21668610e-02 2.29056180e-02 5.82029596e-02
      2.61256516e-01 1.59209505e-01 9.13237035e-02 1.27441227e-01
      2.73777515e-01 2.73777515e-01 9.11924019e-02 7.84327388e-02
      3.06126233e-02 1.36971056e-01 1.00344896e-01 5.10982014e-02
      4.31866422e-02 4.72937599e-02 3.42878960e-02 4.43967283e-02
      3.52217071e-02 1.17459223e-01 2.95470625e-01 2.53772378e-01
      3.49275991e-02 8.37323964e-02 1.24373749e-01 1.24138802e-01
      1.10936612e-01 8.15869942e-02 1.50355741e-01 2.95470625e-01
      2.95470625e-01 6.57353923e-02 6.74047917e-02 2.09038958e-01
      2.29910150e-01 1.96869254e-01 8.76902565e-02 2.83374842e-02
      8.45592320e-02 1.01638936e-01 2.56600063e-02 1.29032210e-01
      2.95470625e-01 2.95470625e-01 2.95470625e-01 1.28506035e-01
      7.14653209e-02 2.11816743e-01 2.17636749e-01 6.74628839e-02
      1.74169570e-01 1.18901692e-01 7.95753300e-02 7.72071853e-02
      4.36087400e-02 8.53067935e-02 2.28238761e-01 2.62967795e-01
      2.62967795e-01 2.62967795e-01 2.62967795e-01 2.08310843e-01
      4.62027490e-02 8.93126335e-03 7.01156333e-02 2.45306477e-01
      2.35199168e-01 2.62967795e-01 1.87782094e-01 1.34772539e-01
      1.61461279e-01 9.75490808e-02 5.20358309e-02 3.95625904e-02
      1.05343305e-01 1.68056220e-01 2.46079996e-01 2.62967795e-01
      1.38977379e-01 1.17064126e-01 1.46563631e-02 1.73163228e-02
      2.21956149e-02 2.20990255e-02 8.07885379e-02 2.53343940e-01
      3.59903902e-01 3.59903902e-01 3.59903902e-01 8.08417499e-02
      3.14409472e-02 6.30709529e-02 2.12807342e-01 1.62193075e-01
      1.61860213e-01 2.26779372e-01 3.59903902e-01 3.59903902e-01
      1.00274377e-01 8.33743587e-02 2.14509163e-02 9.76062641e-02
      7.51763433e-02 8.35074559e-02 2.01168776e-01 1.57141030e-01
      2.12756574e-01 3.45601439e-02 1.83028579e-02 3.27355899e-02
      2.31456384e-02 2.20081564e-02 9.54486132e-02 5.20877838e-02
      8.53937715e-02 9.74349529e-02 4.56635058e-02 3.81874219e-02
      3.01281866e-02 1.82623304e-02 1.13872699e-02 2.89209392e-02</_>
    <_>
      3.37671526e-02 4.26895581e-02 8.13444778e-02 8.68945047e-02
      3.17466632e-02 1.22425789e-02 2.03154702e-02 3.12755816e-02
      2.78036539e-02 1.35864183e-01 8.92987773e-02 1.07928462e-01
      2.84853429e-01 9.88347828e-02 2.24502124e-02 1.47418156e-01
      2.93778300e-01 9.58244577e-02 3.33292782e-02 1.07484773e-01
      3.18249345e-01 3.18249345e-01 2.46873483e-01 7.10990280e-02
      2.84698233e-02 3.85705717e-02 2.91791689e-02 1.09493688e-01
      8.44186544e-02 3.18249345e-01 3.18249345e-01 3.18249345e-01
      1.01416059e-01 1.38038218e-01 2.79359579e-01 1.22176953e-01
      1.38031483e-01 1.24673776e-01 4.34211567e-02 1.03869312e-01
      6.64120317e-02 6.28956333e-02 1.71441332e-01 2.88365394e-01
      1.60959721e-01 1.59963638e-01 1.21593691e-01 2.36251354e-02
      6.42492548e-02 9.12055299e-02 1.51101425e-01 1.79691195e-01
      2.88365394e-01 2.46572524e-01 1.40459552e-01 4.07701768e-02
      4.46620956e-02 2.26175711e-01 1.31934375e-01 6.15718327e-02
      1.54631272e-01 2.88365394e-01 2.88365394e-01 2.08267376e-01
      4.41983566e-02 4.05367929e-03 2.08276622e-02 3.78054902e-02
      6.32609427e-02 2.17019022e-01 2.88365394e-01 2.88365394e-01
      1.52114183e-01 7.47884214e-02 6.20934088e-03 5.29365838e-02
      8.05529207e-02 9.23947394e-02 1.82118624e-01 2.91160136e-01
      1.97710127e-01 1.07245408e-01 4.11978178e-02 8.50544497e-03
      3.63310724e-02 3.81087437e-02 6.98689744e-02 2.05323145e-01
      2.68419087e-01 1.58023730e-01 1.72915801e-01 6.06280118e-02
      1.96243566e-03 1.46191968e-02 4.94401082e-02 5.16621433e-02
      2.97708869e-01 3.03202838e-01 3.03202838e-01 1.16981670e-01
      5.60711101e-02 6.29768101e-03 2.61195675e-02 8.41058940e-02
      1.46345243e-01 3.03202838e-01 3.03202838e-01 3.03202838e-01
      1.57300439e-02 9.82339308e-02 2.51675367e-01 2.51675367e-01
      2.17646003e-01 1.28748506e-01 5.49181513e-02 5.94097301e-02
      6.80846125e-02 6.13065287e-02 4.66304533e-02 1.52602121e-01
      2.51675367e-01 2.51675367e-01 1.74533635e-01 1.94445714e-01
      1.85466960e-01 1.85366020e-01 4.14510779e-02 6.91034049e-02
      1.87322304e-01 1.27250075e-01 1.88898042e-01 2.51675367e-01
      1.46502882e-01 1.07529059e-01 1.11109667e-01 9.23573822e-02
      4.07033563e-02 1.27835125e-01 9.05084834e-02 1.31370291e-01
      2.51675367e-01 2.51675367e-01 2.51675367e-01 2.20633194e-01
      9.87775102e-02 2.45161746e-02 5.02156280e-02 1.15446448e-01
      1.11568943e-01 1.05259813e-01 1.60610974e-01 2.57360637e-01
      2.32696876e-01 1.12782910e-01 1.42204668e-02 2.60076821e-02
      2.07862370e-02 2.73608733e-02 2.05971040e-02 9.81023312e-02
      2.75547922e-01 2.75547922e-01 2.23899812e-01 3.46111059e-02
      9.75384563e-02 4.47024889e-02 8.61490294e-02 2.41280168e-01
      2.75547922e-01 2.75547922e-01 2.75547922e-01 2.75547922e-01
      7.66817555e-02 8.61138552e-02 5.51300272e-02 4.32904586e-02
      2.44581327e-02 1.47670746e-01 2.75547922e-01 2.75547922e-01
      6.46902174e-02 1.44283315e-02 1.98136307e-02 4.32257093e-02
      6.02374300e-02 1.83199551e-02 1.69729307e-01 2.54598737e-01
      2.54598737e-01 4.55447696e-02 2.27189921e-02 2.12712195e-02
      1.00336730e-01 1.85373142e-01 1.68095499e-01 2.54598737e-01
      2.54598737e-01 2.54598737e-01 1.60363287e-01 1.84837639e-01
      1.76918596e-01 1.37983114e-01 1.15878157e-01 1.76097825e-02
      8.80708769e-02 1.71502918e-01 2.31398389e-01 1.73978388e-01
      1.96918264e-01 2.16898903e-01 2.50277609e-01 2.54598737e-01
      1.87851965e-01 8.76854956e-02 4.84660156e-02 2.33767956e-01
      6.73212558e-02 2.55014617e-02 6.38906285e-02 5.77948876e-02
      1.67397887e-01 3.16644698e-01 3.16644698e-01 7.22857043e-02
      6.51732162e-02 1.08003005e-01 3.24379057e-02 1.10252045e-01
      4.29394580e-02 6.62001222e-02 2.63067305e-01 3.16644698e-01
      2.17144296e-01 1.11314856e-01 4.11327891e-02 8.17376282e-03
      5.67604648e-03 1.80631764e-02 5.58088049e-02 3.16644698e-01
      3.16644698e-01 1.94735065e-01 3.10401991e-02 4.44487147e-02
      1.34048276e-02 3.98092866e-02 2.43579410e-02 4.44979258e-02
      1.71475366e-01 3.16644698e-01 3.16644698e-01 7.21770078e-02
      2.40596369e-01 4.18818370e-02 7.41110891e-02 2.49108896e-02
      3.96083966e-02 1.41179025e-01 2.51156211e-01 2.90172398e-01
      2.90172398e-01 2.90172398e-01 1.23397671e-01 7.90013224e-02
      5.34084812e-02 1.38741387e-02 1.80286281e-02 2.02827379e-01
      2.90172398e-01 2.90172398e-01 6.49235770e-02 3.28624547e-02
      3.82315256e-02 3.26629616e-02 6.30328506e-02 1.10332392e-01
      2.10550442e-01 2.78913230e-01 1.48695230e-01 1.25282109e-01
      8.72542486e-02 4.73138019e-02 3.57999243e-02 5.43672703e-02
      7.90771693e-02 9.03620571e-02 2.63450682e-01 2.79241502e-01
      2.52856851e-01 2.61587232e-01 2.40959600e-01 1.47088483e-01
      3.70491557e-02 4.79207886e-03 8.72329399e-02 2.61587232e-01
      2.61587232e-01 2.61587232e-01 2.61587232e-01 2.61587232e-01
      1.95760563e-01 1.34271473e-01 7.05764368e-02 8.25395994e-03
      4.65108752e-02 2.61587232e-01 1.37531251e-01 1.59687713e-01
      1.69349298e-01 7.26147443e-02 6.03765920e-02 2.59802900e-02
      3.27468030e-02 1.41526818e-01 1.45809889e-01 1.20347314e-01
      2.61587232e-01 2.61587232e-01 1.18347540e-01 6.29061088e-02
      2.41741575e-02 1.40782539e-02 3.19919512e-02 7.76525214e-02</_>
    <_>
      6.32890388e-02 1.55379072e-01 1.33444309e-01 2.49760628e-01
      1.57055065e-01 3.91134396e-02 6.65656850e-02 1.50135681e-01
      1.21315524e-01 1.76092744e-01 2.02194020e-01 9.14197862e-02
      1.34505644e-01 1.13590404e-01 2.89816484e-02 1.41217932e-01
      2.91709065e-01 2.91709065e-01 4.16821651e-02 7.16498420e-02
      1.54386804e-01 2.91709065e-01 2.91709065e-01 7.04559609e-02
      7.13674873e-02 9.14457962e-02 7.93118402e-02 1.54993683e-01
      3.67763303e-02 4.98179905e-02 2.04921499e-01 2.07489729e-01
      2.23415773e-02 9.72391739e-02 2.91709065e-01 2.91709065e-01
      1.58025861e-01 7.02066496e-02 5.52897193e-02 3.63597758e-02
      6.19459413e-02 5.45565262e-02 9.29729119e-02 3.15133244e-01
      3.15133244e-01 1.91731527e-01 5.58023602e-02 1.07771173e-01
      4.80435230e-02 6.88851401e-02 9.74829122e-02 1.35412335e-01
      3.15133244e-01 3.15133244e-01 1.57402620e-01 6.44611754e-03
      1.35930059e-02 1.68255847e-02 2.74724942e-02 8.05969071e-03
      4.65799421e-02 3.15133244e-01 3.15133244e-01 1.77180976e-01
      1.19814267e-02 2.22762451e-02 9.65330750e-03 2.27996353e-02
      2.50944439e-02 6.86255991e-02 3.15133244e-01 3.15133244e-01
      1.70244887e-01 4.33791727e-02 6.10693693e-02 3.16192843e-02
      4.60654981e-02 8.54182169e-02 1.86774537e-01 2.95154899e-01
      2.95154899e-01 9.95802730e-02 2.15790588e-02 1.48936231e-02
      2.58738194e-02 6.64482936e-02 1.58063278e-01 2.10677102e-01
      2.46807992e-01 2.18185499e-01 1.41718209e-01 1.18688298e-02
      2.32291855e-02 2.46237852e-02 4.17916663e-02 1.24065116e-01
      1.31371424e-01 2.95154899e-01 2.95154899e-01 1.46138594e-01
      3.68668959e-02 2.02192795e-02 6.52192086e-02 1.06056429e-01
      2.86437899e-01 1.67491972e-01 2.88964719e-01 2.95154899e-01
      4.34944369e-02 1.94926616e-02 4.64483276e-02 2.53903568e-01
      2.53903568e-01 1.35544002e-01 1.66566610e-01 2.10808456e-01
      1.72911212e-01 8.89983028e-02 1.12600364e-02 1.70173142e-02
      8.70720744e-02 1.21371977e-01 9.35109779e-02 1.40940607e-01
      2.03748584e-01 2.24080622e-01 9.21971425e-02 5.27478680e-02
      3.07956338e-02 9.90667492e-02 1.55938178e-01 2.53903568e-01
      2.17722282e-01 2.53903568e-01 2.44366348e-01 1.68677896e-01
      4.83211912e-02 1.72090232e-02 5.77436052e-02 1.34017825e-01
      2.53903568e-01 2.53903568e-01 2.53903568e-01 2.53903568e-01
      1.10460423e-01 2.51486562e-02 1.98877566e-02 2.46662050e-02
      3.28448154e-02 4.46461253e-02 6.04349189e-02 2.02884108e-01
      2.91676611e-01 1.00832418e-01 3.78288813e-02 2.05540471e-02
      6.53533116e-02 7.58125409e-02 4.56568561e-02 3.80209088e-02
      2.91676611e-01 2.91676611e-01 2.91676611e-01 6.44554123e-02
      1.99909192e-02 2.88265869e-02 5.28689995e-02 1.09287940e-01
      1.30145252e-01 2.81917125e-01 2.91676611e-01 2.91676611e-01
      1.55741602e-01 2.58838296e-01 1.58529222e-01 9.28992853e-02
      2.42213421e-02 4.10878584e-02 2.65398413e-01 2.91676611e-01
      3.80496159e-02 2.22158711e-02 2.55175810e-02 9.89869684e-02
      1.54041633e-01 1.60113946e-01 5.84505200e-02 2.58442223e-01
      2.18616232e-01 5.19656986e-02 2.59549208e-02 2.98026521e-02
      1.95825338e-01 2.58442223e-01 2.58442223e-01 1.04686119e-01
      1.18567929e-01 1.09109558e-01 2.17509151e-01 2.15772182e-01
      2.58442223e-01 1.87370315e-01 1.84218526e-01 8.19080397e-02
      1.44773535e-02 6.52997196e-02 1.65997818e-01 2.37138838e-01
      2.03268901e-01 1.67700291e-01 2.58442223e-01 2.58442223e-01
      2.58442223e-01 2.96022706e-02 1.77420713e-02 9.41024423e-02
      1.33902818e-01 4.73111160e-02 3.11653148e-02 6.54210672e-02
      9.00720134e-02 2.92468965e-01 2.43608400e-01 1.77343249e-01
      1.57383278e-01 2.40534976e-01 6.36751577e-02 2.05281340e-02
      4.14950661e-02 7.32619986e-02 1.94624454e-01 2.39087358e-01
      3.01219791e-01 3.01219791e-01 7.46206045e-02 1.58864651e-02
      9.81523190e-03 1.83414668e-02 5.30691370e-02 2.13058487e-01
      3.01219791e-01 3.01219791e-01 6.21904619e-02 9.72198993e-02
      4.60854508e-02 2.12521944e-02 2.69396249e-02 9.25354883e-02
      7.80072212e-02 2.63830304e-01 2.51086891e-01 1.28740758e-01
      3.16501588e-01 4.74454053e-02 1.21639296e-02 1.84229165e-02
      2.12785471e-02 4.93115112e-02 9.81891677e-02 3.16501588e-01
      3.16501588e-01 3.16501588e-01 1.48588091e-01 3.16501588e-01
      1.16544209e-01 2.28927080e-02 2.00053956e-03 6.12822846e-02
      3.16501588e-01 3.16501588e-01 1.11675680e-01 4.17389907e-02
      2.15225276e-02 2.47601885e-02 4.61057723e-02 5.72126433e-02
      1.09125882e-01 1.53747320e-01 1.93360254e-01 1.66522905e-01
      9.45783034e-02 1.73626795e-01 6.97136894e-02 4.35951874e-02
      2.27155760e-02 6.16691932e-02 1.21023506e-01 2.32905358e-01
      2.84239531e-01 2.46887386e-01 2.84239531e-01 1.58180848e-01
      4.41038609e-02 1.12842387e-02 1.41722104e-02 9.40158740e-02
      2.44349018e-01 2.70886630e-01 2.69216239e-01 2.84239531e-01
      2.01193765e-01 2.13335484e-01 8.49214569e-02 1.37226610e-02
      2.18124501e-02 1.07251510e-01 1.10623986e-01 1.92631304e-01
      2.84239531e-01 1.04363509e-01 4.82123420e-02 1.06202774e-02
      7.93057960e-03 3.02518941e-02 7.23677501e-02 6.85001314e-02
      2.84239531e-01 2.84239531e-01 1.52591377e-01 8.07764009e-02
      1.50345620e-02 4.94062994e-03 1.54961646e-02 2.25119367e-02</_>
    <_>
      2.70955294e-01 1.26445368e-01 2.29255870e-01 9.59222913e-02
      1.32242620e-01 1.65879622e-01 1.48885548e-01 1.30873144e-01
      1.65412009e-01 2.70955294e-01 2.35185668e-01 1.17673308e-01
      3.37595008e-02 1.10864833e-01 7.34350234e-02 5.29121645e-02
      6.49320558e-02 2.70955294e-01 1.77102149e-01 4.40066792e-02
      1.13171972e-01 1.05321102e-01 2.70955294e-01 2.70955294e-01
      1.35606602e-01 8.76964033e-02 9.59740877e-02 2.40987286e-01
      3.65167148e-02 5.62319607e-02 1.02056988e-01 2.70955294e-01
      2.70955294e-01 1.09401546e-01 3.99316959e-02 1.41161039e-01
      2.64830709e-01 2.08243921e-01 5.64396344e-02 1.53620383e-02
      1.54703334e-01 9.61844549e-02 4.79252413e-02 9.42475572e-02
      2.64830709e-01 2.15344295e-01 1.05033495e-01 5.20832613e-02
      5.76446243e-02 2.64830709e-01 2.64830709e-01 1.46034479e-01
      1.69566229e-01 2.64830709e-01 1.14659384e-01 3.70887145e-02
      4.02346998e-02 5.68171218e-02 2.64830709e-01 1.66844785e-01
      7.94874057e-02 5.08862250e-02 1.05142400e-01 1.39284551e-01
      3.18269469e-02 2.81081609e-02 4.05132696e-02 2.64830709e-01
      2.64830709e-01 1.74083307e-01 2.02846169e-01 2.64830709e-01
      9.28711668e-02 2.81447209e-02 5.38234152e-02 5.59161715e-02
      2.14481965e-01 2.24297985e-01 2.05282256e-01 1.74745604e-01
      1.55282721e-01 4.12519239e-02 4.07353453e-02 4.21647243e-02
      4.46579531e-02 5.95037267e-02 1.82657197e-01 2.59966969e-01
      2.46852770e-01 9.84227285e-02 1.42407835e-01 1.99932251e-02
      2.11676098e-02 4.67949398e-02 2.59966969e-01 2.46569380e-01
      2.59966969e-01 2.59966969e-01 2.59966969e-01 7.61442930e-02
      6.05093539e-02 3.02553866e-02 7.37535208e-02 2.59966969e-01
      1.28871784e-01 2.59966969e-01 2.40492001e-01 1.63542256e-01
      6.20575622e-02 2.72790063e-02 6.50979504e-02 1.69285983e-01
      3.11850756e-01 3.11850756e-01 6.92809001e-02 3.94907072e-02
      5.82593642e-02 3.37697379e-02 1.10625597e-02 4.77862097e-02
      1.96266934e-01 3.11850756e-01 3.09499830e-01 8.11765119e-02
      1.50759649e-02 1.63628813e-02 9.44969505e-02 9.74595174e-02
      8.12707171e-02 3.10209781e-01 3.11850756e-01 1.37824893e-01
      1.59777954e-01 1.25962317e-01 1.07487731e-01 2.45735422e-03
      1.36161325e-02 5.05537242e-02 2.60402828e-01 3.11850756e-01
      1.92305282e-01 1.21526338e-01 5.40441386e-02 2.84693600e-03
      7.14250207e-02 4.26955111e-02 6.38204217e-02 1.64445892e-01
      3.20228845e-01 2.54190743e-01 1.36584625e-01 5.19992895e-02
      7.39809349e-02 1.83374882e-01 5.52689619e-02 4.18220125e-02
      8.35118890e-02 3.14010262e-01 2.13815138e-01 2.02342793e-01
      2.33092055e-01 3.20228845e-01 1.47580784e-02 2.14629993e-02
      1.62353013e-02 1.72452405e-01 3.20228845e-01 2.81524062e-01
      8.43589902e-02 3.99568453e-02 2.98531093e-02 5.83087914e-02
      2.40258537e-02 2.00448949e-02 9.52183083e-02 3.20228845e-01
      1.06878325e-01 1.06966794e-01 9.37980786e-02 8.64908397e-02
      7.20980465e-02 1.95582528e-02 9.03887395e-03 8.19844007e-02
      3.76949281e-01 1.17023997e-01 2.24016607e-01 1.56417757e-01
      2.02771664e-01 5.89199476e-02 7.06441402e-02 4.07156609e-02
      1.39101699e-01 3.76949281e-01 1.00755520e-01 1.91040844e-01
      1.47572100e-01 7.30168819e-02 3.47105563e-02 2.20954996e-02
      3.60779986e-02 1.51961789e-01 3.76949281e-01 1.58962429e-01
      2.86871046e-02 2.73306984e-02 3.34877260e-02 6.45742789e-02
      9.41655338e-02 1.41109899e-01 2.04955131e-01 3.76949281e-01
      2.04009339e-01 8.73365700e-02 5.56537174e-02 3.81076485e-02
      5.16070575e-02 5.52362725e-02 4.05649059e-02 2.18869224e-01
      2.83478707e-01 1.12014405e-01 2.03050673e-01 1.05185047e-01
      6.30407929e-02 2.44555380e-02 1.47077898e-02 2.93845702e-02
      2.13506281e-01 2.83478707e-01 1.59784347e-01 1.19282745e-01
      3.88266742e-02 1.41492859e-02 5.48768863e-02 2.15429105e-02
      6.46475330e-02 2.09481657e-01 2.83478707e-01 1.81859389e-01
      2.83478707e-01 1.74658701e-01 7.31335804e-02 2.53455102e-01
      1.16567738e-01 1.07276089e-01 2.69867092e-01 2.83478707e-01
      1.60343155e-01 1.40842617e-01 6.27103597e-02 2.24611700e-01
      2.64978614e-02 1.61818955e-02 1.49719538e-02 1.04602635e-01
      2.73187131e-01 1.47995174e-01 2.03008782e-02 1.85568314e-02
      2.30370071e-02 1.65139660e-01 6.07910305e-02 1.13006160e-01
      9.80563760e-02 2.47747600e-01 4.93592396e-02 3.62439454e-02
      3.73125635e-02 1.12196766e-01 2.73187131e-01 2.19185233e-01
      1.10522002e-01 1.52293652e-01 2.73187131e-01 1.16621546e-01
      1.89148001e-02 4.40047048e-02 2.73187131e-01 2.73187131e-01
      2.73187131e-01 2.73187131e-01 2.73187131e-01 2.73187131e-01
      9.40693840e-02 3.69123444e-02 3.98792662e-02 2.16011509e-01
      2.00068012e-01 9.35852677e-02 1.38388619e-01 1.21552400e-01
      2.77565122e-01 9.35828313e-02 1.43254846e-02 1.18496623e-02
      1.23196952e-01 1.05738170e-01 1.60476580e-01 2.68589854e-01
      1.43490881e-01 2.77565122e-01 1.35565072e-01 3.75786535e-02
      1.92124993e-02 6.87394068e-02 2.63625294e-01 2.77565122e-01
      2.77565122e-01 1.93935066e-01 2.77565122e-01 4.57385778e-02
      3.16321515e-02 5.80132566e-03 1.50435179e-01 1.19780965e-01
      2.77565122e-01 2.77565122e-01 9.85990763e-02 1.86557114e-01
      3.28596905e-02 1.49532491e-02 7.78795313e-03 5.73241636e-02</_>
    <_>
      1.74078777e-01 1.15791515e-01 1.22097977e-01 6.28713965e-02
      2.77646631e-01 1.56496495e-01 5.37611283e-02 1.35967538e-01
      2.33868152e-01 3.05491269e-01 1.05811298e-01 7.62811154e-02
      4.06265520e-02 1.06929757e-01 6.48489594e-02 4.15473692e-02
      1.48070782e-01 3.05491269e-01 1.23309515e-01 7.80016184e-02
      5.73033877e-02 8.28840956e-02 3.05491269e-01 3.05491269e-01
      5.70222028e-02 1.06568813e-01 1.56794474e-01 3.05491269e-01
      1.03540838e-01 3.61233801e-02 1.58845782e-02 1.55169606e-01
      1.22962855e-01 4.96031940e-02 1.19365081e-01 3.05491269e-01
      3.34407777e-01 6.69738725e-02 3.59557569e-02 1.56509615e-02
      6.92723617e-02 2.88591534e-02 2.48540565e-02 6.23250753e-02
      3.34407777e-01 3.34407777e-01 1.22908428e-01 3.83746587e-02
      1.32392300e-02 7.15970695e-02 7.02593103e-02 4.70449962e-02
      1.81588337e-01 3.34407777e-01 3.34407777e-01 4.42908630e-02
      3.83645184e-02 1.88676920e-02 1.27054071e-02 2.74790060e-02
      3.46170329e-02 4.52426895e-02 3.34407777e-01 3.03252667e-01
      3.35836783e-02 3.90807390e-02 5.77916317e-02 8.15673396e-02
      1.48019657e-01 5.73323742e-02 7.47357234e-02 3.22772533e-01
      2.62989789e-01 1.30582646e-01 2.00240612e-02 2.49935556e-02
      7.65685886e-02 2.06935152e-01 1.76445574e-01 2.62989789e-01
      2.62989789e-01 7.77549371e-02 1.42499566e-01 8.28344375e-02
      5.39403260e-02 7.80501440e-02 2.42869943e-01 2.59282857e-01
      1.98058367e-01 9.24746171e-02 1.44636065e-01 7.62817487e-02
      7.19410107e-02 1.06095091e-01 1.77065969e-01 2.62989789e-01
      1.77353337e-01 1.16112858e-01 1.26737371e-01 5.00721224e-02
      1.03494905e-01 1.01240948e-01 1.30360216e-01 2.62989789e-01
      2.62989789e-01 2.62989789e-01 1.49434194e-01 2.84644961e-02
      1.46635070e-01 3.50886211e-02 3.51257250e-02 7.81098902e-02
      2.56336212e-01 2.56336212e-01 1.20762564e-01 1.36908501e-01
      2.56336212e-01 2.56336212e-01 8.60584825e-02 2.74911392e-02
      1.88154299e-02 9.77439880e-02 1.25843212e-01 1.50481910e-01
      2.06802502e-01 2.56336212e-01 1.25462413e-01 3.07210609e-02
      4.21304330e-02 6.06024191e-02 7.41378069e-02 2.03348994e-01
      2.56336212e-01 2.09050477e-01 2.33521640e-01 2.56336212e-01
      9.53213573e-02 1.78050902e-02 2.13483032e-02 6.42534941e-02
      1.27151206e-01 2.14432389e-01 2.56336212e-01 2.56336212e-01
      2.92613268e-01 1.12872347e-01 4.04586531e-02 1.96701158e-02
      5.41513711e-02 4.49963175e-02 1.15733765e-01 1.40325725e-01
      2.74188936e-01 2.92613268e-01 1.44611776e-01 1.03141390e-01
      1.20009974e-01 7.43182898e-02 8.77329409e-02 4.68702465e-02
      9.95047390e-02 2.57523477e-01 2.92613268e-01 1.79213002e-01
      2.39678640e-02 1.69965271e-02 6.60738498e-02 5.08713424e-02
      1.30558088e-01 2.11637333e-01 2.92613268e-01 2.92613268e-01
      2.49095812e-01 1.24100961e-01 1.17468111e-01 4.97142263e-02
      2.45247204e-02 2.60035526e-02 1.44903928e-01 2.92613268e-01
      2.16105133e-01 2.05874547e-01 2.34177023e-01 2.51004368e-01
      1.34792984e-01 1.64329603e-01 6.21583499e-02 5.53958379e-02
      1.08145036e-01 1.27075911e-01 2.14179069e-01 2.35688224e-01
      1.77747667e-01 2.14227587e-01 1.80746377e-01 1.24234959e-01
      5.97808845e-02 2.19846647e-02 2.51004368e-01 2.51004368e-01
      2.51004368e-01 2.51004368e-01 6.72999993e-02 2.45646890e-02
      9.34232771e-03 7.76867643e-02 1.49726719e-01 1.09689109e-01
      2.51004368e-01 2.51004368e-01 2.01920733e-01 8.90878439e-02
      1.62247792e-02 2.87557580e-02 7.34322071e-02 2.50826813e-02
      3.78834866e-02 1.59745011e-02 2.14584768e-02 2.95717418e-02
      3.91585976e-02 1.56432956e-01 3.24005365e-01 3.11534762e-01
      6.84262961e-02 9.49541703e-02 6.06651939e-02 1.77440848e-02
      3.14922035e-02 5.37788533e-02 8.50473046e-02 2.78430343e-01
      2.73280263e-01 1.46445453e-01 1.83154400e-02 5.23400726e-03
      7.77551671e-03 1.00464569e-02 1.89892463e-02 8.36960971e-02
      3.24005365e-01 3.24005365e-01 1.17096715e-01 9.40655768e-02
      2.59822085e-02 8.11520312e-03 2.23234557e-02 3.51753868e-02
      7.35744014e-02 3.24005365e-01 3.24005365e-01 3.24005365e-01
      2.92921484e-01 1.21035002e-01 3.27253118e-02 5.63472286e-02
      7.97124207e-02 6.69911504e-02 1.12874493e-01 1.87964618e-01
      2.03965247e-01 2.95223385e-01 1.65173814e-01 1.04761831e-01
      1.16610080e-01 7.77185038e-02 5.14224730e-02 5.99830411e-02
      1.22002892e-01 1.74581289e-01 2.43352607e-01 6.39676899e-02
      1.95746608e-02 4.49162014e-02 5.96014895e-02 7.77439475e-02
      1.44550964e-01 2.95223385e-01 2.95223385e-01 2.95223385e-01
      2.95223385e-01 5.05358092e-02 4.59824055e-02 8.35942551e-02
      7.28900209e-02 1.00075692e-01 1.90277830e-01 2.95223385e-01
      1.54575318e-01 2.34227508e-01 2.37889856e-01 1.35104105e-01
      5.83492704e-02 3.19257565e-02 3.13994996e-02 4.26386446e-02
      6.26526326e-02 8.45677927e-02 2.94276237e-01 2.94276237e-01
      1.47124708e-01 6.48459122e-02 4.11565192e-02 7.51808211e-02
      4.34883796e-02 1.59870759e-02 2.82011002e-01 2.94276237e-01
      1.94059014e-01 5.62328622e-02 9.04330388e-02 5.66150732e-02
      7.26807714e-02 6.43903241e-02 1.09124109e-01 1.51476353e-01
      2.94276237e-01 2.94276237e-01 7.79611915e-02 1.63675010e-01
      1.50593564e-01 2.94021577e-01 1.68530762e-01 1.02000713e-01</_>
    <_>
      9.90563408e-02 3.09468657e-01 3.09468657e-01 1.62143677e-01
      8.36638957e-02 1.62015148e-02 3.65517940e-03 1.45867271e-02
      3.24889012e-02 1.52008072e-01 3.09468657e-01 3.09468657e-01
      1.37422979e-01 8.08579177e-02 3.54941078e-02 2.09834613e-02
      5.50973490e-02 1.16506971e-01 1.37357533e-01 2.90264040e-01
      3.09468657e-01 2.23918125e-01 1.47062317e-01 3.86118740e-02
      9.18755587e-03 2.46874765e-02 6.63318262e-02 1.12151451e-01
      2.78591067e-01 3.09468657e-01 1.36763453e-01 7.97690079e-02
      4.49571349e-02 3.78278829e-02 4.89364974e-02 9.06653926e-02
      1.04477398e-01 1.40850753e-01 2.04306871e-01 1.18970931e-01
      7.65369087e-02 3.66816185e-02 2.78816931e-02 6.35631904e-02
      1.08174592e-01 2.86005408e-01 1.34022817e-01 1.62010670e-01
      7.75864348e-02 7.89636746e-02 4.38031219e-02 6.03331476e-02
      8.58405977e-02 1.80650592e-01 4.85461093e-02 1.99430764e-01
      3.37877870e-01 2.62592107e-01 4.84165326e-02 3.67378257e-02
      3.45617533e-02 2.02149283e-02 3.90780047e-02 3.37877870e-01
      3.37877870e-01 3.37877870e-01 3.05843562e-01 6.71451911e-02
      3.88206169e-02 7.81076178e-02 1.02530576e-01 1.08180135e-01
      1.81219384e-01 1.23610891e-01 2.22001597e-01 3.76941860e-02
      4.54211570e-02 2.89158002e-02 7.68597126e-02 6.17136844e-02
      1.27395853e-01 1.25242069e-01 1.15252540e-01 2.69507080e-01
      4.88777049e-02 7.34558627e-02 1.39697105e-01 2.71350890e-01
      2.26461902e-01 2.11209729e-01 2.71350890e-01 2.71350890e-01
      2.71350890e-01 8.00248832e-02 4.64853793e-02 2.19114460e-02
      7.36294687e-02 1.00561932e-01 9.76882130e-02 1.46741062e-01
      1.87268555e-01 2.71350890e-01 5.44686951e-02 5.00550084e-02
      8.32194388e-02 2.71350890e-01 2.71350890e-01 1.62107751e-01
      1.30464032e-01 1.46122098e-01 2.24643588e-01 1.75931513e-01
      1.31116301e-01 5.42752966e-02 3.51166390e-02 2.66689211e-02
      6.28826320e-02 8.51969421e-02 2.51009434e-01 2.79480100e-01
      1.91382661e-01 9.70357805e-02 4.33805473e-02 3.50624137e-02
      2.64080055e-02 4.06686515e-02 2.08447814e-01 8.59164521e-02
      7.55864009e-02 1.70599997e-01 2.49494061e-01 1.07134037e-01
      7.40879700e-02 6.58560395e-02 8.21403340e-02 1.20368332e-01
      2.79480100e-01 2.79480100e-01 2.79480100e-01 2.79480100e-01
      2.65815049e-01 2.65240133e-01 4.57465351e-02 7.43451864e-02
      3.85486446e-02 2.10507840e-01 3.05611819e-01 2.97328889e-01
      4.11460102e-02 8.61669146e-03 1.06471200e-02 1.06708007e-02
      1.62217896e-02 7.72085711e-02 2.74768651e-01 3.05611819e-01
      3.05611819e-01 3.16538438e-02 1.62760373e-02 3.51174474e-02
      3.48558910e-02 2.57324725e-02 4.28742580e-02 3.04055661e-01
      3.05611819e-01 2.58972287e-01 1.90876767e-01 1.14093050e-01
      1.42595395e-01 1.68819148e-02 4.74929921e-02 2.02274919e-02
      1.81525454e-01 3.05611819e-01 1.81606889e-01 4.12097536e-02
      5.06537668e-02 4.45761271e-02 2.13923510e-02 3.04174609e-02
      1.26184374e-01 2.19736785e-01 3.36424321e-01 1.20060332e-01
      6.32010549e-02 3.72759625e-02 6.48871511e-02 7.12344497e-02
      2.79280413e-02 1.39459997e-01 1.52123451e-01 3.36424321e-01
      1.63986206e-01 8.80512521e-02 7.06602335e-02 2.02385068e-01
      1.71952918e-01 8.97942334e-02 1.87405404e-02 1.35226101e-01
      3.36424321e-01 1.15414023e-01 4.29498367e-02 4.06090207e-02
      3.35120745e-02 1.43529866e-02 7.03276880e-03 1.14983074e-01
      3.36424321e-01 3.36424321e-01 3.36424321e-01 6.14106767e-02
      4.24913019e-02 6.66032657e-02 3.51551473e-02 3.69150825e-02
      1.19843386e-01 4.97370213e-02 3.17183882e-02 1.09412566e-01
      1.78905487e-01 1.42461821e-01 1.20313756e-01 7.70988688e-02
      5.73616885e-02 7.03738183e-02 9.30272415e-02 2.37897798e-01
      2.71727890e-01 2.71727890e-01 2.71727890e-01 2.58315235e-01
      5.87924458e-02 4.48152833e-02 6.04162104e-02 1.72344297e-02
      4.23391536e-02 7.46544152e-02 1.43208385e-01 2.00661123e-01
      2.71727890e-01 1.61102787e-01 1.09356113e-01 2.12910622e-02
      2.50104368e-02 1.26184300e-01 2.71727890e-01 2.71727890e-01
      2.71727890e-01 2.71727890e-01 1.66655332e-01 6.00164942e-02
      2.15126202e-02 1.12132080e-01 2.53727257e-01 2.68564314e-01
      2.29011163e-01 2.27752686e-01 2.46312603e-01 2.26170775e-02
      3.41202915e-02 3.24858874e-02 1.45521715e-01 2.74068326e-01
      9.04469490e-02 5.94135672e-02 8.61147642e-02 6.58851638e-02
      2.57059298e-02 2.19702944e-02 9.34329443e-03 7.03827366e-02
      1.17912903e-01 2.18318090e-01 2.74068326e-01 2.74068326e-01
      2.74068326e-01 1.04074977e-01 1.27714304e-02 6.61433116e-02
      2.74068326e-01 2.74068326e-01 1.25346810e-01 2.07209483e-01
      1.51661977e-01 1.23869091e-01 6.43326640e-02 2.06465144e-02
      7.37565979e-02 1.79978982e-01 3.28122705e-01 9.57163572e-02
      4.21101227e-02 2.77830306e-02 7.80960498e-03 2.00180374e-02
      9.64836217e-03 1.36579141e-01 2.74292439e-01 3.28122705e-01
      2.47050181e-01 3.09334509e-02 3.88371907e-02 1.98190585e-02
      5.52429520e-02 2.55406722e-02 1.43920764e-01 3.28122705e-01
      3.28122705e-01 1.20610476e-01 1.42752036e-01 9.75882187e-02
      1.00351768e-02 5.31882644e-02 2.91791465e-02 1.56529009e-01
      3.28122705e-01 3.28122705e-01 1.29979521e-01 9.24760103e-02
      8.35523456e-02 1.75581314e-02 1.05986103e-01 4.17322963e-02</_>
    <_>
      6.04452491e-02 1.71166345e-01 2.22602248e-01 4.92753163e-02
      4.82026339e-02 4.69823442e-02 4.47542183e-02 4.65809703e-02
      2.83344444e-02 2.71699220e-01 3.33804995e-01 3.33804995e-01
      1.31476820e-01 7.02563226e-02 5.78467399e-02 2.62165461e-02
      5.86631596e-02 8.18350390e-02 1.20530546e-01 3.33804995e-01
      3.33804995e-01 6.12176359e-02 9.86316204e-02 1.01584524e-01
      7.80664831e-02 7.74801746e-02 9.10784677e-02 1.76566720e-01
      3.33804995e-01 3.33804995e-01 9.37475413e-02 9.00963396e-02
      8.77918527e-02 3.17957476e-02 4.04888429e-02 7.93892965e-02
      2.83390313e-01 2.83390313e-01 2.32758060e-01 1.76254779e-01
      6.79223388e-02 6.04556799e-02 3.24940272e-02 8.02664831e-02
      1.29767969e-01 1.44653603e-01 1.36096999e-01 1.15189701e-01
      1.49388686e-01 9.01414007e-02 1.08820945e-01 1.21381320e-01
      2.27499440e-01 1.86112314e-01 1.82076246e-01 2.83390313e-01
      2.83390313e-01 1.18570834e-01 3.41297053e-02 3.61766480e-02
      2.77763233e-02 6.00519329e-02 6.87211528e-02 1.74176946e-01
      2.83390313e-01 2.04977155e-01 6.51447028e-02 3.77349071e-02
      1.11310303e-01 1.63101658e-01 2.83390313e-01 1.59792930e-01
      7.14793354e-02 6.80222660e-02 5.15985191e-02 7.00514615e-02
      8.60334486e-02 8.97124708e-02 2.35363558e-01 2.61562496e-01
      1.91185534e-01 5.66131249e-02 4.84916940e-02 3.05010658e-02
      3.52711268e-02 7.90124312e-02 9.23867747e-02 2.61562496e-01
      2.61562496e-01 1.44205078e-01 1.04172468e-01 1.40487075e-01
      2.27463499e-01 1.02123111e-01 9.80887935e-02 1.64318427e-01
      2.61562496e-01 2.61562496e-01 1.47015408e-01 8.12190548e-02
      5.14294356e-02 2.61562496e-01 1.65555701e-01 1.72482654e-01
      1.99420631e-01 2.61562496e-01 2.61562496e-01 1.57786652e-01
      9.26973596e-02 3.20576161e-01 3.20576161e-01 1.12153247e-01
      7.00612813e-02 6.56833425e-02 4.06443216e-02 3.13423090e-02
      4.00386378e-02 7.31329247e-02 3.20576161e-01 3.20576161e-01
      4.69566472e-02 2.01619677e-02 1.92098320e-02 1.08340913e-02
      8.39174725e-03 2.98819859e-02 7.95656890e-02 3.20576161e-01
      3.20576161e-01 1.51808932e-01 4.54062223e-02 7.08649755e-02
      2.78249651e-01 1.12120561e-01 3.77910025e-02 5.68965152e-02
      2.69769996e-01 3.20576161e-01 9.16515216e-02 2.53512394e-02
      2.99516022e-02 1.14049159e-01 6.07343167e-02 5.33043928e-02
      8.11554193e-02 3.33427995e-01 3.33427995e-01 4.30970453e-02
      9.55172535e-03 1.47579806e-02 2.47556753e-02 3.79140377e-02
      2.88427975e-02 1.17218994e-01 2.21492484e-01 2.47504607e-01
      3.68646421e-02 5.81093654e-02 1.39004067e-01 1.63401321e-01
      3.01335216e-01 7.85920024e-02 6.71253204e-02 2.51115680e-01
      3.33427995e-01 5.48631661e-02 5.32973781e-02 4.99758422e-02
      1.07798405e-01 6.51083142e-02 7.22450614e-02 1.62624985e-01
      2.26407364e-01 3.33427995e-01 1.92536950e-01 1.88148454e-01
      9.97736678e-02 7.03141168e-02 5.58940284e-02 5.78710996e-02
      7.86981136e-02 7.02505112e-02 2.67766774e-01 1.19769000e-01
      1.36788949e-01 2.67766774e-01 1.90865934e-01 1.64143249e-01
      4.26080599e-02 7.56767541e-02 3.62805724e-02 2.67766774e-01
      1.60171583e-01 1.82811603e-01 2.67766774e-01 1.94402978e-01
      1.03606462e-01 7.96381310e-02 1.65792778e-01 1.69021010e-01
      2.67766774e-01 2.16918230e-01 1.73955023e-01 1.86904699e-01
      8.39891359e-02 2.48144735e-02 3.18082161e-02 9.42583755e-02
      1.30403996e-01 2.67766774e-01 1.44430071e-01 1.86546639e-01
      2.54522234e-01 8.53221416e-02 6.40656650e-02 4.55004424e-02
      4.22703661e-02 9.12015513e-02 8.00067633e-02 6.63385317e-02
      1.87980086e-02 7.95361847e-02 2.83289403e-01 2.83289403e-01
      3.57616171e-02 9.18432698e-02 2.47250199e-01 1.98995739e-01
      5.66062443e-02 1.78712420e-02 4.26672772e-02 2.69089907e-01
      2.01205030e-01 8.22651386e-02 4.81462441e-02 3.08538489e-02
      3.94472815e-02 4.12672833e-02 7.76682496e-02 1.49917185e-01
      2.83289403e-01 2.83289403e-01 8.67989212e-02 1.94793731e-01
      2.83289403e-01 2.32522443e-01 3.99597399e-02 7.37747699e-02
      5.46636283e-02 2.83289403e-01 2.83289403e-01 1.66592792e-01
      1.62499502e-01 2.84809202e-01 2.46678337e-01 2.37360895e-02
      3.64627093e-02 5.30306399e-02 1.15228251e-01 1.29866764e-01
      1.24734394e-01 1.88475370e-01 2.84809202e-01 2.84809202e-01
      1.46094590e-01 9.54206288e-02 4.31707352e-02 4.63551208e-02
      6.35970533e-02 7.58368522e-02 2.76572585e-01 2.84809202e-01
      2.58567184e-01 1.91442519e-02 4.37130108e-02 4.71204743e-02
      1.10113777e-01 1.42448068e-01 1.65418059e-01 2.55838931e-01
      2.55267501e-01 2.84809202e-01 6.18811846e-02 4.16105911e-02
      4.14015353e-02 5.33333905e-02 9.83673856e-02 1.26855850e-01
      1.51080415e-01 3.06340963e-01 3.23466003e-01 2.75985777e-01
      1.08444341e-01 6.01641759e-02 9.12584085e-03 1.53919971e-02
      4.02762033e-02 1.19522408e-01 2.86797702e-01 2.54083395e-01
      1.44811809e-01 9.30725858e-02 1.08419590e-01 1.04788598e-02
      5.79163358e-02 7.54336119e-02 1.02323286e-01 2.26872310e-01
      3.23466003e-01 1.24054454e-01 8.68455917e-02 6.10671379e-02
      2.14775465e-02 6.74786791e-02 8.89938772e-02 9.12093371e-02
      3.23466003e-01 3.23466003e-01 1.32843256e-01 9.32336822e-02
      8.22882727e-02 8.52732174e-03 4.64043766e-02 1.06087998e-01</_>
    <_>
      5.28613888e-02 2.26455003e-01 2.97595561e-01 1.32521495e-01
      1.75975338e-01 6.07105158e-02 3.06773949e-02 4.26582992e-02
      3.12345698e-02 5.45278527e-02 1.89686269e-01 2.97595561e-01
      2.56969273e-01 2.55735278e-01 6.78069293e-02 4.30517495e-02
      2.80412007e-02 2.50416417e-02 3.30095291e-02 1.95699483e-01
      2.97595561e-01 2.97595561e-01 2.59050846e-01 6.92005306e-02
      3.04184519e-02 7.23805726e-02 3.99979651e-02 8.51932913e-03
      1.39607400e-01 2.97595561e-01 2.97595561e-01 1.95284009e-01
      2.29714848e-02 3.42844008e-03 2.39675795e-03 8.68713576e-03
      6.19627982e-02 2.38447383e-01 2.53300428e-01 2.53300428e-01
      1.30613327e-01 4.49780673e-02 5.06863520e-02 6.13707528e-02
      9.35640931e-02 1.14844412e-01 1.81036666e-01 2.03743666e-01
      2.06270263e-01 2.42517427e-01 9.12694409e-02 1.83801726e-01
      2.53300428e-01 2.46983200e-01 4.41490822e-02 1.06853269e-01
      2.53300428e-01 2.53300428e-01 8.46098065e-02 2.18145549e-02
      1.19372336e-02 3.94359045e-02 9.04735774e-02 7.27545545e-02
      6.33669719e-02 1.69742808e-01 1.77071512e-01 2.34921142e-01
      1.14285618e-01 2.53300428e-01 1.73446342e-01 1.64283246e-01
      7.39109367e-02 5.48966266e-02 1.46624058e-01 1.90001905e-01
      2.63681024e-01 1.19989827e-01 2.55338997e-01 2.24204630e-01
      1.20110542e-01 5.00420220e-02 2.42765434e-02 5.98724224e-02
      7.46139809e-02 1.25843003e-01 1.14299960e-01 2.63681024e-01
      2.63681024e-01 6.63156211e-02 6.01697862e-02 4.23560105e-02
      2.14477837e-01 2.03524351e-01 2.63681024e-01 1.60887554e-01
      2.63681024e-01 1.94863364e-01 6.22960366e-02 6.15778305e-02
      3.25267129e-02 1.29697412e-01 1.08971722e-01 2.13757724e-01
      1.44763917e-01 2.63681024e-01 2.45001212e-01 5.91082610e-02
      2.56226938e-02 1.97260693e-01 3.05857867e-01 3.05857867e-01
      2.36213878e-01 6.21525757e-02 1.50706628e-02 2.79179830e-02
      2.99514551e-02 9.96859279e-03 9.03109387e-02 3.05857867e-01
      3.05857867e-01 1.38761014e-01 1.82287451e-02 3.38909100e-03
      5.28516434e-03 5.01261372e-03 5.64339161e-02 1.85982898e-01
      3.05857867e-01 3.05857867e-01 2.11792052e-01 6.66117817e-02
      3.57148796e-02 6.11426905e-02 5.49087673e-02 2.68661063e-02
      7.56273195e-02 2.96283424e-01 3.05857867e-01 1.16282173e-01
      4.47827578e-02 5.29464111e-02 6.52197525e-02 3.40057611e-02
      2.93029714e-02 4.63624746e-02 2.42107317e-01 2.30636716e-01
      8.41006860e-02 3.51571962e-02 1.98884755e-02 2.48625465e-02
      2.97551937e-02 7.26561025e-02 7.39862695e-02 2.81165630e-01
      2.70612538e-01 2.87532479e-01 1.16893999e-01 1.41663566e-01
      6.57211542e-02 5.39007783e-02 8.44833776e-02 1.35397315e-01
      1.96495771e-01 1.54044896e-01 8.88841823e-02 8.84858742e-02
      8.58543739e-02 9.32983086e-02 4.91555557e-02 1.38079345e-01
      2.60817289e-01 3.17903817e-01 3.17903817e-01 3.17903817e-01
      2.50220805e-01 7.56161287e-02 4.52376492e-02 4.94039021e-02
