<?xml version="1.0"?>
<opencv_storage>
<my_svm type_id="opencv-ml-svm">
  <svm_type>C_SVC</svm_type>
  <kernel><type>RBF</type>
    <gamma>8.9999999999999997e-02</gamma></kernel>
  <C>10.</C>
  <term_criteria><epsilon>1.1920928955078125e-07</epsilon>
    <iterations>2147483647</iterations></term_criteria>
  <var_all>324</var_all>
  <var_count>324</var_count>
  <class_count>2</class_count>
  <class_labels type_id="opencv-matrix">
    <rows>1</rows>
    <cols>2</cols>
    <dt>i</dt>
    <data>
      0 3</data></class_labels>
  <sv_total>322</sv_total>
  <support_vectors>
    <_>
      5.77004105e-02 1.82404086e-01 2.73504347e-01 7.69447312e-02
      4.88892682e-02 2.36587301e-02 1.70898661e-02 9.54993255e-03
      1.88793540e-02 1.18373789e-01 2.73504347e-01 2.73504347e-01
      7.12997168e-02 6.73012882e-02 1.09659769e-02 1.20709324e-02
      1.82282031e-02 4.54778187e-02 1.44252375e-01 2.06662044e-01
      2.73504347e-01 2.73504347e-01 1.83978200e-01 6.67409077e-02
      3.62847745e-02 6.07358664e-02 1.61361799e-01 2.40381971e-01
      2.73504347e-01 2.73504347e-01 2.11197346e-01 1.24234721e-01
      4.76880446e-02 8.51168782e-02 2.57143378e-01 2.73504347e-01
      1.42735958e-01 1.92851588e-01 9.18099880e-02 6.65134192e-02
      8.56591836e-02 3.23884301e-02 1.18108140e-02 2.77209748e-02
      9.69803259e-02 1.28042519e-01 5.38206920e-02 2.09174063e-02
      4.49727550e-02 5.10306656e-02 6.60362765e-02 6.49305284e-02
      9.93441716e-02 1.89633459e-01 2.51738340e-01 2.61057764e-01
      2.15270743e-01 1.40355825e-01 1.64780915e-01 1.82371661e-01
      2.41300344e-01 2.61057764e-01 2.61057764e-01 2.29025900e-01
      1.94143787e-01 1.03006549e-01 8.39009583e-02 9.73263755e-02
      2.35128090e-01 2.61057764e-01 2.61057764e-01 2.61057764e-01
      6.52405918e-02 4.25995998e-02 1.44534875e-02 2.42641270e-02
      3.77083123e-02 7.55447820e-02 1.76275775e-01 3.28191787e-01
      1.74096048e-01 4.32549603e-02 2.62586270e-02 1.27785774e-02
      1.61093622e-02 2.66897809e-02 8.73959139e-02 3.28191787e-01
      3.28191787e-01 1.21896178e-01 1.43982366e-01 8.03759173e-02
      5.41478693e-02 3.72835435e-02 4.56472337e-02 1.02072179e-01
      1.93112627e-01 3.28191787e-01 3.28191787e-01 1.14555158e-01
      4.17949259e-02 3.49846147e-02 2.92922836e-02 6.02670833e-02
      8.82592872e-02 3.28191787e-01 3.28191787e-01 1.77475467e-01
      7.03585595e-02 1.51133001e-01 2.60217994e-01 2.60217994e-01
      2.02818081e-01 7.44575188e-02 3.50712985e-02 4.20952253e-02
      1.18206561e-01 1.38062119e-01 1.69448271e-01 1.78996310e-01
      2.09029108e-01 1.35288298e-01 7.53773227e-02 9.64255929e-02
      2.29072511e-01 2.60217994e-01 8.98257643e-02 1.27533436e-01
      1.92506850e-01 2.60217994e-01 1.74006507e-01 1.27782658e-01
      1.06550820e-01 1.67241216e-01 1.90473810e-01 1.34483337e-01
      8.01372901e-02 9.58414450e-02 1.31985575e-01 9.48670432e-02
      7.92124346e-02 2.01047942e-01 2.60217994e-01 2.60217994e-01
      1.59760624e-01 2.40216151e-01 1.47163376e-01 1.24580100e-01
      1.41665742e-01 1.41933352e-01 1.92458153e-01 2.24857643e-01
      2.53596365e-01 1.55461937e-01 2.53596365e-01 1.60475001e-01
      8.31437856e-02 7.35324621e-02 1.44805178e-01 1.68908179e-01
      2.53596365e-01 2.53596365e-01 1.46686777e-01 1.07572854e-01
      5.79320937e-02 5.14849611e-02 5.29706590e-02 4.95468192e-02
      1.39108017e-01 2.53596365e-01 2.53596365e-01 1.15617588e-01
      1.72873557e-01 1.20131835e-01 5.02842627e-02 3.36249769e-02
      2.81035453e-02 4.24792692e-02 2.53596365e-01 2.44302168e-01
      9.67686772e-02 9.67739448e-02 5.98210879e-02 6.42187297e-02
      1.02228321e-01 9.07529593e-02 1.52232438e-01 2.73513645e-01
      2.73513645e-01 6.68157786e-02 3.03934105e-02 5.22252880e-02
      7.60399178e-02 1.74446374e-01 1.12529539e-01 1.69682652e-01
      2.73513645e-01 1.41467184e-01 6.18926920e-02 7.50531554e-02
      7.87011161e-02 1.20465770e-01 1.49249285e-01 1.28400743e-01
      1.30085662e-01 2.73513645e-01 1.58135980e-01 4.90106456e-02
      4.62439172e-02 2.33157232e-01 2.15747759e-01 2.73513645e-01
      2.58170336e-01 2.21804693e-01 2.73513645e-01 2.05323234e-01
      1.00042865e-01 3.11442520e-02 6.10320009e-02 1.45804837e-01
      6.97336048e-02 1.19762145e-01 2.72965819e-01 2.98412293e-01
      2.06280679e-01 1.78083047e-01 5.45975827e-02 2.90022809e-02
      6.64204881e-02 3.79688777e-02 5.81849031e-02 2.98412293e-01
      2.98412293e-01 2.98412293e-01 3.30175050e-02 1.45304613e-02
      1.00423424e-02 2.27851868e-02 2.73728874e-02 5.91988862e-02
      2.60007888e-01 2.19427243e-01 1.04891889e-01 1.06690787e-01
      1.13212004e-01 4.18243557e-02 1.01751439e-01 9.59090516e-02
      8.92393440e-02 2.98412293e-01 2.98412293e-01 2.43556008e-01
      8.59989747e-02 3.81362438e-02 1.68635938e-02 1.86330862e-02
      2.06007157e-02 2.13762894e-02 2.38060042e-01 2.90535718e-01
      2.79966712e-01 5.33788055e-02 2.56767143e-02 3.95554677e-02
      1.72495786e-02 2.54564174e-02 1.72475241e-02 1.08243823e-01
      2.90535718e-01 2.89469212e-01 1.00230999e-01 8.94054845e-02
      4.18362394e-02 1.03843674e-01 1.46315575e-01 8.32143947e-02
      2.70967335e-01 2.90535718e-01 2.50214577e-01 1.91197529e-01
      4.22518812e-02 5.04016466e-02 5.55889048e-02 1.12426445e-01
      6.26616031e-02 2.68931270e-01 2.90535718e-01 2.90535718e-01
      3.02046649e-02 4.13744040e-02 9.93586481e-02 9.54606459e-02
      9.38995332e-02 6.77820668e-02 7.36769736e-02 2.71870732e-01
      1.55229524e-01 3.08675766e-02 1.07781529e-01 2.71870732e-01
      2.71870732e-01 1.85093820e-01 1.55195430e-01 8.29134136e-02
      2.71870732e-01 1.33496776e-01 1.46311820e-01 8.52443054e-02
      1.60958990e-01 1.50420770e-01 1.14907809e-01 6.73368499e-02
      2.31745765e-01 2.71870732e-01 2.71870732e-01 8.21322948e-02
      1.84553549e-01 2.71870732e-01 2.71870732e-01 1.33383214e-01
      8.89729038e-02 7.32970685e-02 1.00666761e-01 1.23069748e-01</_>
    <_>
      3.22100669e-02 2.05550760e-01 3.09242845e-01 1.69205904e-01
      3.73888537e-02 2.17216369e-02 1.06236879e-02 1.98444836e-02
      8.74814764e-03 2.17515796e-01 3.09242845e-01 3.09242845e-01
      1.46309987e-01 2.18021180e-02 9.54561587e-03 2.22294647e-02
      4.70713563e-02 5.82225174e-02 5.87470122e-02 3.08321565e-01
      3.09242845e-01 3.09242845e-01 1.29856259e-01 1.81391388e-02
      1.70921907e-02 1.33982543e-02 1.44788977e-02 1.52407601e-01
      3.09242845e-01 3.09242845e-01 1.77156955e-01 5.37710339e-02
      9.76198912e-03 2.60920264e-02 4.67699282e-02 2.96653658e-02
      2.78907061e-01 2.78907061e-01 2.78907061e-01 6.92484528e-02
      3.61456573e-02 8.29990488e-03 2.87587363e-02 4.96051647e-02
      1.75218910e-01 2.78907061e-01 1.61536187e-01 1.18378997e-01
      7.46201649e-02 7.64698014e-02 4.60849740e-02 5.64382784e-02
      1.21912338e-01 2.78907061e-01 1.37456834e-01 1.87891543e-01
      2.78907061e-01 1.32593989e-01 6.66534901e-02 2.38593817e-02
      4.30602729e-02 4.47666422e-02 4.53194454e-02 2.78907061e-01
      2.78907061e-01 2.78907061e-01 1.83982447e-01 7.89420754e-02
      6.73598126e-02 6.89484403e-02 1.76518500e-01 1.48394868e-01
      1.21674418e-01 4.86157723e-02 1.10081278e-01 7.42283985e-02
      9.19677466e-02 8.57410282e-02 1.93672121e-01 1.60093009e-01
      2.26636380e-01 4.08984199e-02 4.44273204e-02 1.01525858e-01
      6.51484802e-02 1.00805730e-01 1.45621702e-01 2.84452647e-01
      1.95930168e-01 5.65523282e-02 2.25186527e-01 2.84452647e-01
      2.84452647e-01 6.99870512e-02 4.63542268e-02 8.01740512e-02
      1.56583622e-01 2.01150566e-01 1.40941843e-01 9.98038054e-02
      1.74387679e-01 2.84452647e-01 4.31236140e-02 7.68058375e-02
      2.21632719e-01 2.84452647e-01 2.84452647e-01 9.55867246e-02
      1.03085667e-01 1.70548618e-01 2.60159910e-01 2.43365452e-01
      2.12757528e-01 3.99116799e-02 2.71402858e-02 2.59299837e-02
      6.72116727e-02 1.52999133e-01 1.67494193e-01 2.40950331e-01
      1.57200277e-01 1.04544751e-01 2.55587082e-02 1.68539267e-02
      2.78503876e-02 5.93804531e-02 2.09200695e-01 1.15809724e-01
      1.46137133e-01 2.25859210e-01 2.60159910e-01 1.54039711e-01
      6.87904730e-02 5.43808378e-02 1.63998932e-01 2.01479957e-01
      2.17708290e-01 2.60159910e-01 2.60159910e-01 2.60159910e-01
      2.13737965e-01 4.66329828e-02 5.89425340e-02 1.72266915e-01
      8.09409395e-02 1.22721821e-01 3.06143135e-01 1.79602608e-01
      5.51469922e-02 1.70327742e-02 2.01025717e-02 1.70268845e-02
      2.05874033e-02 1.62304267e-01 3.06143135e-01 3.06143135e-01
      2.38791063e-01 6.65025860e-02 1.74218994e-02 3.84200402e-02
      1.39103785e-01 5.95135838e-02 8.20136666e-02 2.32521906e-01
      3.06143135e-01 3.06143135e-01 1.81078643e-01 1.31728590e-01
      6.02786578e-02 1.84641294e-02 3.09109669e-02 4.93032336e-02
      2.67751217e-01 3.06143135e-01 2.37752274e-01 9.26985815e-02
      6.04629777e-02 4.08897921e-02 5.66723607e-02 1.33531718e-02
      1.37107715e-01 2.93645561e-01 2.95724213e-01 1.00072540e-01
      4.86915149e-02 2.33786255e-02 9.29694697e-02 1.53501466e-01
      7.52194151e-02 9.06881243e-02 1.79447725e-01 2.95724213e-01
      5.75306825e-02 9.17084888e-02 9.69418809e-02 2.95724213e-01
      2.95724213e-01 5.95977977e-02 3.74315381e-02 2.03424320e-01
      2.95724213e-01 1.30606681e-01 6.29940853e-02 3.18248644e-02
      3.21372971e-02 4.88614291e-02 1.86969284e-02 1.21915139e-01
      2.95724213e-01 2.95724213e-01 2.04584643e-01 8.63240883e-02
      5.32872155e-02 1.26072511e-01 9.41759050e-02 5.99412955e-02
      1.00806959e-01 3.84019017e-02 2.26007421e-02 1.20887697e-01
      2.61822104e-01 2.09485382e-01 1.35468051e-01 7.23977983e-02
      9.86946672e-02 8.77027959e-02 7.07936287e-02 2.28796571e-01
      2.61822104e-01 2.61822104e-01 2.61822104e-01 1.18632197e-01
      9.96909514e-02 1.36434704e-01 6.12943694e-02 1.77338980e-02
      1.11158006e-02 3.56218815e-02 1.27790332e-01 2.09350958e-01
      2.61822104e-01 1.59712836e-01 9.62537974e-02 9.20463875e-02
      1.85073391e-02 1.39082968e-01 2.29289129e-01 1.75974473e-01
      2.61822104e-01 2.61822104e-01 2.61822104e-01 1.58824608e-01
      2.15216242e-02 1.03342615e-01 2.66880035e-01 2.66880035e-01
      2.24166125e-01 2.42939800e-01 1.26344204e-01 3.54733989e-02
      3.52604128e-02 2.50440948e-02 2.03972578e-01 2.66880035e-01
      1.39088005e-01 8.21347162e-02 9.03709978e-02 6.04164340e-02
      2.72990074e-02 2.97621079e-02 3.29026356e-02 4.97792251e-02
      1.39577731e-01 2.10937604e-01 1.74623609e-01 2.66880035e-01
      2.66880035e-01 1.40083760e-01 6.86236322e-02 6.72826916e-02
      2.66880035e-01 2.66880035e-01 2.48393625e-01 1.54839516e-01
      1.93659171e-01 1.27661273e-01 6.74933121e-02 8.47790092e-02
      6.07679710e-02 3.13964933e-01 3.13964933e-01 1.26704514e-01
      6.26912415e-02 4.19873483e-02 2.74861213e-02 1.07498141e-02
      3.75983045e-02 1.24778584e-01 3.13964933e-01 3.13964933e-01
      1.80297643e-01 4.83514741e-02 6.25327379e-02 7.11280778e-02
      5.73557578e-02 8.74342993e-02 1.22090489e-01 3.13964933e-01
      3.13964933e-01 2.35230863e-01 1.39675632e-01 7.07572773e-02
      4.68835197e-02 1.43059576e-02 8.42747763e-02 1.10443406e-01
      2.78412879e-01 2.87915498e-01 6.93026781e-02 9.25628841e-02
      5.27895913e-02 8.01463798e-02 3.05822399e-02 8.36187005e-02</_>
    <_>
      3.00584882e-02 2.78447062e-01 3.11066926e-01 2.11695671e-01
      5.24315648e-02 2.66662464e-02 1.01469839e-02 2.30857767e-02
      1.94776244e-02 1.29425392e-01 3.11066926e-01 3.11066926e-01
      9.41184685e-02 4.20215316e-02 5.86101152e-02 2.40446087e-02
      2.71579828e-02 2.27242708e-02 1.10305548e-01 2.62027323e-01
      3.11066926e-01 3.11066926e-01 1.37979656e-01 8.08229893e-02
      1.67992674e-02 5.22835031e-02 9.96213034e-02 1.51287064e-01
      2.92816550e-01 3.11066926e-01 1.18316054e-01 7.19996989e-02
      6.50320426e-02 4.70628999e-02 3.47941555e-02 3.38189304e-02
      1.69751853e-01 3.29244494e-01 2.20047548e-01 7.72302970e-02
      9.09458399e-02 8.48999694e-02 3.47050279e-02 5.50799035e-02
      4.97336388e-02 2.03703254e-01 2.01683700e-01 1.56249881e-01
      9.58261713e-02 1.54420733e-01 7.03971088e-02 4.39387523e-02
      1.34944618e-01 1.84367329e-01 1.17159106e-01 3.10068607e-01
      3.29244494e-01 9.50918198e-02 5.50176166e-02 6.04303181e-02
      4.73780297e-02 3.68565693e-02 4.25999649e-02 2.21696272e-01
      3.29244494e-01 3.29244494e-01 1.48630068e-01 7.91482180e-02
      4.42751423e-02 4.91859354e-02 1.41859725e-01 1.61223024e-01
      1.11710481e-01 1.07094124e-01 7.30375350e-02 4.38483022e-02
      9.39369500e-02 3.75081263e-02 7.73775205e-02 1.81884572e-01
      1.54763371e-01 1.32465050e-01 1.23194396e-01 9.72624123e-02
      8.75289887e-02 1.52301297e-01 1.44882187e-01 2.57261723e-01
      2.21256807e-01 1.20726764e-01 2.13710710e-01 2.57261723e-01
      2.57261723e-01 5.99777959e-02 4.58108447e-02 2.42977533e-02
      9.22778547e-02 2.50436842e-01 1.81238800e-01 2.57261723e-01
      2.57261723e-01 1.69388607e-01 6.56095371e-02 1.36745170e-01
      1.86854228e-01 2.57261723e-01 2.57261723e-01 1.71680942e-01
      7.66790882e-02 9.87681821e-02 1.87242702e-01 2.72811085e-01
      2.45126545e-01 8.03325400e-02 2.38221735e-02 3.89508046e-02
      7.13649392e-02 1.11187726e-01 2.20469981e-01 2.32987911e-01
      1.37178302e-01 1.72040522e-01 1.27872288e-01 5.89701012e-02
      3.84980738e-02 5.46208322e-02 2.55207550e-02 3.03675961e-02
      8.61734375e-02 2.50340223e-01 2.72811085e-01 2.39497349e-01
      7.90885165e-02 4.19156924e-02 4.80157547e-02 8.49708468e-02
      2.72811085e-01 2.72811085e-01 2.72811085e-01 2.72811085e-01
      2.72811085e-01 9.29509997e-02 3.33203152e-02 8.71810243e-02
      8.60848874e-02 2.94891715e-01 2.94891715e-01 1.13592796e-01
      1.05249725e-01 1.14669889e-01 3.64870802e-02 1.94279030e-02
      5.36835082e-02 1.09002076e-01 2.94891715e-01 2.94891715e-01
      9.78204310e-02 3.11851501e-02 4.51827794e-02 3.29497121e-02
      4.86388393e-02 9.80218649e-02 6.05530739e-02 2.94891715e-01
      2.94891715e-01 2.22490549e-01 2.66536653e-01 2.48833865e-01
      9.45186019e-02 2.12462097e-02 4.75879461e-02 5.81684336e-02
      2.90276021e-01 2.43825763e-01 9.02649835e-02 1.05527990e-01
      9.98641029e-02 9.05658677e-02 4.19383235e-02 6.73806369e-02
      1.28849685e-01 2.88321495e-01 2.88321495e-01 4.65798005e-02
      2.71240547e-02 4.82819453e-02 8.48807991e-02 1.20941766e-01
      1.08606711e-01 2.26817101e-01 2.88321495e-01 1.37588277e-01
      2.68227197e-02 1.19060799e-01 2.13999704e-01 2.88321495e-01
      2.13478282e-01 1.07544579e-01 3.92949730e-02 2.88321495e-01
      2.79617101e-01 2.12409291e-02 2.83162296e-02 4.38152142e-02
      5.12274876e-02 2.50138342e-02 4.59452644e-02 2.00220495e-01
      2.88321495e-01 2.88321495e-01 4.85466830e-02 5.01348190e-02
      1.37140125e-01 1.15161896e-01 6.45733327e-02 4.56119999e-02
      1.10732270e-02 1.73281021e-02 4.88335006e-02 7.03082979e-02
      1.78854451e-01 2.38785684e-01 1.74496949e-01 1.04220077e-01
      2.77866926e-02 2.58886199e-02 1.63049579e-01 2.98799038e-01
      1.68883041e-01 2.23731294e-01 2.98799038e-01 2.36018822e-01
      9.41155329e-02 3.50727998e-02 2.08723489e-02 1.38409892e-02
      2.81708408e-02 2.47890335e-02 7.02166110e-02 1.93613634e-01
      2.63430268e-01 1.77524552e-01 3.16684023e-02 2.61744894e-02
      6.38184771e-02 1.41434491e-01 8.12598914e-02 2.43302703e-01
      2.98799038e-01 2.98799038e-01 2.98799038e-01 5.67169972e-02
      4.23983522e-02 1.75484091e-01 2.99604744e-01 1.22838803e-01
      1.62565008e-01 1.71512887e-01 1.41060293e-01 4.02136184e-02
      1.44931059e-02 8.23584720e-02 2.66200036e-01 2.81735688e-01
      4.83609550e-02 7.21275657e-02 5.41515574e-02 6.51059598e-02
      2.96936892e-02 1.30373370e-02 7.15768337e-02 1.05197735e-01
      2.58356988e-01 8.70120898e-02 1.79973349e-01 2.99604744e-01
      2.99604744e-01 1.82455033e-01 3.01135667e-02 1.64753824e-01
      2.99604744e-01 2.99604744e-01 1.34611830e-01 9.39411446e-02
      1.22186266e-01 1.35571852e-01 6.22945912e-02 4.21978272e-02
      6.17750958e-02 3.16768229e-01 3.16768229e-01 2.89635565e-02
      1.38940094e-02 1.80957355e-02 2.27924604e-02 2.49899942e-02
      1.50268935e-02 1.22213118e-01 3.16768229e-01 3.16768229e-01
      1.08080670e-01 3.37025784e-02 3.93859372e-02 3.46136354e-02
      3.87977399e-02 1.61472149e-02 1.39271542e-01 3.16768229e-01
      3.16768229e-01 1.15663394e-01 4.65147793e-02 5.33309616e-02
      5.87854125e-02 9.14610103e-02 5.14372289e-02 1.21723682e-01
      3.11743855e-01 3.16768229e-01 1.29698515e-01 6.59987479e-02
      8.29806849e-02 1.31896079e-01 1.97279155e-01 8.36489871e-02</_>
    <_>
      5.64949885e-02 2.67263412e-01 2.67263412e-01 1.60148054e-01
      5.51253743e-02 2.53123306e-02 2.33993102e-02 4.56300490e-02
      3.38561684e-02 1.83571368e-01 2.67263412e-01 2.67263412e-01
      1.84900746e-01 9.06574056e-02 6.09822087e-02 9.87570137e-02
      1.00343004e-01 6.78168535e-02 7.99728185e-02 2.67263412e-01
      2.67263412e-01 2.05055594e-01 1.28810912e-01 5.37989512e-02
      8.81638303e-02 1.04675040e-01 1.68561056e-01 1.52932793e-01
      1.98158145e-01 1.92570046e-01 1.81889147e-01 1.18655339e-01
      8.66923332e-02 2.67263412e-01 2.15074554e-01 2.02571452e-01
      2.63621479e-01 1.04504608e-01 9.07516181e-02 7.20946491e-02
      1.06764339e-01 8.89710635e-02 1.19617775e-01 1.32856965e-01
      2.00783327e-01 1.81293815e-01 5.22339717e-02 2.67751440e-02
      2.86935307e-02 6.71250001e-02 9.92354453e-02 1.83187425e-01
      2.63621479e-01 2.62776971e-01 2.45336100e-01 1.08435348e-01
      8.19329917e-02 9.79234502e-02 1.68602541e-01 1.03404857e-01
      2.56613106e-01 2.30713591e-01 2.63621479e-01 2.51879215e-01
      1.28679797e-01 5.70300370e-02 6.11555241e-02 9.90915596e-02
      1.05416611e-01 1.59588233e-01 2.63621479e-01 2.63621479e-01
      4.51479442e-02 2.19386201e-02 1.07290549e-02 1.47039015e-02
      2.16008704e-02 3.97505015e-02 3.30408335e-01 3.30408335e-01
      1.03266068e-01 1.92512330e-02 1.05278315e-02 5.18581131e-03
      4.22840659e-03 2.16646604e-02 1.28924534e-01 3.30408335e-01
      3.30408335e-01 6.19725101e-02 6.66747317e-02 5.11632636e-02
      2.85323802e-02 3.69408056e-02 4.06153947e-02 8.19336101e-02
      3.30408335e-01 2.81054556e-01 1.58842504e-01 5.57622425e-02
      2.18794458e-02 3.29753198e-02 4.49803658e-02 8.15264061e-02
      3.30408335e-01 3.30408335e-01 2.34248310e-01 7.38029182e-02
      5.91158234e-02 1.32836103e-01 1.88778058e-01 1.46014258e-01
      1.65796548e-01 6.90094382e-02 9.15186182e-02 1.10838808e-01
      1.66711420e-01 1.05739854e-01 7.44062215e-02 1.27681449e-01
      1.46295831e-01 1.45690933e-01 1.31096974e-01 2.60575682e-01
      2.60575682e-01 2.11843550e-01 9.89343971e-02 1.45417720e-01
      1.57064870e-01 2.06113443e-01 1.80644602e-01 1.15973689e-01
      1.09492853e-01 1.53691947e-01 1.25347778e-01 1.54154956e-01
      8.06740671e-02 1.66187659e-01 2.60575682e-01 1.66509584e-01
      1.11252941e-01 2.60575682e-01 2.60575682e-01 2.60575682e-01
      1.47941440e-01 6.11357652e-02 1.06084920e-01 1.08264312e-01
      2.07909450e-01 1.19811103e-01 2.45553091e-01 2.45553091e-01
      1.95130199e-01 1.59709603e-01 1.07571848e-01 1.07193500e-01
      8.83112177e-02 1.28582522e-01 1.16225682e-01 1.75758526e-01
      2.01737955e-01 2.45553091e-01 2.41067007e-01 5.47793917e-02
      1.29338801e-01 1.48035899e-01 1.51232377e-01 8.33289623e-02
      2.07138479e-01 2.45553091e-01 2.45553091e-01 1.68267980e-01
      9.68407094e-02 1.49852842e-01 9.81076211e-02 1.01352595e-01
      9.09036100e-02 1.71112180e-01 2.08435923e-01 2.45553091e-01
      7.09992498e-02 4.31252047e-02 4.69613485e-02 4.42517847e-02
      5.56767844e-02 1.55981779e-01 2.46249810e-01 2.18883187e-01
      2.37247765e-01 8.00256804e-02 2.55968664e-02 6.70710355e-02
      8.36125910e-02 1.42213762e-01 2.46249810e-01 2.46249810e-01
      1.56082138e-01 1.37685657e-01 6.15019538e-02 3.49062681e-02
      6.16686903e-02 1.26097500e-01 1.34305447e-01 1.46113917e-01
      2.46249810e-01 2.46249810e-01 2.46249810e-01 5.21665066e-02
      8.41166824e-02 1.60287946e-01 2.46249810e-01 2.46249810e-01
      2.21036643e-01 2.46249810e-01 1.98093906e-01 1.98306575e-01
      1.73890606e-01 1.16277292e-01 5.25571667e-02 9.88446847e-02
      1.54588848e-01 1.15909845e-01 1.92906633e-01 1.87471509e-01
      1.80614427e-01 2.01917216e-01 7.02284202e-02 4.70834523e-02
      1.22217588e-01 8.59310180e-02 5.37849516e-02 2.45105416e-01
      2.80847728e-01 2.80847728e-01 1.27022266e-01 5.70584461e-02
      1.03871133e-02 7.09932148e-02 1.28518969e-01 9.69364718e-02
      2.29140878e-01 2.25733861e-01 1.80928946e-01 2.14073434e-01
      6.58435076e-02 7.04929605e-02 1.28859431e-01 8.49924311e-02
      7.34376162e-02 2.80847728e-01 2.80847728e-01 2.80847728e-01
      1.93663612e-01 2.29058899e-02 2.92087775e-02 4.11778502e-02
      1.86544172e-02 1.98377930e-02 1.76096097e-01 2.71723032e-01
      2.71723032e-01 1.32530987e-01 2.88255289e-02 3.68541852e-02
      4.06654887e-02 5.73112369e-02 2.89713815e-02 1.52225837e-01
      2.71723032e-01 2.71723032e-01 2.12168664e-01 4.50596400e-02
      6.81057200e-02 9.01550800e-02 5.64739704e-02 6.69871867e-02
      2.71723032e-01 2.71723032e-01 2.71723032e-01 1.80309296e-01
      8.87600034e-02 5.27489632e-02 8.92979503e-02 1.22649305e-01
      6.51018620e-02 2.71723032e-01 2.71723032e-01 2.71723032e-01
      5.62233590e-02 3.02726682e-02 9.77707431e-02 2.55159736e-01
      2.47355595e-01 8.51996765e-02 1.62482440e-01 2.07714066e-01
      1.57229960e-01 4.36232612e-02 9.19120312e-02 2.55159736e-01
      2.55159736e-01 2.55159736e-01 1.44107625e-01 1.19438052e-01
      7.82415345e-02 6.99024424e-02 1.32994100e-01 1.15083568e-01
      1.41489133e-01 2.24524200e-01 2.17754737e-01 8.29893649e-02
      2.55159736e-01 2.55159736e-01 1.65300295e-01 1.00582793e-01
      1.08362816e-01 2.18467355e-01 2.40810558e-01 2.04560265e-01
      6.95558935e-02 9.18429047e-02 6.18378669e-02 6.75490350e-02</_>
    <_>
      6.33208528e-02 1.50682658e-01 1.50495768e-01 5.63592538e-02
      3.37218046e-02 1.29964231e-02 4.77972487e-03 1.88464615e-02
      3.04693896e-02 1.01174995e-01 2.70537734e-01 2.70537734e-01
      1.66179523e-01 1.05434157e-01 1.00573346e-01 5.10937348e-02
      7.22875893e-02 1.18976451e-01 1.03262447e-01 2.50086457e-01
      2.70537734e-01 2.70537734e-01 1.72839284e-01 3.79954055e-02
      1.20380959e-02 5.26935235e-03 4.02497314e-02 2.70537734e-01
      2.70537734e-01 2.70537734e-01 2.70537734e-01 2.70537734e-01
      1.05768003e-01 6.65936843e-02 8.49975348e-02 2.70537734e-01
      1.42358869e-01 1.93927467e-01 1.32421330e-01 1.13191076e-01
      1.51210755e-01 1.01190485e-01 4.35374714e-02 1.07472621e-01
      1.41065046e-01 2.78133035e-01 2.43409842e-01 8.96122605e-02
      1.54523671e-01 2.78133035e-01 9.89306271e-02 3.29260454e-02
      1.18788384e-01 2.78133035e-01 2.78133035e-01 1.56399101e-01
      1.07548758e-01 8.37155133e-02 1.45383447e-01 6.19141795e-02
      5.23135327e-02 9.91265923e-02 2.78133035e-01 2.78133035e-01
      2.17118904e-01 6.67785555e-02 1.19933002e-01 1.42385855e-01
      4.14874293e-02 3.94578129e-02 1.21661149e-01 2.78133035e-01
      2.28156298e-01 2.13031918e-01 1.48318768e-01 1.57064304e-01
      2.13386789e-01 1.41669080e-01 7.12799504e-02 1.39456302e-01
      2.41501883e-01 1.03563063e-01 2.41501883e-01 2.06908926e-01
      1.42431214e-01 1.41524956e-01 1.59693778e-01 7.37088919e-02
      1.17712729e-01 1.12658396e-01 2.41501883e-01 2.05612406e-01
      1.72710657e-01 2.08017081e-01 1.31296024e-01 8.42467174e-02
      9.85253975e-02 1.15128875e-01 2.41501883e-01 1.23547517e-01
      1.79384992e-01 1.46673352e-01 1.73341766e-01 2.13547722e-01
      1.30309656e-01 1.24619462e-01 1.17601909e-01 1.58423394e-01
      4.84537035e-02 1.15907647e-01 1.55392006e-01 2.55215615e-01
      2.43710265e-01 6.82188943e-02 2.15596855e-02 2.03963965e-02
      5.47406934e-02 1.66337639e-01 1.15776710e-01 1.24093331e-01
      2.09396079e-01 2.55215615e-01 1.42000109e-01 4.74604145e-02
      6.52286634e-02 1.47554949e-01 9.84189510e-02 1.39112011e-01
      1.12871960e-01 2.55215615e-01 2.55215615e-01 1.81864396e-01
      9.61986855e-02 6.93069398e-02 1.47263631e-01 2.53648609e-01
      8.46029595e-02 6.65456206e-02 2.32226774e-01 2.55215615e-01
      2.39386842e-01 9.96686891e-02 2.07963184e-01 2.53413856e-01
      2.56259739e-01 1.11762322e-01 4.69910800e-02 6.47101179e-02
      2.34253377e-01 8.58890116e-02 4.35284302e-02 7.52770454e-02
      2.55683541e-01 2.56259739e-01 1.82254568e-01 4.89634909e-02
      1.28816843e-01 5.85852340e-02 4.43848185e-02 5.56926094e-02
      7.18206391e-02 2.56259739e-01 2.56259739e-01 1.24709629e-01
      5.86533137e-02 1.19298764e-01 2.56259739e-01 1.64414942e-01
      8.64705220e-02 1.87828541e-01 2.56255209e-01 2.56259739e-01
      2.47236922e-01 1.23609632e-01 1.62529573e-01 2.01281011e-01
      1.23509638e-01 7.02245981e-02 5.51668815e-02 2.19626591e-01
      2.48984709e-01 9.98252332e-02 1.33206010e-01 2.48984709e-01
      1.37502596e-01 1.08003505e-01 1.24409609e-01 4.39977013e-02
      2.40737244e-01 1.21041439e-01 6.15685470e-02 1.20516397e-01
      2.48984709e-01 2.27399483e-01 1.31240979e-01 1.19516239e-01
      6.86290041e-02 1.21665783e-01 2.12399989e-01 1.67505458e-01
      2.04445317e-01 2.48984709e-01 2.48984709e-01 1.94304973e-01
      8.83220360e-02 2.22515892e-02 1.52621657e-01 1.26821458e-01
      9.89823043e-02 1.82011977e-01 2.48984709e-01 2.48984709e-01
      1.76704213e-01 9.26902890e-02 4.19931486e-02 9.64877680e-02
      1.15866117e-01 8.86957049e-02 6.28121421e-02 1.89651594e-01
      1.41613618e-01 2.56093353e-01 2.56093353e-01 1.31005064e-01
      1.52497247e-01 2.56093353e-01 6.16901033e-02 5.31405285e-02
      1.53895169e-01 2.19721019e-01 2.56093353e-01 2.56093353e-01
      2.56093353e-01 2.56093353e-01 5.71020395e-02 1.54252965e-02
      1.48912659e-02 3.08187753e-02 3.09674703e-02 1.51866823e-01
      2.56093353e-01 1.72401115e-01 7.02363476e-02 1.09446846e-01
      4.21725400e-02 5.47921434e-02 4.61861230e-02 4.75447960e-02
      1.42500430e-01 2.56093353e-01 2.56093353e-01 1.91122055e-01
      2.44032785e-01 1.34930089e-01 7.15389922e-02 7.45180175e-02
      1.91396028e-01 1.79203138e-01 1.79242969e-01 2.17671782e-01
      2.44032785e-01 2.44032785e-01 2.44032785e-01 1.76927581e-01
      8.61759037e-02 1.57467246e-01 9.71188247e-02 9.41357240e-02
      1.17326036e-01 2.44032785e-01 1.78488836e-01 9.21882540e-02
      8.59296918e-02 4.73229475e-02 5.88260591e-02 7.76109472e-02
      1.53151572e-01 1.52954191e-01 2.15535045e-01 2.44032785e-01
      2.29476362e-01 1.64169133e-01 1.57555610e-01 6.97244182e-02
      5.15908785e-02 8.15429911e-02 1.91320121e-01 2.44032785e-01
      2.44396418e-01 2.44396418e-01 2.44396418e-01 2.44396418e-01
      2.44396418e-01 1.42395258e-01 3.68411765e-02 4.44091111e-02
      2.44396418e-01 7.70817995e-02 1.74874425e-01 2.44396418e-01
      2.44396418e-01 2.39558503e-01 1.22966185e-01 3.56680453e-02
      2.14037038e-02 8.04964975e-02 1.86879337e-01 2.21332327e-01
      2.06842393e-01 2.44396418e-01 1.38270915e-01 1.09671950e-01
      1.34367317e-01 1.45374104e-01 1.56471893e-01 4.59585525e-02
      9.60836709e-02 1.37179062e-01 1.62731200e-01 1.25729218e-01
      1.14462972e-01 9.06732455e-02 4.35635597e-02 4.42337468e-02</_>
    <_>
      8.87056217e-02 7.98964426e-02 1.82381868e-01 7.13559166e-02
      1.86948720e-02 9.88904946e-03 8.79436359e-03 8.47426336e-03
      4.10394743e-02 2.05965325e-01 2.64362603e-01 3.07477713e-01
      1.55268133e-01 6.11733720e-02 3.86194848e-02 2.28254907e-02
      5.16027883e-02 7.15874657e-02 6.64624795e-02 2.38313824e-01
      3.07477713e-01 3.07477713e-01 1.04634680e-01 2.61057783e-02
      2.87906509e-02 3.72951366e-02 3.60194445e-02 2.75270522e-01
      3.07477713e-01 3.07477713e-01 3.07477713e-01 1.98523104e-01
      4.99637835e-02 5.88000976e-02 1.20290250e-01 1.13393955e-01
      1.42031312e-01 1.67814106e-01 1.82483032e-01 1.21159606e-01
      1.25712201e-01 1.02023385e-01 4.57109995e-02 9.22007114e-02
      9.92693081e-02 2.69973367e-01 1.83500275e-01 1.11154191e-01
      1.68474361e-01 2.69973367e-01 1.43583968e-01 1.00815840e-01
      1.02150656e-01 2.28434801e-01 2.14469120e-01 1.06776230e-01
      1.90624520e-01 1.91178754e-01 1.03869341e-01 4.86161411e-02
      6.99992999e-02 1.86663792e-01 2.56654650e-01 2.69973367e-01
      1.29315853e-01 4.05311622e-02 1.24601796e-01 2.29480520e-01
      5.93356900e-02 6.26731291e-02 2.27873340e-01 2.69973367e-01
      2.55580217e-01 1.47459641e-01 6.34101033e-02 1.49260297e-01
      2.46553004e-01 1.12990469e-01 8.97094235e-02 9.62058008e-02
      2.00548276e-01 1.14691675e-01 1.04162797e-01 5.89999519e-02
      1.45728767e-01 1.35135546e-01 1.25126392e-01 9.49763432e-02
      1.33376539e-01 1.57552183e-01 2.55580217e-01 1.51153490e-01
      5.99246733e-02 1.31032526e-01 2.22702950e-01 1.16546631e-01
      8.01269561e-02 1.98733658e-01 2.55580217e-01 1.52812049e-01
      1.53635278e-01 1.60961047e-01 1.60803139e-01 1.82794452e-01
      2.55580217e-01 1.65855929e-01 2.12364212e-01 2.55580217e-01
      4.24618982e-02 1.48742706e-01 2.42211059e-01 2.27701068e-01
      1.40759885e-01 1.05301991e-01 7.44910762e-02 6.38498068e-02
      7.42563456e-02 9.91397277e-02 1.08766504e-01 2.42211059e-01
      2.42211059e-01 2.42211059e-01 1.40615553e-01 5.63755110e-02
      6.40585050e-02 5.76339439e-02 7.27069750e-02 1.05356432e-01
      1.40049055e-01 1.52900279e-01 2.26433769e-01 2.42211059e-01
      1.67225793e-01 1.17733933e-01 1.57769412e-01 1.12099886e-01
      9.09619629e-02 1.34562507e-01 2.42211059e-01 2.42211059e-01
      2.42211059e-01 2.21931428e-01 2.42211059e-01 1.73675239e-01
      1.95257008e-01 6.05898947e-02 1.53503671e-01 2.07803234e-01
      1.82057187e-01 8.52702484e-02 5.83512783e-02 1.31345287e-01
      1.72059625e-01 2.51178741e-01 7.59451911e-02 6.55631498e-02
      5.38705960e-02 7.01013878e-02 4.99969050e-02 5.24182096e-02
      2.22428724e-01 2.51178741e-01 2.03675136e-01 9.94124338e-02
      1.22112244e-01 1.81593806e-01 2.51178741e-01 2.08230391e-01
      1.54939160e-01 2.51178741e-01 2.28203386e-01 2.51178741e-01
      7.64662623e-02 1.29163861e-01 1.45765752e-01 2.07044899e-01
      1.04027756e-01 5.43283522e-02 1.67350516e-01 2.51178741e-01
      2.38501668e-01 1.07491322e-01 1.10945426e-01 6.21314049e-02
      7.63153657e-02 7.35987872e-02 3.13751511e-02 1.75585330e-01
      2.38501668e-01 1.00751325e-01 1.39738470e-01 2.38501668e-01
      1.33576632e-01 1.84038177e-01 2.08529532e-01 6.64596409e-02
      1.05159797e-01 1.99429676e-01 1.81524366e-01 1.18246272e-01
      2.38501668e-01 2.38501668e-01 2.38501668e-01 8.74403268e-02
      2.90190075e-02 1.12835422e-01 2.03394949e-01 8.24892968e-02
      2.38501668e-01 2.38501668e-01 2.38501668e-01 2.38501668e-01
      2.05590025e-01 4.98873144e-02 7.83480555e-02 1.03261113e-01
      8.44649374e-02 6.40840083e-02 5.11046983e-02 7.77757764e-02
      2.19192415e-01 2.73524702e-01 2.73524702e-01 1.03374496e-01
      9.73377079e-02 1.26952276e-01 8.79771486e-02 4.85623553e-02
      1.25444978e-01 1.91160470e-01 2.73524702e-01 2.73524702e-01
      2.73524702e-01 2.39468589e-01 5.08080088e-02 4.07664590e-02
      6.01847284e-03 8.75131227e-03 5.48108630e-02 2.28433266e-01
      2.73524702e-01 1.45080939e-01 7.09331185e-02 1.28406048e-01
      9.90252048e-02 6.83164969e-02 5.53264022e-02 5.06689548e-02
      2.00572059e-01 2.73524702e-01 2.42377788e-01 1.68585971e-01
      1.69001788e-01 5.50703108e-02 2.53523495e-02 1.21136747e-01
      1.49958089e-01 1.80780664e-01 2.29246363e-01 2.37491190e-01
      2.70064592e-01 2.70064592e-01 1.13429643e-01 9.74199995e-02
      1.56102538e-01 1.58098087e-01 7.12589845e-02 6.84648305e-02
      1.67878255e-01 2.70064592e-01 1.91143200e-01 6.89370781e-02
      5.22679910e-02 8.78993049e-02 4.49406579e-02 9.54741836e-02
      1.69293851e-01 1.72912568e-01 2.70064592e-01 2.70064592e-01
      1.92998081e-01 9.51455906e-02 1.08150810e-01 9.91489813e-02
      9.71085206e-02 8.14633816e-02 1.83446229e-01 2.70064592e-01
      2.51565874e-01 2.24656582e-01 2.51565874e-01 2.51565874e-01
      2.51565874e-01 3.79360467e-02 2.35362723e-02 7.82242715e-02
      2.51565874e-01 6.63031116e-02 2.28913799e-01 2.51565874e-01
      2.51565874e-01 1.88112840e-01 1.00913346e-01 3.83081436e-02
      7.60380551e-02 1.01624899e-01 2.51565874e-01 2.51565874e-01
      2.51565874e-01 1.08125202e-01 1.51410252e-01 9.05280709e-02
      6.67429119e-02 6.87648952e-02 2.51565874e-01 4.99495827e-02
      1.00862987e-01 2.08891392e-01 7.65681788e-02 7.22679719e-02
      3.14334035e-02 2.38213670e-02 2.36080140e-02 3.63683663e-02</_>
    <_>
      8.33729431e-02 2.49928623e-01 2.54235834e-01 7.56171644e-02
      5.21278456e-02 4.09996957e-02 4.80957255e-02 4.85370830e-02
      4.30659540e-02 1.33686647e-01 2.84225643e-01 2.84225643e-01
      1.63206279e-01 6.19293228e-02 3.17914076e-02 3.50857563e-02
      2.42067762e-02 3.15946676e-02 1.85639769e-01 2.84225643e-01
      2.84225643e-01 1.45444557e-01 1.96774766e-01 1.37863934e-01
      9.04950574e-02 1.07800819e-01 8.81131142e-02 1.48689970e-01
      2.84225643e-01 2.84225643e-01 2.84225643e-01 1.33116782e-01
      1.22554787e-01 1.19244471e-01 1.30939811e-01 4.09783572e-02
      1.52205050e-01 2.14031532e-01 2.67439157e-01 1.79933995e-01
      5.34033254e-02 2.02516466e-02 4.66253646e-02 7.18348697e-02
      3.84184308e-02 2.14468971e-01 2.25372046e-01 2.16555640e-01
      1.16431125e-01 5.42215779e-02 6.28459379e-02 2.67439157e-01
      2.67439157e-01 9.12150070e-02 8.07702616e-02 1.90710068e-01
      2.67439157e-01 2.63810873e-01 7.44386166e-02 4.04946432e-02
      6.62023649e-02 1.17635153e-01 4.70996276e-02 8.08758661e-02
      1.64003253e-01 2.51403898e-01 1.71879977e-01 7.84437209e-02
      3.83650847e-02 2.67439157e-01 2.67439157e-01 9.15898159e-02
      1.53135493e-01 1.15684733e-01 3.27926800e-02 4.51388359e-02
      7.53919631e-02 1.23736292e-01 2.77744204e-01 2.54002780e-01
      9.18896571e-02 2.24998996e-01 6.05939068e-02 2.11109910e-02
      1.26358584e-01 2.01134533e-01 1.57493904e-01 2.77744204e-01
      2.51611531e-01 1.54234290e-01 8.85296389e-02 4.49040867e-02
      2.51906700e-02 5.90766706e-02 4.45416421e-02 8.89165029e-02
      2.77744204e-01 2.77744204e-01 8.13905448e-02 2.25286692e-01
      5.05681373e-02 2.48077475e-02 9.26868916e-02 1.53118834e-01
      1.86974511e-01 2.77744204e-01 2.77744204e-01 1.61219388e-01
      9.82657149e-02 1.91499531e-01 1.93786860e-01 1.97891623e-01
      1.92537829e-01 2.12903082e-01 5.57874590e-02 6.99014440e-02
      6.19084127e-02 1.08047418e-01 1.43423155e-01 2.31910512e-01
      2.21826077e-01 1.53092682e-01 2.22520947e-01 1.40468046e-01
      1.86491996e-01 7.98551738e-02 5.96302375e-02 1.12630650e-01
      1.20815910e-01 2.23713040e-01 1.75266668e-01 2.31910512e-01
      1.32920414e-01 6.60276711e-02 5.89173138e-02 1.26386866e-01
      1.06498688e-01 2.12438941e-01 1.99342921e-01 2.31910512e-01
      2.31910512e-01 1.88344911e-01 2.24069417e-01 1.22561797e-01
      7.76349530e-02 2.21355796e-01 2.44916037e-01 2.00529426e-01
      1.34236678e-01 1.32027119e-01 1.07423015e-01 1.50646731e-01
      5.81460334e-02 4.18347940e-02 1.71275184e-01 2.31821105e-01
      1.45884007e-01 1.09819256e-01 3.43068019e-02 1.62887961e-01
      2.41301581e-01 5.92340045e-02 6.64225221e-02 1.56054661e-01
      2.44916037e-01 1.93346515e-01 2.44916037e-01 2.03155264e-01
      2.44916037e-01 2.44916037e-01 6.56101480e-02 5.47473133e-02
      1.38066590e-01 1.71142414e-01 1.30065665e-01 1.18570924e-01
      7.13840425e-02 2.40608826e-01 2.44916037e-01 6.85128123e-02
      4.56152521e-02 3.45188938e-02 3.71739119e-02 4.11447957e-02
      3.52615528e-02 3.33115868e-02 2.75860935e-01 2.75860935e-01
      6.77605346e-02 1.60368726e-01 4.67334911e-02 1.62414789e-01
      4.93968464e-02 3.10799405e-02 1.00692362e-01 2.75860935e-01
      2.75860935e-01 2.37793460e-01 1.05218843e-01 1.43607497e-01
      7.86952451e-02 7.31711313e-02 4.74650450e-02 4.03542779e-02
      2.05939591e-01 2.47136921e-01 7.13307559e-02 1.58929989e-01
      2.75860935e-01 2.75860935e-01 2.23523051e-01 2.33492069e-02
      5.72028980e-02 2.75860935e-01 2.51953661e-01 1.69315785e-01
      5.46578206e-02 6.39961883e-02 8.27948079e-02 1.05395049e-01
      1.35042474e-01 2.78305560e-01 2.78305560e-01 1.06976315e-01
      7.22398981e-02 1.39424011e-01 9.25183445e-02 1.42277613e-01
      1.28785893e-01 1.78988323e-01 2.20507756e-01 2.78305560e-01
      2.78305560e-01 1.37454525e-01 3.14140283e-02 2.86634080e-02
      2.76271142e-02 2.60794517e-02 5.41498885e-02 1.78698987e-01
      2.78305560e-01 1.96213022e-01 5.99273704e-02 1.16834551e-01
      8.82998332e-02 5.28299920e-02 1.12688802e-01 1.48531318e-01
      1.80833668e-01 2.78305560e-01 2.78305560e-01 2.42500857e-01
      7.11555183e-02 5.92441633e-02 7.10342228e-02 8.78632069e-02
      1.21208861e-01 1.12235561e-01 2.89169103e-01 2.89169103e-01
      9.71804485e-02 1.18251443e-01 1.42956614e-01 7.31488392e-02
      1.14977270e-01 6.62720129e-02 6.70607463e-02 2.89169103e-01
      2.89169103e-01 1.75205782e-01 9.64399427e-02 7.50044212e-02
      3.23373154e-02 8.35603178e-02 1.00251555e-01 6.18360601e-02
      2.06906110e-01 2.67904729e-01 2.00905353e-01 1.65748104e-01
      1.89504638e-01 8.05670843e-02 1.65514588e-01 7.29864165e-02
      6.70492873e-02 2.53952503e-01 2.89169103e-01 2.54968673e-01
      1.67801812e-01 2.51479566e-01 1.33635432e-01 1.34285122e-01
      4.71184775e-02 3.56006734e-02 1.55143276e-01 2.51479566e-01
      1.25716895e-01 1.67689130e-01 2.51479566e-01 2.51479566e-01
      2.22936541e-01 5.38241155e-02 4.95158061e-02 1.14267990e-01
      2.38065049e-01 1.14596829e-01 1.45375714e-01 2.51479566e-01
      1.60131112e-01 1.95964247e-01 5.28089516e-02 5.75742088e-02
      1.31720543e-01 2.51479566e-01 1.80940092e-01 1.23342417e-01
      2.51479566e-01 2.36827895e-01 1.34489775e-01 5.38606569e-02
      4.12121341e-02 7.44962171e-02 1.52402088e-01 1.31202534e-01</_>
    <_>
      1.88287422e-01 2.46670827e-01 2.32516155e-01 8.87469649e-02
      5.48577979e-02 2.67187487e-02 1.96277797e-02 2.41055693e-02
      1.09872013e-01 2.46670827e-01 1.68013543e-01 7.47635812e-02
      6.91232830e-02 1.39467552e-01 8.32778588e-02 9.01142135e-02
      1.43384025e-01 2.46670827e-01 2.46670827e-01 2.46670827e-01
      2.46670827e-01 1.72359124e-01 8.69488940e-02 7.86105692e-02
      8.32434744e-02 2.46670827e-01 2.46670827e-01 2.21817076e-01
      1.76100358e-01 1.00425698e-01 6.44334629e-02 5.67009598e-02
      7.08462819e-02 1.67905137e-01 2.46670827e-01 2.46670827e-01
      1.95467845e-01 7.35656321e-02 4.84962091e-02 5.37587106e-02
      1.36003181e-01 1.57568455e-01 2.01740131e-01 2.74019480e-01
      2.74019480e-01 1.36691406e-01 5.32168336e-02 3.66805755e-02
      1.89256202e-02 8.61158147e-02 1.98545620e-01 2.74019480e-01
      2.74019480e-01 2.74019480e-01 1.08813286e-01 8.66015330e-02
      6.46634251e-02 5.71178421e-02 8.08512494e-02 1.20572925e-01
      2.01237753e-01 2.05140069e-01 2.03051254e-01 1.06606051e-01
      7.36060962e-02 2.45132279e-02 6.57779500e-02 1.05629168e-01
      1.62757099e-01 2.74019480e-01 2.74019480e-01 1.94133610e-01
      2.91038193e-02 1.18099572e-02 6.99367281e-03 3.83816194e-03
      3.06117330e-02 6.22928068e-02 3.38642299e-01 3.38642299e-01
      1.57450855e-01 6.27919612e-03 9.91996145e-04 1.90292063e-04 0.
      3.33557860e-03 1.37471464e-02 3.38642299e-01 3.19272369e-01
      2.75414232e-02 5.05400114e-02 2.21647490e-02 6.50305999e-03
      2.38825139e-02 5.73922545e-02 7.90251940e-02 3.38642299e-01
      3.38642299e-01 8.74470323e-02 1.38908857e-02 1.46989978e-03
      2.54248921e-03 4.01970837e-03 7.93341473e-02 1.79224938e-01
      3.38642299e-01 3.38642299e-01 2.82238219e-02 1.55854717e-01
      1.85567155e-01 1.61361754e-01 1.49113297e-01 6.19270168e-02
      9.82678086e-02 9.40351412e-02 2.59725720e-01 2.63324469e-01
      1.39038444e-01 1.32872969e-01 5.42050414e-02 2.94173863e-02
      1.85433347e-02 5.49276732e-02 2.68081725e-01 2.68081725e-01
      2.68081725e-01 8.37449059e-02 6.96665570e-02 1.10540390e-01
      1.19128272e-01 5.29815368e-02 1.78253427e-01 2.68081725e-01
      2.68081725e-01 2.04314992e-01 4.81188037e-02 6.23392127e-02
      4.16382626e-02 3.71268466e-02 2.53982525e-02 8.42438713e-02
      2.68081725e-01 2.68081725e-01 2.28705406e-01 6.75268099e-02
      5.66593781e-02 2.02013701e-02 2.25880221e-02 2.29899399e-02
      5.54401018e-02 3.07191283e-01 3.07191283e-01 2.47394100e-01
      5.30417413e-02 4.20619994e-02 1.53040038e-02 4.14885730e-02
      5.37996329e-02 6.34590536e-02 2.13387117e-01 3.07191283e-01
      1.24305092e-01 2.77265515e-02 2.96756476e-02 2.21306365e-02
      3.01659293e-02 4.19042110e-02 1.03085347e-01 3.07191283e-01
      3.07191283e-01 2.36642316e-01 3.53034697e-02 6.10307716e-02
      5.25267944e-02 5.25182337e-02 7.79177919e-02 2.70729452e-01
      3.07191283e-01 3.07191283e-01 1.64742082e-01 5.75334430e-02
      2.92006060e-02 2.29191277e-02 3.33688706e-02 6.62723705e-02
      8.30903947e-02 2.90661126e-01 2.24841237e-01 7.72068650e-02
      5.04429564e-02 9.44642536e-03 2.43736710e-02 5.38895242e-02
      2.08787203e-01 2.90661126e-01 2.90661126e-01 2.73256898e-01
      7.01282322e-02 6.28645867e-02 7.49541521e-02 7.26933852e-02
      6.53149709e-02 6.60633594e-02 2.12227970e-01 2.90661126e-01
      1.85294762e-01 1.20271131e-01 9.13959891e-02 5.53674549e-02
      1.03493646e-01 1.90957695e-01 2.90661126e-01 2.90661126e-01
      2.90661126e-01 1.34657159e-01 9.34502408e-02 8.49814788e-02
      2.22328324e-02 4.10010666e-02 3.12175397e-02 7.78966621e-02
      1.96796194e-01 3.17190647e-01 3.17190647e-01 2.05976844e-01
      1.06388032e-01 1.14108482e-02 1.04445927e-02 2.29266156e-02
      8.17926303e-02 1.12326361e-01 3.17190647e-01 3.17190647e-01
      2.19206885e-01 6.86369762e-02 2.39850041e-02 1.60499532e-02
      1.26525098e-02 6.37243167e-02 9.40997377e-02 2.09797636e-01
      1.53364554e-01 8.78870487e-02 1.49139285e-01 2.89637484e-02
      9.97412112e-03 3.82713005e-02 1.45167708e-01 1.80866674e-01
      3.17190647e-01 3.17190647e-01 2.09338546e-01 5.15987799e-02
      3.04545518e-02 6.05508760e-02 1.05025262e-01 8.43620375e-02
      9.48370397e-02 2.53497899e-01 2.53497899e-01 1.50096342e-01
      5.68460897e-02 1.03668123e-01 1.31169036e-01 1.69676572e-01
      1.61001921e-01 2.53497899e-01 2.53497899e-01 2.21509442e-01
      1.12223290e-01 9.09566134e-02 3.71297486e-02 6.81170076e-02
      1.33324295e-01 1.49989635e-01 1.44764334e-01 2.32100829e-01
      2.53497899e-01 2.13847667e-01 8.82283524e-02 1.25871196e-01
      2.32030928e-01 2.37533569e-01 2.27437899e-01 1.76061258e-01
      1.90330893e-01 1.36326641e-01 1.58527702e-01 4.90414910e-02
      1.20530970e-01 1.21126659e-01 1.46433666e-01 1.54610351e-01
      2.50415564e-01 2.50415564e-01 1.05214320e-01 9.70738605e-02
      7.88521320e-02 1.54652491e-01 1.96514279e-01 2.50415564e-01
      2.30912298e-01 1.62288174e-01 1.60292014e-01 9.13363770e-02
      7.44000152e-02 7.05577135e-02 2.50415564e-01 2.50415564e-01
      2.36865655e-01 2.14611009e-01 1.21426672e-01 2.29488850e-01
      7.50360638e-02 9.41664129e-02 1.00067243e-01 2.50415564e-01
      2.50415564e-01 2.21596032e-01 1.10892512e-01 4.67942357e-02
      7.02625811e-02 5.13223000e-02 5.37568554e-02</_>
    <_>
      5.31681478e-02 2.51877189e-01 2.80857295e-01 1.80250823e-01
      6.84755892e-02 2.53849998e-02 9.81958024e-03 1.14796925e-02
      1.80772804e-02 1.02122664e-01 2.72244781e-01 2.80857295e-01
      2.08117038e-01 1.17621005e-01 5.24892211e-02 2.13500261e-02
      2.29992326e-02 3.16000171e-02 7.80618042e-02 1.34633929e-01
      2.80857295e-01 2.80857295e-01 2.08745733e-01 9.19767097e-02
      4.84505631e-02 2.62587145e-02 4.06534821e-02 7.10130408e-02
      2.19179586e-01 2.73918748e-01 2.22136557e-01 2.80857295e-01
      2.65813559e-01 1.20071337e-01 7.83340707e-02 4.57884222e-02
      1.65059239e-01 1.77596495e-01 1.96176037e-01 2.55973667e-01
      2.55973667e-01 1.02985337e-01 2.57229954e-02 1.65842623e-02
      7.58424252e-02 2.55973667e-01 1.31968558e-01 9.67266336e-02
      1.99233741e-01 2.55973667e-01 1.08104631e-01 4.17696461e-02
      4.20438871e-02 1.86603978e-01 2.68529896e-02 2.51707643e-01
      2.22474277e-01 2.48279542e-01 2.55973667e-01 2.55973667e-01
      1.19005799e-01 7.11838529e-02 1.26295704e-02 3.45492959e-02
      8.01466778e-02 9.43379700e-02 1.68637380e-01 2.55973667e-01
      2.49953404e-01 6.82724714e-02 2.93107834e-02 1.32969720e-02
      2.76920408e-01 6.25541285e-02 1.25029176e-01 9.24373642e-02
      1.75263867e-01 2.04765365e-01 1.59693941e-01 8.36251527e-02
      1.50184646e-01 7.82590806e-02 4.48936820e-02 1.25556007e-01
      1.10099740e-01 2.03941822e-01 2.78434902e-01 2.78434902e-01
      1.47439376e-01 9.76276323e-02 2.89116446e-02 1.14001678e-02
      6.53413907e-02 1.40252203e-01 2.78434902e-01 2.78434902e-01
      1.06826819e-01 2.03615837e-02 1.46487923e-02 6.62247315e-02
      7.04849660e-02 1.30938008e-01 2.05368683e-01 2.78434902e-01
      2.78434902e-01 2.60534465e-01 9.22482610e-02 9.32293460e-02
      7.79324248e-02 7.23849460e-02 1.42526016e-01 1.91124275e-01
      2.70993918e-01 1.72414556e-01 9.16744471e-02 6.40428662e-02
      5.23598269e-02 7.41750002e-02 1.21541776e-01 1.09035634e-01
      1.70840785e-01 2.70993918e-01 2.70993918e-01 2.03426465e-01
      1.62622347e-01 7.08732978e-02 6.36503622e-02 6.51884302e-02
      6.73755035e-02 8.72139111e-02 1.46013230e-01 2.70993918e-01
      2.59485483e-01 1.17563210e-01 8.18816051e-02 9.99211967e-02
      9.23776478e-02 4.32679206e-02 1.09794125e-01 2.70993918e-01
      2.70993918e-01 2.21446514e-01 2.70993918e-01 1.57446876e-01
      3.82899754e-02 1.02445252e-01 7.83426389e-02 1.55981809e-01
      2.73607194e-01 2.73607194e-01 1.93229109e-01 1.30114168e-01
      1.68476421e-02 1.71644557e-02 3.22960019e-02 3.11756413e-02
      9.63214859e-02 2.73607194e-01 2.73607194e-01 9.29188952e-02
      4.40721661e-02 1.98758882e-03 1.05234504e-01 6.83909655e-02
      3.22861895e-02 1.34333849e-01 2.73607194e-01 2.73607194e-01
      1.94324419e-01 2.73607194e-01 1.68754339e-01 6.61935434e-02
      2.94890516e-02 2.40597147e-02 1.10239282e-01 2.73607194e-01
      2.73607194e-01 1.88013881e-01 1.94879159e-01 1.09455995e-01
      1.09812524e-03 4.20128868e-04 1.37305595e-02 1.30183011e-01
      2.86309838e-01 2.84227163e-01 6.93182051e-02 7.82982353e-03
      5.24123898e-04 6.29071295e-02 4.09290381e-02 1.01248384e-01
      2.86309838e-01 2.86309838e-01 2.86309838e-01 1.82560444e-01
      2.72186287e-02 1.09818272e-01 2.99644265e-02 1.21319760e-02
      1.28721129e-02 1.16417192e-01 2.86309838e-01 2.06096843e-01
      1.16056249e-01 4.06632125e-02 2.09614821e-02 8.12333897e-02
      6.10929057e-02 8.70939642e-02 2.86309838e-01 2.86309838e-01
      2.86309838e-01 2.86309838e-01 3.15022580e-02 5.35389893e-02
      4.25827503e-02 5.38547300e-02 3.40798348e-02 3.67171317e-02
      4.30208407e-02 2.97487557e-01 2.97487557e-01 1.52740061e-01
      5.80095239e-02 5.67187332e-02 3.83835956e-02 1.43304719e-02
      3.35891396e-02 1.40221030e-01 2.29474574e-01 2.97487557e-01
      2.97487557e-01 1.28149614e-01 1.37696117e-01 1.20892599e-01
      1.51124373e-01 8.99909437e-02 5.07530011e-02 2.04943791e-01
      2.97487557e-01 2.67748654e-01 6.19366840e-02 9.51280072e-02
      3.98629047e-02 4.09851000e-02 2.62285694e-02 2.69197598e-02
      1.51569694e-01 2.97487557e-01 2.97487557e-01 1.60251006e-01
      7.63770938e-02 1.77542809e-02 1.55756017e-02 4.40248139e-02
      2.21176803e-01 2.42597535e-01 1.97190553e-01 2.42597535e-01
      1.69030488e-01 1.80983663e-01 5.41612282e-02 1.39220841e-02
      4.72438782e-02 2.42597535e-01 2.42597535e-01 2.03567386e-01
      2.24729508e-01 2.12010890e-01 9.01465267e-02 3.86744887e-02
      2.31610555e-02 1.91227738e-02 6.46864548e-02 1.33357152e-01
      2.05739334e-01 2.42597535e-01 1.66142285e-01 2.42597535e-01
      2.29222625e-01 5.31298220e-02 2.00395491e-02 1.36622220e-01
      2.29131341e-01 1.04463078e-01 2.13586360e-01 2.42597535e-01
      2.51738071e-01 1.15473554e-01 3.92011143e-02 4.38181050e-02
      2.25495383e-01 1.38091117e-01 8.63477737e-02 9.67771187e-02
      1.42244413e-01 2.51738071e-01 1.89432383e-01 1.53300375e-01
      1.41891733e-01 2.42222875e-01 2.09449708e-01 2.25874424e-01
      5.00798412e-02 6.40986860e-02 2.51738071e-01 2.51738071e-01
      1.59511477e-01 1.13920188e-02 5.04191071e-02 7.52965659e-02
      5.82933016e-02 1.27147034e-01 2.51738071e-01 2.51738071e-01
      2.51738071e-01 2.34633759e-01 3.08759958e-02 3.90522704e-02
      1.19204886e-01 2.22035512e-01 8.52791592e-02 9.35794637e-02</_>
    <_>
      2.19916459e-02 2.21146017e-01 3.22361380e-01 1.77480534e-01
      5.83514161e-02 1.10318707e-02 1.42471539e-02 1.49731264e-02
      2.01946348e-02 4.85316329e-02 3.22361380e-01 3.22361380e-01
      1.11995742e-01 8.00600499e-02 4.93466184e-02 4.57905382e-02
      4.65661474e-02 4.12724577e-02 5.34033589e-02 1.22774065e-01
      3.22361380e-01 3.22361380e-01 2.59048373e-01 4.56891470e-02
      2.56416164e-02 3.43907140e-02 4.45101298e-02 8.61457214e-02
      1.83720917e-01 3.22361380e-01 2.40963340e-01 1.85690090e-01
      1.54789284e-01 8.89579579e-02 2.89908275e-02 3.07150353e-02
      1.05157159e-01 1.56439722e-01 1.99490666e-01 2.01249421e-01
      1.66643992e-01 4.64469083e-02 2.45503243e-02 6.31954223e-02
      9.45526883e-02 2.68380851e-01 1.13667175e-01 1.18095785e-01
      2.68380851e-01 2.68380851e-01 4.56414223e-02 2.58274637e-02
      1.30243048e-01 2.68380851e-01 8.15574005e-02 1.35905147e-01
      1.59616739e-01 2.68380851e-01 2.68380851e-01 2.02665612e-01
      3.94806713e-02 1.48259681e-02 6.71837404e-02 1.39007136e-01
      1.24524072e-01 1.63694173e-01 2.68380851e-01 2.68380851e-01
      1.79055467e-01 2.75784470e-02 1.40517531e-02 1.50364012e-01
      2.98497736e-01 7.10903257e-02 7.33523741e-02 1.56403422e-01
      2.22268492e-01 5.30774891e-02 6.61299452e-02 1.04468897e-01
      2.98497736e-01 1.34948507e-01 4.58136909e-02 5.26405834e-02
      1.43541351e-01 2.14503929e-01 9.54450518e-02 1.13035351e-01
      6.33045062e-02 2.01350600e-01 1.30158082e-01 4.74371985e-02
      8.02974552e-02 2.42953345e-01 2.98497736e-01 2.05246016e-01
      4.44830917e-02 1.79026835e-02 1.49301991e-01 1.18617833e-01
      9.47461054e-02 1.13491021e-01 2.26115897e-01 2.98497736e-01
      2.84784317e-01 1.51317582e-01 9.14529711e-02 1.76851273e-01
      7.11005032e-02 4.51315306e-02 1.54737964e-01 2.65355527e-01
      2.65355527e-01 1.85194626e-01 7.42779970e-02 4.82186787e-02
      4.40850668e-02 8.37633833e-02 7.54313394e-02 1.27310365e-01
      1.78450778e-01 2.65355527e-01 2.65355527e-01 1.07487522e-01
      3.75735424e-02 4.21471968e-02 9.09931958e-02 6.54281005e-02
      4.75757159e-02 1.71490222e-01 2.65355527e-01 2.65355527e-01
      2.41150811e-01 1.61309302e-01 6.47024885e-02 9.97501686e-02
      1.20828070e-01 8.91157016e-02 1.19693607e-01 2.65355527e-01
      2.65355527e-01 1.97314247e-01 2.11383507e-01 1.42804459e-01
      3.13838720e-02 4.76694442e-02 1.17761813e-01 1.82932794e-01
      2.86060393e-01 2.86060393e-01 6.13743737e-02 1.28300041e-02
      6.38293698e-02 3.25753018e-02 4.24626172e-02 1.06072031e-01
      1.88813046e-01 2.86060393e-01 2.39709407e-01 4.46946658e-02
      2.55937967e-02 7.98422322e-02 4.38424610e-02 7.50577375e-02
      1.11453146e-01 1.59694344e-01 2.86060393e-01 2.86060393e-01
      2.15094924e-01 1.43207312e-01 1.28667891e-01 6.18214905e-02
      7.71270916e-02 8.40243325e-02 1.64895013e-01 2.86060393e-01
      2.86060393e-01 2.15174302e-01 1.23533249e-01 1.22831672e-01
      1.38368299e-02 1.24642588e-02 2.51529962e-02 1.27145290e-01
      3.48737836e-01 1.52491510e-01 1.64066330e-02 1.52500244e-02
      1.83253344e-02 7.14445412e-02 7.82894343e-02 9.94962081e-02
      2.23092467e-01 3.48737836e-01 2.00974688e-01 4.76649925e-02
      6.76012412e-02 8.59065577e-02 2.42933687e-02 4.15335223e-02
      2.56844759e-02 1.58661276e-01 3.48737836e-01 2.24488407e-01
      7.72950277e-02 3.41103263e-02 3.29690613e-02 6.23202063e-02
      7.16822520e-02 1.34299457e-01 3.48737836e-01 3.48737836e-01
      2.99633592e-01 1.03496663e-01 7.34044462e-02 4.43377495e-02
      1.14794381e-01 9.45319161e-02 4.09336537e-02 9.73101854e-02
      1.99306726e-01 2.85960883e-01 2.98359871e-01 2.14141786e-01
      8.75944421e-02 7.31822178e-02 5.39724417e-02 2.43505500e-02
      4.59468961e-02 1.56690434e-01 1.89078525e-01 2.98359871e-01
      2.98359871e-01 1.13037445e-01 1.37603909e-01 1.63233191e-01
      1.73861936e-01 7.52016231e-02 7.63322785e-02 9.90606174e-02
      2.57038862e-01 1.97627917e-01 1.27194524e-01 6.44321814e-02
      3.01865209e-02 2.95859780e-02 3.01146396e-02 5.16269170e-02
      1.21416740e-01 2.98359871e-01 2.98359871e-01 1.30108774e-01
      2.93679107e-02 3.70290428e-02 2.87672151e-02 4.63490188e-02
      2.13319778e-01 2.57167250e-01 2.49301136e-01 1.76473469e-01
      1.24804184e-01 1.82242170e-01 5.82008287e-02 2.80603152e-02
      6.79807067e-02 2.57167250e-01 2.57167250e-01 2.47553885e-01
      1.39965683e-01 2.57167250e-01 6.15149401e-02 1.57227330e-02
      2.09852289e-02 1.72937363e-02 5.43088019e-02 1.68225244e-01
      2.46237800e-01 2.57167250e-01 1.37515441e-01 2.57167250e-01
      7.84920976e-02 7.38540441e-02 4.04890254e-02 1.10011145e-01
      2.41667777e-01 1.61598548e-01 1.63035408e-01 2.57167250e-01
      1.71778113e-01 6.56359643e-02 5.89167960e-02 6.79385513e-02
      2.46812299e-01 2.56242007e-01 7.86652341e-02 8.01734775e-02
      2.49440387e-01 8.54947343e-02 8.95732865e-02 1.80494606e-01
      2.14645490e-01 2.63696462e-01 2.63696462e-01 7.15271011e-02
      7.45417252e-02 1.58612132e-01 2.63696462e-01 7.87258968e-02
      1.13205001e-01 5.47175966e-02 8.24082792e-02 1.52147606e-01
      7.70273432e-02 1.53464645e-01 2.63696462e-01 1.63890406e-01
      6.97432905e-02 1.50879666e-01 8.62947181e-02 1.72932446e-01
      2.63696462e-01 9.02570114e-02 1.60002723e-01 2.63696462e-01</_>
    <_>
      8.16159397e-02 9.34816375e-02 1.73863158e-01 1.76413372e-01
      1.43480852e-01 8.54826942e-02 6.34141862e-02 1.23781420e-01
      2.23963901e-01 2.54854977e-01 5.01344204e-02 1.17530189e-01
      1.21561378e-01 1.22413479e-01 7.99488500e-02 8.41477141e-02
      1.66942284e-01 3.09127867e-01 3.38109285e-02 5.94889447e-02
      1.44228742e-01 1.98065937e-01 3.09127867e-01 2.21210018e-01
      6.34326339e-02 8.79226625e-02 1.49529353e-01 2.97864437e-01
      7.39814853e-03 1.05230704e-01 7.98061937e-02 2.96741426e-01
      1.62834361e-01 6.33044466e-02 1.05554841e-01 3.09127867e-01
      3.00573736e-01 5.04965298e-02 3.49906385e-02 6.36805072e-02
      1.05547816e-01 3.65995727e-02 4.62605543e-02 1.13532551e-01
      3.37465703e-01 3.37465703e-01 1.06822111e-01 3.78124453e-02
      2.74228957e-02 1.13445126e-01 4.31901664e-02 5.15120812e-02
      1.56253651e-01 3.37465703e-01 3.37465703e-01 9.23599117e-03
      3.21231112e-02 2.54108626e-02 7.21656233e-02 3.44974175e-02
      1.51585694e-02 5.38852587e-02 3.37465703e-01 3.37465703e-01
      4.53808717e-02 9.25081503e-03 1.38199534e-02 2.83458699e-02
      2.67403815e-02 1.89365949e-02 5.34687750e-02 3.37465703e-01
      2.69692183e-01 1.46534503e-01 2.72733662e-02 2.16823127e-02
      5.33339009e-02 5.30982465e-02 1.41190827e-01 2.13084295e-01
      2.69692183e-01 2.07582518e-01 1.44236684e-01 8.15467685e-02
      5.31065725e-02 6.96989894e-02 1.08291902e-01 1.94683269e-01
      1.91933125e-01 2.69692183e-01 2.69692183e-01 1.02590099e-01
      4.06297930e-02 6.66100085e-02 1.17749088e-01 1.17193349e-01
      1.10469118e-01 9.90030020e-02 2.69692183e-01 1.37334436e-01
      1.21847376e-01 8.18073601e-02 1.68068156e-01 2.44447023e-01
      2.69692183e-01 1.69060841e-01 1.36554003e-01 2.46323720e-01
      2.55686678e-02 1.84189957e-02 4.84925956e-02 9.34826136e-02
      2.60085940e-01 1.97928190e-01 1.03933305e-01 8.80603194e-02
      1.13936193e-01 9.80038717e-02 3.60523798e-02 5.01818135e-02
      8.93653929e-02 2.60085940e-01 1.41143605e-01 1.41912237e-01
      1.13393836e-01 2.24265605e-01 7.27401897e-02 7.02040642e-02
      8.07348341e-02 7.01327175e-02 2.14824140e-01 1.65291563e-01
      2.03035116e-01 2.47774571e-01 2.60085940e-01 1.68715447e-01
      1.22712299e-01 7.67548978e-02 1.38821334e-01 2.54252672e-01
      2.30303288e-01 2.60085940e-01 2.60085940e-01 2.60085940e-01
      1.59519687e-01 4.83449623e-02 5.41759767e-02 8.61910433e-02
      1.56885386e-01 7.73876607e-02 8.05822387e-02 6.84494227e-02
      2.55877733e-01 1.94667816e-01 2.80285738e-02 3.17627378e-02
      5.30990213e-02 6.61821961e-02 5.69257624e-02 2.77270433e-02
      4.04367708e-02 2.70374179e-01 2.78379828e-01 2.28888601e-01
      1.34392157e-01 1.21655926e-01 1.59813002e-01 1.77258193e-01
      2.78379828e-01 2.49658361e-01 2.78379828e-01 2.78379828e-01
      2.78379828e-01 1.18340835e-01 7.38008171e-02 4.32188138e-02
      3.67147736e-02 9.19481516e-02 1.59828827e-01 2.78379828e-01
      8.73775110e-02 2.60799974e-02 5.08308336e-02 1.12419099e-01
      1.57864973e-01 1.55201897e-01 1.47660419e-01 4.87102307e-02
      1.26230761e-01 1.14580333e-01 1.00022234e-01 7.52193779e-02
      2.10199445e-01 2.49137610e-01 2.49137610e-01 1.79870650e-01
      6.44980222e-02 8.10504928e-02 2.01908901e-01 2.18079150e-01
      2.49137610e-01 1.78627878e-01 7.00199455e-02 7.68389031e-02
      1.30257219e-01 1.28891602e-01 2.49137610e-01 2.49137610e-01
      2.49137610e-01 2.49137610e-01 2.49137610e-01 1.86620623e-01
      1.77941844e-01 1.53484628e-01 6.49641156e-02 1.15546361e-01
      9.03211311e-02 6.15035780e-02 5.70202917e-02 8.32380801e-02
      1.31761461e-01 1.65980056e-01 2.65250772e-01 2.57332027e-01
      1.49937704e-01 2.08451480e-01 6.78713471e-02 5.93937859e-02
      8.44320953e-02 1.33115262e-01 1.75387353e-01 2.77821481e-01
      2.77821481e-01 2.35132977e-01 4.85570170e-02 1.20658083e-02
      5.84427780e-03 5.52744158e-02 1.00093454e-01 2.42463753e-01
      2.77821481e-01 2.77821481e-01 8.25152025e-02 8.25601667e-02
      1.91596933e-02 1.90687180e-02 4.39139456e-02 9.02783424e-02
      1.76845923e-01 2.77821481e-01 2.77821481e-01 1.24230899e-01
      3.03377241e-01 1.49078816e-01 7.13998079e-02 4.84412499e-02
      7.41114318e-02 1.07835412e-01 2.72477031e-01 2.08576128e-01
      3.03377241e-01 3.03377241e-01 3.03377241e-01 9.59147438e-02
      3.42603028e-02 6.74520852e-03 2.69169435e-02 9.59307849e-02
      1.42532259e-01 3.03377241e-01 1.92952365e-01 4.01220061e-02
      2.08773967e-02 5.90072721e-02 7.03413934e-02 1.23048820e-01
      1.42477632e-01 1.60222277e-01 1.75413266e-01 2.67359316e-01
      1.32525012e-01 8.27749446e-02 6.80578202e-02 5.10151573e-02
      1.08794250e-01 7.52598122e-02 9.17275026e-02 2.50895292e-01
      2.79683679e-01 2.90465891e-01 2.90465891e-01 1.04301147e-01
      8.91628023e-03 2.47474052e-02 5.61371706e-02 1.04034699e-01
      2.90465891e-01 2.13019237e-01 2.90465891e-01 2.90465891e-01
      1.46666780e-01 8.65628272e-02 8.85130018e-02 5.62947318e-02
      4.61002998e-02 1.24229275e-01 1.58270925e-01 1.68230042e-01
      2.48966590e-01 1.24651335e-01 5.48789725e-02 5.70319556e-02
      3.38869393e-02 3.52352485e-02 1.15869015e-01 1.24984294e-01
      2.90465891e-01 2.90465891e-01 1.28770307e-01 9.77927670e-02
      3.89349721e-02 1.98329650e-02 2.88611501e-02 4.82828990e-02</_>
    <_>
      1.35016590e-01 2.34140381e-01 2.22843334e-01 6.10148199e-02
      1.09264448e-01 4.49422151e-02 1.01529457e-01 9.59078223e-02
      7.63553828e-02 2.86068171e-01 2.86068171e-01 2.86068171e-01
      5.63105382e-02 1.45412862e-01 4.83777672e-02 1.11325867e-01
      6.27516657e-02 1.11483850e-01 2.38826290e-01 2.86068171e-01
      2.86068171e-01 1.10001817e-01 1.38889223e-01 7.45941699e-02
      7.46105164e-02 7.22850487e-02 6.77552521e-02 2.86068171e-01
      2.86068171e-01 2.86068171e-01 5.43099754e-02 5.56705557e-02
      2.11399831e-02 5.10552302e-02 2.77006421e-02 4.55165394e-02
      2.60034412e-01 2.60034412e-01 2.60034412e-01 4.54664677e-02
      8.45594406e-02 3.05266399e-02 8.13349038e-02 6.17075674e-02
      1.28776252e-01 1.64753303e-01 2.57206917e-01 2.60034412e-01
      3.29957195e-02 1.12387858e-01 2.04473600e-01 2.60034412e-01
      1.70606345e-01 1.27986848e-01 2.35635579e-01 2.60034412e-01
      2.60034412e-01 3.47175710e-02 3.47888358e-02 3.71966213e-02
      4.80948873e-02 7.41825774e-02 6.21010624e-02 8.77877101e-02
      1.51706278e-01 1.44718498e-01 2.16979757e-02 7.35785142e-02
      2.07236975e-01 2.43993178e-01 2.02737525e-01 1.43097624e-01
      4.50154096e-02 8.15363005e-02 9.11202505e-02 3.62308249e-02
      8.12569633e-02 2.68177867e-01 2.68177867e-01 2.05862656e-01
      6.56490549e-02 2.16384865e-02 9.66646709e-03 2.38798372e-02
      4.37059067e-02 6.43228292e-02 1.86034456e-01 2.68177867e-01
      1.94580972e-01 2.99955755e-02 3.01165655e-02 1.48957670e-01
      2.06812382e-01 6.98034614e-02 1.29662544e-01 2.68177867e-01
      2.68177867e-01 1.97731569e-01 7.20655099e-02 3.46265659e-02
      1.61491901e-01 2.16158226e-01 1.45946845e-01 2.11551473e-01
      2.61576653e-01 2.68177867e-01 2.68177867e-01 3.78133319e-02
      1.87637419e-01 2.72579461e-01 1.84205204e-01 8.57585818e-02
      1.18553005e-01 1.62572384e-01 2.35279158e-01 6.33006692e-02
      4.79921773e-02 2.34516785e-01 2.72579461e-01 2.11708009e-01
      6.10933192e-02 3.24452631e-02 7.03704357e-02 1.09357163e-01
      5.84936365e-02 3.98748815e-02 9.90111530e-02 7.70412758e-02
      2.87715327e-02 4.94145304e-02 9.63831171e-02 2.72579461e-01
      2.72579461e-01 1.26168773e-01 1.04962528e-01 2.72579461e-01
      2.72579461e-01 7.15882704e-02 4.68110405e-02 6.62153363e-02
      1.25422642e-01 2.72579461e-01 1.80681452e-01 2.38111943e-01
      1.47458240e-01 2.92046607e-01 9.52103436e-02 4.41828705e-02
      4.23917100e-02 8.37591514e-02 1.06994845e-01 8.53115469e-02
      4.89548370e-02 8.58901069e-02 1.82732821e-01 1.51309878e-01
      6.75038621e-02 6.80459663e-02 1.33883610e-01 1.48143589e-01
      1.67146400e-01 1.22829758e-01 3.02970767e-01 3.02970767e-01
      1.93904772e-01 5.68713807e-02 1.04678214e-01 1.06282122e-01
      2.19110191e-01 2.08897933e-01 2.51876950e-01 2.38378003e-01
      3.02970767e-01 3.02970767e-01 1.26779348e-01 8.64338130e-02
      7.25523904e-02 7.37027004e-02 9.40875113e-02 8.93348902e-02
      6.47230372e-02 2.35171616e-01 2.58410841e-01 1.54763207e-01
      1.57509223e-01 1.77780762e-01 1.59221545e-01 1.07803956e-01
      7.17131346e-02 5.66919893e-02 2.02673540e-01 2.58410841e-01
      1.83616489e-01 2.43290111e-01 2.15650067e-01 1.92113444e-01
      1.71300516e-01 5.43224774e-02 1.62422031e-01 2.58410841e-01
      2.58410841e-01 1.73052773e-01 9.87791494e-02 9.24340487e-02
      5.25944233e-02 4.61454950e-02 2.98835374e-02 1.09704703e-01
      1.74706459e-01 2.21930459e-01 2.05288559e-01 1.73469663e-01
      1.57112136e-01 1.08741999e-01 1.11289985e-01 4.55411747e-02
      9.78176966e-02 7.36504719e-02 1.92652643e-02 5.54425903e-02
      9.09495726e-02 2.55638033e-01 2.55638033e-01 1.53500870e-01
      1.70375913e-01 2.55638033e-01 2.21771926e-01 5.85484244e-02
      2.18321569e-02 5.53045496e-02 9.66719985e-02 2.48395279e-01
      1.83043927e-01 2.55638033e-01 9.18950513e-02 7.44417831e-02
      4.01683524e-02 7.34346360e-02 1.33485124e-01 2.50579923e-01
      2.55638033e-01 2.55638033e-01 1.87148839e-01 1.30681336e-01
      3.99536677e-02 4.33503538e-02 2.73003019e-02 9.41866562e-02
      1.33156314e-01 2.55638033e-01 2.55638033e-01 2.23866507e-01
      2.79980659e-01 2.79980659e-01 1.91750437e-01 3.74567173e-02
      9.72197056e-02 6.61155134e-02 1.33492529e-01 2.23627940e-01
      2.79980659e-01 2.05555350e-01 2.79980659e-01 2.79980659e-01
      8.03528875e-02 6.44729212e-02 3.23072970e-02 4.92838211e-02
      9.80684906e-02 1.49486125e-01 1.71739489e-01 1.06353953e-01
      7.03167617e-02 4.27699685e-02 8.61532837e-02 7.47897848e-02
      2.03012615e-01 2.26377010e-01 2.31221348e-01 2.59862423e-01
      2.18860522e-01 1.07969649e-01 5.44614904e-02 3.65107507e-02
      2.97145043e-02 7.56123811e-02 1.32484943e-01 1.87278524e-01
      1.37404606e-01 2.90565461e-01 2.90565461e-01 1.27070487e-01
      4.31099907e-02 4.77532484e-02 4.38740961e-02 5.19737080e-02
      5.36008067e-02 1.53127506e-01 2.90565461e-01 2.90565461e-01
      2.67767966e-01 9.51505750e-02 1.31560728e-01 1.23781852e-01
      1.14243127e-01 5.15582673e-02 2.17788488e-01 2.90565461e-01
      2.26625800e-01 8.23537558e-02 3.24328728e-02 5.44194430e-02
      5.88904321e-02 7.09709376e-02 8.43215361e-02 1.37009576e-01
      2.90565461e-01 2.90565461e-01 2.20547110e-01 3.86540927e-02
      6.82422370e-02 5.76702245e-02 5.29698357e-02 4.46662009e-02</_>
    <_>
      1.86732471e-01 1.68540582e-01 2.01615870e-01 1.03077792e-01
      1.07661001e-01 6.12246729e-02 2.51326337e-02 6.12876080e-02
      6.69151396e-02 2.61279106e-01 3.12120110e-01 3.12120110e-01
      1.44865707e-01 1.37342334e-01 4.14181724e-02 7.56063908e-02
      7.18636736e-02 7.19300508e-02 1.72118932e-01 3.12120110e-01
      3.12120110e-01 1.19701125e-01 1.28293261e-01 1.20503135e-01
      4.33891192e-02 5.58891185e-02 1.02135859e-01 1.72727615e-01
      3.12120110e-01 3.12120110e-01 1.12438448e-01 9.24633443e-02
      4.58583012e-02 2.69699357e-02 3.28796022e-02 4.91762124e-02
      1.51131496e-01 2.19183058e-01 2.79179007e-01 1.96325213e-01
      1.21325485e-01 3.74791883e-02 2.50119925e-01 1.40342757e-01
      4.09754552e-02 5.96455485e-02 7.67001584e-02 1.49619490e-01
      1.18294619e-01 1.19618826e-01 1.26778111e-01 2.79179007e-01
      2.79179007e-01 5.76248728e-02 1.28342703e-01 2.57750064e-01
      2.79179007e-01 9.45603549e-02 4.40624692e-02 4.69054803e-02
      1.52632996e-01 7.53395855e-02 7.25223124e-02 6.63759708e-02
      6.59694970e-02 2.26158887e-01 1.30095616e-01 9.20413360e-02
      1.79168805e-01 2.79179007e-01 2.36790612e-01 1.21665210e-01
      4.69133668e-02 2.48263255e-02 8.55574757e-02 6.60205930e-02
      1.02691434e-01 1.13047436e-01 2.97192812e-01 2.97192812e-01
      5.90788946e-02 2.28869710e-02 2.59199031e-02 3.47945988e-02
      3.37668657e-02 5.75256422e-02 5.11539839e-02 2.33323455e-01
      1.24792904e-01 3.92144956e-02 3.17302980e-02 6.02867082e-02
      2.97192812e-01 2.68419445e-01 1.67500198e-01 2.58001804e-01
      2.97192812e-01 2.63069153e-01 6.90022931e-02 3.72807533e-02
      1.13796249e-01 1.78743124e-01 1.38469785e-01 1.49865210e-01
      2.06284076e-01 2.97192812e-01 2.06070662e-01 1.21897496e-01
      6.17866963e-02 2.93237686e-01 2.93237686e-01 1.07270479e-01
      8.77854824e-02 9.73621830e-02 1.02164611e-01 5.08592688e-02
      3.25887464e-02 6.52495995e-02 2.93237686e-01 2.93237686e-01
      6.67896196e-02 1.72062125e-02 2.40875240e-02 6.06563613e-02
      6.12666458e-02 2.79979929e-02 5.26773669e-02 1.88870430e-01
      1.96499288e-01 5.93156032e-02 4.75347713e-02 1.65391937e-01
      2.93237686e-01 2.93237686e-01 3.63355912e-02 1.31104767e-01
      2.93237686e-01 2.35246003e-01 5.93281724e-02 3.48046236e-02
      4.53861132e-02 2.46686280e-01 2.72885919e-01 6.77561611e-02
      8.20186660e-02 1.86075121e-01 2.24496558e-01 4.03460748e-02
      3.56582366e-02 5.24195656e-02 1.16014935e-01 8.91755745e-02
      7.99098685e-02 8.84043500e-02 1.19648136e-01 2.98947603e-01
      1.62298590e-01 1.15202032e-01 1.98920965e-01 1.54215485e-01
      1.02705993e-01 1.02203287e-01 2.40828097e-01 2.98947603e-01
      2.98947603e-01 8.88218805e-02 8.66438150e-02 8.00950080e-02
      1.04976416e-01 1.54840305e-01 1.01244248e-01 1.98570818e-01
      2.98947603e-01 2.98947603e-01 2.81832963e-01 1.39719203e-01
      9.52906758e-02 3.66829000e-02 5.02215624e-02 4.99529243e-02
      6.00590482e-02 1.16939560e-01 2.65638828e-01 2.65638828e-01
      1.51173383e-01 2.65638828e-01 1.45443916e-01 9.74086672e-02
      5.84942102e-02 6.03651702e-02 1.23426273e-01 1.89396203e-01
      1.61042958e-01 1.58152416e-01 2.37940997e-01 2.31871516e-01
      1.19139776e-01 1.20335139e-01 1.21157683e-01 2.16703013e-01
      2.65638828e-01 2.55907476e-01 9.84151885e-02 1.04127079e-01
      6.06840812e-02 4.95866947e-02 2.57131346e-02 1.02906272e-01
      1.76887169e-01 2.24120855e-01 2.33933836e-01 1.35116413e-01
      1.78709149e-01 1.78145751e-01 9.15525183e-02 6.73446059e-02
      4.57560048e-02 3.73156555e-02 2.31490247e-02 1.47602707e-02
      7.12842569e-02 1.85506225e-01 2.70768434e-01 2.70768434e-01
      8.22701380e-02 1.66033670e-01 2.70768434e-01 1.52942166e-01
      2.55514830e-02 5.91707043e-02 6.53524324e-02 2.53774464e-01
      2.70768434e-01 1.43343464e-01 7.62997568e-02 7.56897405e-02
      2.28783358e-02 5.29532470e-02 1.52368158e-01 2.04420760e-01
      2.70768434e-01 1.59589097e-01 1.16233416e-01 2.03156218e-01
      1.30427644e-01 5.99355027e-02 4.59632315e-02 1.23832621e-01
      1.48386866e-01 2.63754696e-01 2.69966990e-01 2.70611286e-01
      2.79589742e-01 2.79589742e-01 2.79589742e-01 5.30381277e-02
      4.21222076e-02 5.74901067e-02 4.90449704e-02 1.68731928e-01
      1.71840236e-01 2.17767358e-01 2.79589742e-01 2.79589742e-01
      1.51029155e-01 4.56894226e-02 4.72232811e-02 1.28262658e-02
      5.44736125e-02 7.71252289e-02 2.62957931e-01 1.55231372e-01
      6.62307590e-02 1.80913359e-02 4.32153828e-02 6.33543581e-02
      1.17382407e-01 2.13980272e-01 2.79589742e-01 2.79589742e-01
      2.79589742e-01 9.78011712e-02 3.04362308e-02 2.80318372e-02
      2.68833674e-02 4.52698506e-02 7.99916461e-02 1.89900503e-01
      1.39298260e-01 2.20887631e-01 2.91304171e-01 1.89960167e-01
      5.02659082e-02 4.54625748e-02 3.72000858e-02 2.70012878e-02
      4.92409505e-02 1.41242430e-01 2.89985806e-01 2.91304171e-01
      2.91304171e-01 1.17637403e-01 9.91186798e-02 1.08485706e-01
      5.69521226e-02 8.50302577e-02 2.11981624e-01 2.91304171e-01
      2.85125464e-01 1.14360236e-01 5.45667894e-02 2.47685276e-02
      2.29631308e-02 2.96725333e-02 6.47952110e-02 8.34553316e-02
      2.91304171e-01 2.91304171e-01 2.38485739e-01 9.77672115e-02
      2.72794683e-02 1.70296766e-02 1.04862880e-02 3.91270630e-02</_>
    <_>
      3.47693339e-02 1.15714520e-01 2.54764169e-01 7.03443810e-02
      3.19511704e-02 2.48128083e-02 1.51482094e-02 1.90105569e-02
      3.78471352e-02 1.26743317e-01 2.94573069e-01 3.16657037e-01
      5.72249331e-02 2.88121644e-02 2.84908060e-02 1.15083549e-02
      3.19900364e-02 6.27303645e-02 1.54302046e-01 3.16657037e-01
      3.16657037e-01 2.46570721e-01 4.89521809e-02 4.05916683e-02
      6.06676601e-02 6.19027913e-02 7.85215721e-02 3.16657037e-01
      3.16657037e-01 3.16657037e-01 9.77522656e-02 1.81421023e-02
      3.27490307e-02 1.11576483e-01 2.48746946e-01 8.14840868e-02
      2.14083567e-01 2.62912571e-01 2.10311905e-01 4.31710146e-02
      2.10714731e-02 1.55403484e-02 2.19922215e-02 4.46613729e-02
      1.28739312e-01 1.73503101e-01 1.33611515e-01 5.36184981e-02
      1.94522496e-02 3.06528937e-02 1.73510592e-02 3.68024297e-02
      6.94330782e-02 2.35955864e-01 2.77945518e-01 2.77945518e-01
      2.32032046e-01 3.56824510e-02 2.41529513e-02 2.46304944e-02
      2.69772053e-01 2.77945518e-01 1.44989476e-01 2.77945518e-01
      1.59171611e-01 9.26566571e-02 2.60994155e-02 3.37562822e-02
      3.47997174e-02 2.54524469e-01 2.77945518e-01 2.53042430e-01
      1.55796513e-01 5.53865395e-02 2.47416273e-02 1.77034568e-02
      5.51646538e-02 7.13835880e-02 1.45103499e-01 2.15341553e-01
      2.92328417e-01 1.30191535e-01 2.85558850e-02 1.84060726e-02
      1.13699054e-02 6.45444840e-02 1.11350104e-01 2.92328417e-01
      2.92328417e-01 2.92328417e-01 2.47671038e-01 1.27518341e-01
      5.37711382e-02 2.93150079e-02 3.11053228e-02 1.22244336e-01
      2.92328417e-01 2.92328417e-01 2.14256823e-01 9.69748646e-02
      5.14544398e-02 3.64773944e-02 2.40644664e-02 5.06023131e-02
      1.88327402e-01 2.92328417e-01 2.29052082e-01 1.12400830e-01
      1.63351640e-01 2.84026384e-01 2.84026384e-01 1.42003760e-01
      2.41238587e-02 2.49421876e-02 7.71014467e-02 1.15673400e-01
      3.97555120e-02 1.68074474e-01 2.84026384e-01 2.84026384e-01
      5.29077202e-02 6.71402831e-03 2.15471573e-02 1.35950357e-01
      2.01121494e-01 5.43776341e-02 1.18941337e-01 1.55371845e-01
      2.58618295e-01 1.19725883e-01 4.81736287e-02 8.56333226e-02
      2.84026384e-01 2.84026384e-01 5.77758402e-02 1.08907923e-01
      1.22622326e-01 1.19023621e-01 3.54387127e-02 4.40127179e-02
      6.18733577e-02 2.84026384e-01 2.84026384e-01 9.38432589e-02
      2.13678017e-01 2.06217930e-01 1.33863851e-01 1.92620140e-02
      1.14856008e-02 2.17952002e-02 2.58647799e-01 2.80264288e-01
      1.23690471e-01 2.80264288e-01 1.54909149e-01 9.56459418e-02
      1.16392430e-02 2.29448583e-02 6.11179546e-02 2.80264288e-01
      2.80264288e-01 2.59624034e-01 1.04567610e-01 8.91621783e-02
      4.04860415e-02 1.80388130e-02 3.65361497e-02 3.18311155e-02
      2.80264288e-01 2.80264288e-01 9.28289071e-02 1.30916178e-01
      8.33335146e-02 4.71488312e-02 1.15995202e-02 2.73796842e-02
      6.20182864e-02 2.80264288e-01 2.80264288e-01 1.08337462e-01
      1.29491240e-01 5.52466996e-02 3.32167596e-02 1.48946783e-02
      2.56226603e-02 1.32360131e-01 3.12056512e-01 3.12056512e-01
      1.32144898e-01 2.63387896e-02 2.71725431e-02 1.70977022e-02
      2.05618404e-02 2.50383262e-02 8.93945917e-02 2.89478332e-01
      3.12056512e-01 4.15680520e-02 4.89121452e-02 4.83079515e-02
      3.94650623e-02 4.14418243e-02 5.91558479e-02 1.45307705e-01
      3.12056512e-01 3.12056512e-01 8.11182112e-02 3.54826562e-02
      7.45388865e-02 9.00260508e-02 1.03765853e-01 2.08110735e-01
      2.25625187e-01 3.12056512e-01 3.12056512e-01 5.52606620e-02
      4.59331423e-02 2.85016783e-02 5.84902987e-02 7.20804110e-02
      7.65611902e-02 1.79201454e-01 3.17261279e-01 3.17261279e-01
      8.99655744e-02 8.94860104e-02 3.65763791e-02 3.22595350e-02
      4.57664691e-02 1.15503572e-01 1.88748181e-01 3.17261279e-01
      3.17261279e-01 1.65056810e-01 2.95916945e-02 7.35782087e-02
      1.30602956e-01 8.28025192e-02 1.31310508e-01 1.02252625e-01
      1.63824737e-01 9.23220962e-02 5.52001782e-02 5.26330657e-02
      1.01951815e-01 1.55020267e-01 1.14767097e-01 1.55442342e-01
      1.65658936e-01 3.17261279e-01 3.17261279e-01 2.19818890e-01
      3.42074484e-02 1.83793437e-02 7.27550639e-03 1.29161533e-02
      4.89972234e-02 6.68646172e-02 3.41737092e-01 3.41737092e-01
      6.34079278e-02 1.75317898e-02 1.74910389e-02 1.04873199e-02
      6.57038577e-03 1.31676756e-02 3.70531864e-02 3.41737092e-01
      2.33119801e-01 2.76200827e-02 2.83262841e-02 3.30750272e-02
      3.32616493e-02 2.42684148e-02 3.76409814e-02 9.54503790e-02
      3.41737092e-01 3.41737092e-01 2.06542775e-01 5.18978573e-02
      1.09833561e-01 6.03455976e-02 2.09726933e-02 3.11969128e-02
      1.50356337e-01 3.41737092e-01 3.41737092e-01 9.92868319e-02
      3.83588485e-02 3.93363349e-02 4.53438349e-02 4.11603488e-02
      5.90207577e-02 1.02922089e-01 2.31706262e-01 1.67250007e-01
      4.07195278e-02 5.33162355e-02 7.96819180e-02 1.68909401e-01
      1.36450619e-01 2.63171285e-01 2.63171285e-01 2.63171285e-01
      2.00408846e-01 5.88052608e-02 1.13015227e-01 2.00000942e-01
      2.33671144e-01 8.26638043e-02 8.18188637e-02 1.33896917e-01
      2.46687144e-01 9.41645578e-02 3.20659243e-02 1.95802793e-01
      2.63171285e-01 2.63171285e-01 2.01826304e-01 1.99425250e-01
      1.87222630e-01 2.63171285e-01 7.89177492e-02 8.93567130e-02</_>
    <_>
      5.53179905e-02 2.13941604e-01 2.50393033e-01 8.27378854e-02
      4.59688082e-02 2.55705696e-02 8.60149786e-03 2.12539695e-02
      2.65102275e-02 1.15743309e-01 3.29048157e-01 3.29048157e-01
      1.76575243e-01 7.36768767e-02 2.19575353e-02 9.12614726e-03
      2.20507663e-02 3.96735296e-02 9.14846212e-02 3.29048157e-01
      3.29048157e-01 2.75284946e-01 1.27781138e-01 6.21735267e-02
      1.22912880e-02 1.56463291e-02 2.69734543e-02 1.74323723e-01
      3.29048157e-01 3.29048157e-01 1.38875201e-01 7.19872639e-02
      4.84683178e-02 3.04932054e-02 5.53903617e-02 7.35215619e-02
      1.49658054e-01 2.74751455e-01 2.68800408e-01 8.25227723e-02
      3.87003645e-02 1.65774133e-02 1.58132203e-02 2.63607334e-02
      6.28951862e-02 1.51010886e-01 1.86064243e-01 7.28007704e-02
      4.67619896e-02 4.84615788e-02 1.24810152e-02 2.47466024e-02
      7.01577812e-02 1.59270883e-01 2.13796735e-01 2.74751455e-01
      2.74751455e-01 4.74309996e-02 2.58947872e-02 2.46012304e-02
      1.51879251e-01 2.74751455e-01 1.69089198e-01 2.74543494e-01
      2.74751455e-01 1.12377733e-01 3.82117219e-02 1.47340531e-02
      3.76621857e-02 2.74751455e-01 2.74751455e-01 2.65316814e-01
      7.63623640e-02 6.08021021e-02 3.29115652e-02 3.29353027e-02
      5.56732975e-02 2.17430275e-02 6.00618012e-02 2.51764834e-01
      2.97605634e-01 3.02724876e-02 7.40154320e-03 5.74397808e-03
      1.72212552e-02 6.07313216e-02 1.00243822e-01 2.97605634e-01
      2.97605634e-01 2.67121673e-01 2.01098144e-01 2.41648853e-01
      6.15932830e-02 4.10585031e-02 4.97908369e-02 1.09949172e-01
      2.97605634e-01 2.87904084e-01 2.24366277e-01 7.60250539e-02
      3.06956526e-02 4.16668430e-02 1.16360024e-01 1.70022920e-01
      2.04051182e-01 2.97605634e-01 1.92563906e-01 6.15873449e-02
      2.94771586e-02 2.01571241e-01 2.93468863e-01 1.69512525e-01
      8.20794553e-02 3.28222215e-02 1.59344487e-02 1.25695048e-02
      1.05756978e-02 7.88601041e-02 2.93468863e-01 2.93468863e-01
      3.81911024e-02 2.82672029e-02 1.54514713e-02 3.48464288e-02
      4.89080772e-02 2.11481117e-02 3.33090164e-02 2.16603696e-01
      2.93468863e-01 1.67702645e-01 2.04073101e-01 1.42469123e-01
      1.74045950e-01 1.71569005e-01 3.07198912e-02 6.22105487e-02
      2.93468863e-01 2.93468863e-01 6.32667542e-02 6.72453493e-02
      6.76129907e-02 2.93468863e-01 2.93468863e-01 3.16603594e-02
      1.53774783e-01 2.65890896e-01 2.65890896e-01 5.48187364e-03
      4.97765420e-03 4.44406969e-03 1.54749483e-01 2.65890896e-01
      9.62091461e-02 2.26257920e-01 2.65890896e-01 6.50644973e-02
      7.37705268e-03 8.12020898e-03 4.70378399e-02 2.65890896e-01
      2.65890896e-01 2.18342796e-01 6.43787608e-02 2.65890896e-01
      1.69476539e-01 1.02506410e-02 2.05488540e-02 3.36488634e-02
      2.65890896e-01 2.65890896e-01 4.39246371e-02 9.00958255e-02
      1.39879107e-01 2.81372126e-02 1.45537723e-02 3.77565399e-02
      6.79818690e-02 2.65890896e-01 2.09582090e-01 1.13539509e-01
      1.17069684e-01 1.78726539e-01 2.61783469e-02 1.28938425e-02
      1.75059643e-02 1.44480601e-01 2.85216689e-01 2.68192828e-01
      1.36947304e-01 3.74088399e-02 2.33627129e-02 2.22322885e-02
      6.57983422e-02 8.82629603e-02 1.71533674e-01 2.85216689e-01
      1.52849674e-01 2.14936696e-02 4.80578914e-02 7.21409842e-02
      1.73483714e-02 9.53891128e-02 1.15597211e-01 2.59022593e-01
      2.85216689e-01 2.42307633e-01 8.90023187e-02 2.26883050e-02
      2.11674664e-02 4.30469103e-02 2.85216689e-01 2.85216689e-01
      2.85216689e-01 2.85216689e-01 1.81488186e-01 4.22035605e-02
      3.05753108e-02 9.59844142e-02 1.19931318e-01 1.24088943e-01
      1.93995595e-01 2.50152260e-01 2.84532368e-01 2.73236513e-01
      4.14220951e-02 4.33406085e-02 1.68617532e-01 9.42934752e-02
      4.51831594e-02 6.12495579e-02 1.27616823e-01 3.17411542e-01
      3.17411542e-01 5.23318574e-02 5.45186214e-02 1.07097253e-01
      1.77405328e-01 1.47101581e-01 1.32560402e-01 2.43753016e-01
      1.51246637e-01 9.99087244e-02 3.18813995e-02 7.82473236e-02
      5.92920072e-02 5.95151596e-02 7.95980617e-02 7.76239708e-02
      1.40522197e-01 3.17411542e-01 3.17411542e-01 9.29141864e-02
      1.50713036e-02 5.78608401e-02 2.12712381e-02 9.38691106e-03
      1.81113966e-02 8.14798623e-02 3.50431502e-01 3.05218905e-01
      2.87598167e-02 1.75202470e-02 1.81581080e-02 1.88807566e-02
      1.27496226e-02 4.37716916e-02 1.02242708e-01 3.50431502e-01
      1.76403686e-01 3.43088061e-02 4.92931306e-02 2.11180262e-02
      1.97515283e-02 2.31080763e-02 6.65342286e-02 1.68272808e-01
      3.50431502e-01 3.26960176e-01 8.03139582e-02 3.45962122e-02
      1.61079079e-01 2.01102927e-01 4.67115529e-02 1.31307378e-01
      2.60833740e-01 3.50431502e-01 2.15198681e-01 5.61352074e-02
      1.93724502e-02 5.14614061e-02 9.37854797e-02 1.80858970e-01
      2.26187572e-01 2.12771669e-01 1.80024356e-01 8.62984657e-02
      3.69568244e-02 3.78923193e-02 8.69658813e-02 1.86323687e-01
      2.75497347e-01 2.75497347e-01 2.75497347e-01 1.65142685e-01
      5.94282299e-02 5.47753610e-02 2.70719305e-02 2.75497347e-01
      2.75497347e-01 1.24272868e-01 1.65117204e-01 1.69379786e-01
      1.24846503e-01 5.09005189e-02 2.15607360e-02 5.67722432e-02
      2.39950716e-01 2.75497347e-01 2.12287962e-01 2.19123691e-01
      1.63918421e-01 8.06066394e-02 4.48166169e-02 4.60714176e-02</_>
    <_>
      8.43645111e-02 3.12488467e-01 3.12488467e-01 1.00040510e-01
      4.25105616e-02 1.51957190e-02 2.13954523e-02 1.24210753e-02
      2.99881510e-02 3.12488467e-01 3.12488467e-01 2.61690110e-01
      8.55340660e-02 3.28644663e-02 2.25775111e-02 3.78072038e-02
      4.11604047e-02 9.00298953e-02 1.15165494e-01 3.12488467e-01
      3.12488467e-01 1.86490685e-01 2.99168155e-02 1.55982953e-02
      4.84698564e-02 4.28222828e-02 4.37999852e-02 1.66687071e-01
      3.12488467e-01 3.12488467e-01 1.18268207e-01 3.27630751e-02
      2.82468591e-02 4.81142998e-02 3.80979180e-02 6.08474202e-02
      2.79264688e-01 2.52624094e-01 6.51227385e-02 4.82652746e-02
      1.56802852e-02 2.57875007e-02 2.83556972e-02 5.01972549e-02
      2.52327561e-01 2.79264688e-01 5.50814085e-02 2.84175817e-02
      2.01958939e-02 2.41152178e-02 3.48511152e-02 1.25286311e-01
      2.79264688e-01 2.79264688e-01 1.86897963e-01 2.04510331e-01
      2.46892318e-01 8.55675489e-02 2.11053770e-02 2.73323096e-02
      4.77696769e-02 5.79744838e-02 1.02113530e-01 2.79264688e-01
      1.84269771e-01 2.79264688e-01 5.19321002e-02 2.37005614e-02
      3.65810059e-02 1.99030444e-01 2.25369811e-01 2.79264688e-01
      6.76237643e-02 2.08422504e-02 1.91513114e-02 1.98390186e-02
      3.47563662e-02 2.03178544e-02 2.25852147e-01 2.64913380e-01
      2.64913380e-01 1.67428069e-02 8.85992572e-02 2.02405617e-01
      1.48621336e-01 1.00889049e-01 5.96937053e-02 2.64913380e-01
      2.64913380e-01 1.60065457e-01 1.84116766e-01 1.01486534e-01
      8.74477848e-02 2.18630414e-02 2.99378373e-02 3.83705273e-02
      2.16562256e-01 2.41450682e-01 2.64913380e-01 1.29894540e-01
      1.08167298e-01 1.10246681e-01 1.22894809e-01 1.29537448e-01
      2.47767955e-01 2.64913380e-01 2.64913380e-01 2.07997218e-01
      6.16481490e-02 1.37384310e-01 2.56270021e-01 1.69182107e-01
      9.03411210e-02 3.35741974e-02 3.82223465e-02 3.35773528e-02
      2.97056567e-02 1.82880074e-01 2.98783600e-01 2.53185540e-01
      8.81770402e-02 1.13085955e-01 5.38615100e-02 3.14098671e-02
      2.18784772e-02 7.08931983e-02 3.74898650e-02 1.75828904e-01
      2.79159516e-01 1.84804574e-01 2.42270336e-01 1.36896521e-01
      8.64079967e-02 4.61242869e-02 1.96027830e-02 2.18713224e-01
      2.98783600e-01 2.98783600e-01 1.58604518e-01 2.98783600e-01
      2.63941795e-01 4.25492264e-02 3.25657129e-02 7.31289685e-02
      2.20744222e-01 2.74230987e-01 2.74230987e-01 6.65654168e-02
      2.74515022e-02 1.80737469e-02 2.62500979e-02 4.73250151e-02
      8.93758982e-02 2.74230987e-01 2.74230987e-01 2.74230987e-01
      4.16200049e-02 8.17978568e-03 1.81865171e-02 1.51859969e-01
      2.11035699e-01 2.74230987e-01 2.02235281e-01 2.74230987e-01
      2.74230987e-01 5.41987084e-02 1.39094070e-01 8.57814550e-02
      2.14039199e-02 3.95167395e-02 8.82400647e-02 1.71468660e-01
      2.74230987e-01 2.14041337e-01 2.71569006e-02 2.02909354e-02
      3.01818289e-02 5.45361862e-02 9.51116607e-02 1.26128525e-01
      2.72989035e-01 1.77831411e-01 1.23676926e-01 1.28766736e-02
      1.63136534e-02 4.51801457e-02 1.63167745e-01 1.70760095e-01
      2.72989035e-01 1.73229575e-01 1.20161273e-01 8.24073777e-02
      4.85024378e-02 1.08381219e-01 2.72989035e-01 2.72989035e-01
      1.09508216e-01 1.97478756e-01 1.99735656e-01 2.72989035e-01
      8.55006576e-02 2.58329026e-02 3.04009840e-02 5.36067560e-02
      8.50836709e-02 7.72819370e-02 1.35777682e-01 1.70258179e-01
      2.55861789e-01 1.20667905e-01 6.79537505e-02 1.46545365e-01
      2.72989035e-01 2.72989035e-01 1.23447128e-01 1.42983675e-01
      1.12393880e-02 1.56472459e-01 2.25206986e-01 9.42281112e-02
      1.68918416e-01 1.72101378e-01 2.22009569e-01 6.24174736e-02
      5.38566988e-03 4.20876183e-02 2.86933422e-01 2.86933422e-01
      1.01310395e-01 2.30939955e-01 1.85714394e-01 1.41020909e-01
      2.55833026e-02 1.64838340e-02 9.22130048e-03 5.62491603e-02
      9.02106762e-02 9.44583565e-02 1.56919524e-01 2.70772457e-01
      2.86933422e-01 1.45682096e-01 7.57901045e-03 4.55044433e-02
      2.02018946e-01 1.87956959e-01 1.10450566e-01 1.50891438e-01
      2.86933422e-01 2.86933422e-01 1.21975079e-01 4.05920409e-02
      1.15514256e-01 2.64006048e-01 1.51332408e-01 3.69230732e-02
      1.22042209e-01 7.48568103e-02 3.04684304e-02 1.95241589e-02
      5.78045100e-02 2.50516027e-01 3.29938799e-01 1.48412570e-01
      1.32390317e-02 2.31307056e-02 1.00988457e-02 1.09284148e-02
      2.49907598e-02 8.62789378e-02 2.51554102e-01 3.29938799e-01
      2.48328909e-01 5.49109466e-02 6.64685294e-02 1.20389737e-01
      1.42746791e-01 3.77985500e-02 1.08965613e-01 3.29938799e-01
      3.29938799e-01 3.29938799e-01 5.22205494e-02 1.23871125e-01
      9.29479767e-03 4.88887960e-03 2.63737086e-02 1.63507491e-01
      2.39753813e-01 2.72376209e-01 1.81342125e-01 2.25247629e-02
      2.26996206e-02 1.56968590e-02 1.69781633e-02 3.34017947e-02
      7.07382634e-02 2.44672403e-01 2.72376209e-01 2.72376209e-01
      1.28290489e-01 8.63985717e-02 1.19331524e-01 1.16925992e-01
      9.18803811e-02 1.23592377e-01 2.72376209e-01 2.72376209e-01
      2.72376209e-01 5.86391613e-02 1.40383184e-01 1.81974042e-02
      1.83510296e-02 4.59677055e-02 9.93374586e-02 2.54174322e-01
      2.72376209e-01 2.72376209e-01 1.55173406e-01 9.94348302e-02
      2.40651835e-02 8.58941153e-02 1.45495966e-01 8.25583786e-02</_>
    <_>
      8.13426897e-02 3.10529441e-01 3.10529441e-01 1.17455184e-01
      2.03308798e-02 2.09537838e-02 5.96940331e-03 1.78255874e-03
      1.38960395e-03 3.10529441e-01 3.10529441e-01 3.04329902e-01
      1.03134692e-01 2.62779221e-02 5.05764559e-02 1.99617688e-02
      1.11848470e-02 3.02667990e-02 8.66796821e-02 3.08345020e-01
      3.10529441e-01 2.14704916e-01 3.41556072e-02 1.74312945e-02
      1.69049799e-02 8.83362256e-03 1.65088139e-02 9.96935144e-02
      3.10529441e-01 3.10529441e-01 1.53251067e-01 4.09133211e-02
      4.33386974e-02 5.05266897e-02 2.86758896e-02 3.87711562e-02
      2.84941375e-01 2.84941375e-01 7.34600648e-02 4.19502258e-02
      1.65582187e-02 2.68218480e-02 3.08676623e-02 3.61075923e-02
      1.79468215e-01 2.83477724e-01 8.96973014e-02 5.83781637e-02
      1.53906895e-02 2.64627710e-02 2.87637264e-02 9.42012146e-02
      2.56267577e-01 2.84941375e-01 1.81334361e-01 2.79752046e-01
      2.84941375e-01 1.12980902e-01 2.70041786e-02 2.77402177e-02
      3.41929384e-02 5.10796197e-02 7.73045272e-02 2.84941375e-01
      2.84941375e-01 2.84941375e-01 4.79762629e-02 1.92353316e-02
      1.15601243e-02 5.07776551e-02 1.62965521e-01 2.25763261e-01
      8.38738754e-02 6.99902028e-02 1.00645930e-01 2.87932716e-02
      6.88487589e-02 1.20793827e-01 1.55459374e-01 2.78626263e-01
      2.58798361e-01 2.64839567e-02 4.70115393e-02 1.01516552e-01
      3.25515680e-02 9.92799625e-02 2.03752816e-01 2.51914024e-01
      1.64052337e-01 8.27723145e-02 2.05312505e-01 2.92395830e-01
      2.31936544e-01 2.24650130e-02 3.11606172e-02 5.63345365e-02
      2.59782284e-01 2.80159384e-01 1.80559605e-01 7.32380077e-02
      1.15527987e-01 7.23179355e-02 2.21672617e-02 6.92450851e-02
      2.04823211e-01 2.92395830e-01 2.92395830e-01 1.27923191e-01
      7.68901259e-02 1.23405598e-01 2.97934860e-01 2.06557363e-01
      4.41694930e-02 2.19489336e-02 1.75708868e-02 1.60669778e-02
      3.68718058e-02 5.41004241e-02 2.81103224e-01 3.10567290e-01
      1.88310623e-01 4.36570160e-02 2.38116849e-02 2.88359262e-02
      1.86757930e-02 3.59413661e-02 4.42420393e-02 6.09167218e-02
      1.55729145e-01 2.03646466e-01 1.91418588e-01 1.57334715e-01
      9.75544974e-02 4.63481732e-02 5.54518588e-02 4.34643105e-02
      3.10567290e-01 3.10567290e-01 3.10567290e-01 2.12432653e-01
      2.94950634e-01 2.12650135e-01 3.52326781e-02 6.16816357e-02
      9.56783444e-02 3.09078068e-01 3.09078068e-01 1.79450557e-01
      3.42165641e-02 1.15233492e-02 9.07664746e-03 2.83663031e-02
      6.04204088e-02 2.72239000e-01 3.09078068e-01 3.09078068e-01
      8.39076117e-02 3.51673812e-02 1.77006461e-02 1.69068146e-02
      1.01526186e-01 1.61402434e-01 3.87013070e-02 3.09078068e-01
      3.09078068e-01 1.98905602e-01 8.27271044e-02 1.17815949e-01
      8.07626918e-02 2.47880053e-02 4.03588228e-02 7.85444677e-02
      2.66597301e-01 3.09078068e-01 7.77630061e-02 5.90302646e-02
      3.51078920e-02 2.77560465e-02 3.26932669e-02 3.55194584e-02
      1.41881108e-01 3.13767552e-01 2.23111272e-01 2.59698480e-02
      2.01370437e-02 2.00181250e-02 1.53656572e-01 1.66731164e-01
      9.62292328e-02 5.10405004e-02 1.71059325e-01 1.54843107e-01
      3.75894569e-02 7.17212781e-02 1.12146437e-01 3.13767552e-01
      3.13767552e-01 7.69154280e-02 4.67566401e-02 2.79642493e-01
      3.13767552e-01 3.26221026e-02 2.70957313e-02 2.08720472e-02
      3.85090895e-02 3.98888886e-02 3.37324366e-02 2.48700324e-02
      3.13767552e-01 3.13767552e-01 1.18993469e-01 1.69927776e-01
      6.42405078e-02 1.89156041e-01 1.40114039e-01 5.64646684e-02
      1.86424926e-02 1.58055183e-02 1.29730970e-01 1.21611640e-01
      1.41201779e-01 1.63894922e-01 1.72656909e-01 7.04725906e-02
      3.46054658e-02 1.22887492e-02 9.17996466e-02 2.80739218e-01
      2.80739218e-01 1.77259699e-01 2.80739218e-01 2.17240453e-01
      5.47894761e-02 2.76833121e-02 1.88659597e-02 2.51419488e-02
      1.29551232e-01 1.08421654e-01 8.99363831e-02 1.45919010e-01
      2.80739218e-01 2.67633021e-01 6.26896247e-02 1.36619126e-02
      3.37918475e-02 2.80739218e-01 2.11173639e-01 1.34287566e-01
      1.92337841e-01 2.80739218e-01 2.80739218e-01 6.42374158e-02
      1.67624392e-02 1.52513683e-01 2.86510855e-01 1.36063367e-01
      9.66798961e-02 2.03358188e-01 1.48990706e-01 5.27589731e-02
      1.47706121e-02 5.80946803e-02 3.14455569e-01 3.14455569e-01
      6.16324879e-02 4.83755507e-02 2.08059717e-02 3.68524343e-02
      2.24281307e-02 4.87075746e-03 4.21787798e-02 1.76925078e-01
      2.58487731e-01 1.13015927e-01 1.17984220e-01 1.14014059e-01
      3.14455569e-01 2.39427954e-01 4.11342084e-02 1.62762135e-01
      3.14455569e-01 3.14455569e-01 2.22129419e-01 9.17364880e-02
      2.51091756e-02 6.64549768e-02 3.68642174e-02 3.61768007e-02
      4.43565138e-02 3.26383412e-01 3.26383412e-01 5.78429215e-02
      1.79240312e-02 9.41187050e-03 9.26604681e-03 1.39079047e-02
      7.15019554e-03 4.31169309e-02 3.26383412e-01 3.26383412e-01
      1.13879427e-01 8.91689062e-02 4.72511053e-02 2.05713790e-02
      4.27215472e-02 4.40394469e-02 1.39017493e-01 3.26383412e-01
      3.26383412e-01 1.68966383e-01 5.39783090e-02 1.50701441e-02
      1.02624176e-02 4.30476889e-02 3.11743021e-02 1.09925263e-01
      3.26383412e-01 3.26383412e-01 1.40141800e-01 4.86486815e-02
      3.84455621e-02 2.34051440e-02 1.05516486e-01 8.98937955e-02</_>
    <_>
      1.45114185e-02 3.97152901e-02 7.89214000e-02 3.79949883e-02
      6.09825961e-02 9.61170048e-02 1.88427404e-01 1.18424721e-01
      2.33863126e-02 4.04420830e-02 1.48515016e-01 1.82874292e-01
      1.05046399e-01 1.16348296e-01 1.98954567e-01 3.61615419e-01
      2.42642909e-01 1.50241822e-01 1.71235893e-02 1.90539077e-01
      3.61615419e-01 1.84210524e-01 4.12605479e-02 3.92817445e-02
      3.02098226e-02 4.18516658e-02 2.42625698e-02 7.17955604e-02
      3.61615419e-01 3.61615419e-01 2.20285922e-01 7.91335627e-02
      7.39758462e-02 1.00327767e-01 1.31182298e-01 1.68442279e-01
      1.01291753e-01 1.19569995e-01 8.44943151e-02 4.93297689e-02
      6.76403865e-02 7.56587982e-02 1.72593206e-01 1.08473025e-01
      1.60015389e-01 2.37146586e-01 1.09753735e-01 2.87550613e-02
      1.01323770e-02 1.68685634e-02 1.37660848e-02 2.57313401e-02
      7.82562643e-02 2.02402174e-01 1.99365199e-01 3.07045877e-01
      3.07045877e-01 1.79663271e-01 1.95085749e-01 6.37089163e-02
      5.12959994e-02 1.11991540e-01 2.23615915e-01 3.07045877e-01
      3.07045877e-01 1.17020003e-01 1.92508042e-01 2.21253410e-01
      7.96949342e-02 2.65091192e-02 1.02157705e-01 3.07045877e-01
      1.76783189e-01 7.44317546e-02 2.01983023e-02 1.88751742e-02
      1.25072626e-02 2.40105428e-02 3.90962511e-02 5.29764816e-02
      1.62705600e-01 4.68184389e-02 4.70501967e-02 3.49628814e-02
      3.82818468e-02 3.35705951e-02 4.24181893e-02 4.40292656e-02
      2.91240755e-02 4.92999330e-02 3.06033105e-01 2.96778530e-01
      1.47632837e-01 1.73271880e-01 1.61248118e-01 1.89243197e-01
      1.17381945e-01 9.86750871e-02 3.06033105e-01 2.47586533e-01
      2.21926883e-01 3.03903878e-01 1.84800416e-01 2.14102343e-01
      2.70091057e-01 3.02205205e-01 1.47388980e-01 1.76548675e-01
      3.33057120e-02 1.57143861e-01 3.09820026e-01 2.34851629e-01
      1.85100168e-01 4.02153321e-02 1.78057887e-02 2.81762462e-02
      1.96478367e-02 8.48072916e-02 3.09820026e-01 3.09820026e-01
      1.86109260e-01 1.30206734e-01 2.85777133e-02 1.97712258e-02
      3.99196185e-02 5.27666844e-02 4.46226448e-02 8.58992636e-02
      3.09817076e-01 2.01228827e-01 3.09820026e-01 1.15190722e-01
      3.39666381e-02 3.90752554e-02 3.00001465e-02 1.02271885e-01
      1.99962333e-01 2.30939060e-01 1.98239297e-01 3.09820026e-01
      1.21602304e-01 6.94416165e-02 7.73659497e-02 5.37471175e-02
      6.97286353e-02 1.98894724e-01 2.56331801e-01 1.87566221e-01
      2.38035962e-01 6.65319264e-02 2.39126347e-02 2.28925794e-02
      5.02638072e-02 2.56331801e-01 1.70079395e-01 1.84188366e-01
      2.56331801e-01 2.56331801e-01 1.61123127e-01 2.63756532e-02
      2.27828491e-02 8.97573978e-02 2.55276412e-02 1.10743381e-01
      1.86182290e-01 2.00048238e-01 2.56331801e-01 2.56331801e-01
      1.32465839e-01 2.67496128e-02 1.39355827e-02 7.69480690e-03
      7.45212883e-02 2.05073133e-01 2.50809520e-01 2.56331801e-01
      2.56331801e-01 1.11988105e-01 1.21012768e-02 8.79406370e-03
      2.70002037e-01 9.31598470e-02 9.76578519e-02 1.51415989e-01
      2.52136469e-01 2.34479621e-01 5.64021617e-02 3.54437232e-02
      9.03632864e-02 1.15965098e-01 9.92022082e-02 1.90940708e-01
      1.68648213e-01 2.90777385e-01 2.86055624e-01 1.65527791e-01
      1.00678004e-01 6.75478056e-02 7.10236374e-03 2.49089133e-02
      4.74494398e-02 1.31407619e-01 2.90777385e-01 2.90777385e-01
      2.85066776e-02 1.22588389e-02 8.91876314e-03 1.41295329e-01
      6.43563718e-02 9.05790254e-02 2.30502263e-01 2.90777385e-01
      2.90777385e-01 8.40033069e-02 4.96367961e-02 2.87404209e-02
      2.14126986e-02 6.79728463e-02 1.23725817e-01 1.54079109e-01
      3.01582545e-01 3.01582545e-01 8.06371048e-02 2.54951157e-02
      2.61799600e-02 7.69771263e-02 1.39458314e-01 8.82573277e-02
      1.59660652e-01 3.01582545e-01 2.67135233e-01 1.08756810e-01
      7.39659220e-02 5.27037270e-02 1.58844013e-02 7.25780353e-02
      9.60689411e-02 1.02430798e-01 2.41277635e-01 3.01582545e-01
      2.49360040e-01 7.23153055e-02 1.36952978e-02 6.01019710e-02
      9.57527980e-02 1.06325038e-01 1.06233597e-01 2.70246834e-01
      3.01582545e-01 2.27208048e-01 1.64351195e-01 4.55546677e-02
      3.02523114e-02 3.32106985e-02 4.56025004e-02 1.60877079e-01
      2.56708860e-01 2.56708860e-01 1.62153125e-01 7.06872046e-02
      3.74548808e-02 8.61665308e-02 7.38500878e-02 5.31214066e-02
      1.93756193e-01 2.56708860e-01 2.56708860e-01 1.65994614e-01
      1.14295848e-01 7.60773718e-02 5.74754626e-02 2.18597986e-02
      2.89663207e-02 8.03164020e-02 2.04269797e-01 2.00915396e-01
      1.66051790e-01 1.68918133e-01 1.33558914e-01 2.28726670e-01
      1.84788674e-01 3.11935786e-02 9.32485312e-02 2.11375281e-01
      2.56708860e-01 2.56708860e-01 2.56708860e-01 2.56708860e-01
      8.07546824e-02 9.60947722e-02 3.20794992e-02 1.18323907e-01
      2.84253120e-01 2.27656320e-01 4.29845154e-02 4.53602895e-02
      3.61650586e-02 1.01114772e-01 8.88593942e-02 8.13111737e-02
      2.84253120e-01 2.84253120e-01 2.84253120e-01 1.06793351e-01
      3.51782367e-02 2.67752875e-02 2.42540434e-01 2.84253120e-01
      8.08834136e-02 9.21333358e-02 1.58183634e-01 1.04667455e-01
      1.32097036e-01 1.11927763e-01 1.14294633e-01 1.33434862e-01
      2.68360347e-01 2.16095939e-01 2.47763947e-01 2.84253120e-01
      1.17501058e-01 1.34091645e-01 5.07532470e-02 3.60518135e-02</_>
    <_>
      3.33457738e-02 1.54064566e-01 2.88561195e-01 1.96051180e-01
      6.93944022e-02 5.01054451e-02 4.19073962e-02 2.51994338e-02
      2.71673054e-02 3.11790463e-02 2.61829078e-01 2.88561195e-01
      2.88561195e-01 1.02892622e-01 6.46508709e-02 1.12173945e-01
      8.46572593e-02 3.64495479e-02 4.74562794e-02 1.06332913e-01
      2.22017333e-01 2.67494261e-01 2.14320496e-01 1.24162287e-01
      1.44532457e-01 8.03808346e-02 2.34293621e-02 4.49276716e-02
      9.51332822e-02 2.61254549e-01 2.55003780e-01 1.44230396e-01
      1.95723936e-01 2.88561195e-01 2.38266855e-01 3.24239656e-02
      4.75727133e-02 1.32367402e-01 3.13056618e-01 2.13808179e-01
      7.36912265e-02 9.12290215e-02 2.35091984e-01 2.76034772e-01
      9.49706808e-02 8.59591812e-02 2.94454694e-02 2.65789740e-02
      2.49170251e-02 3.07650566e-02 8.69185403e-02 3.13056618e-01
      3.13056618e-01 2.74194270e-01 6.31904602e-02 5.52991703e-02
      1.44272655e-01 9.09936652e-02 4.98543009e-02 1.60547286e-01
      3.13056618e-01 2.01361045e-01 7.49210045e-02 8.04472491e-02
      2.79180408e-02 3.25889811e-02 1.07146660e-02 8.82012118e-03
      6.50494397e-02 2.11370632e-01 3.13056618e-01 1.60834298e-01
      5.65249808e-02 4.20252010e-02 3.20185013e-02 4.18568179e-02
      5.42284735e-02 7.91725367e-02 2.91349560e-01 2.91349560e-01
      2.22118244e-01 8.26828554e-02 1.09969065e-01 4.50937636e-02
      1.27779573e-01 1.27823457e-01 1.34378761e-01 2.91349560e-01
      2.91349560e-01 2.12951049e-01 7.17867464e-02 3.11885085e-02
      1.53326374e-02 1.91952325e-02 2.40152068e-02 5.31040169e-02
      2.55303621e-01 2.91349560e-01 1.52699411e-01 1.43165469e-01
      4.44090404e-02 2.83713657e-02 4.00843620e-02 4.49913405e-02
      9.57338363e-02 2.91349560e-01 2.91349560e-01 2.91349560e-01
      3.39918658e-02 4.30028029e-02 5.15623540e-02 1.98724598e-01
      2.84017414e-01 2.21676275e-01 1.39158458e-01 7.89119825e-02
      2.90015470e-02 4.18481976e-02 3.35478932e-02 8.56768787e-02
      2.00759083e-01 1.79189309e-01 2.81580061e-01 2.84017414e-01
      2.84017414e-01 6.33708611e-02 2.17874199e-02 1.09640779e-02
      2.44146828e-02 7.53929988e-02 2.43577421e-01 2.84017414e-01
      2.84017414e-01 1.06470600e-01 3.61840986e-02 4.38383631e-02
      2.12475061e-02 7.06823245e-02 9.78176221e-02 1.24641538e-01
      1.53599709e-01 2.84017414e-01 2.84017414e-01 1.04510412e-01
      3.13668437e-02 2.55556405e-02 6.57283068e-02 8.20843279e-02
      5.65128028e-02 1.88702226e-01 2.79721946e-01 2.79721946e-01
      9.36685354e-02 4.98211086e-02 5.38068712e-02 6.34891838e-02
      4.10669893e-02 4.07713763e-02 7.25506470e-02 1.32206291e-01
      2.08613202e-01 1.55146375e-01 4.00403142e-02 3.40741910e-02
      3.99733745e-02 4.62657623e-02 4.61310335e-02 1.54726550e-01
      2.79721946e-01 2.79721946e-01 1.71308354e-01 1.38425976e-01
      2.79721946e-01 2.79721946e-01 7.55442753e-02 1.56582266e-01
      2.39851087e-01 1.97628260e-01 2.79721946e-01 2.79721946e-01
