<?xml version="1.0"?>
<opencv_storage>
<my_svm type_id="opencv-ml-svm">
  <svm_type>C_SVC</svm_type>
  <kernel><type>RBF</type>
    <gamma>8.9999999999999997e-02</gamma></kernel>
  <C>10.</C>
  <term_criteria><epsilon>1.1920928955078125e-07</epsilon>
    <iterations>2147483647</iterations></term_criteria>
  <var_all>324</var_all>
  <var_count>324</var_count>
  <class_count>2</class_count>
  <class_labels type_id="opencv-matrix">
    <rows>1</rows>
    <cols>2</cols>
    <dt>i</dt>
    <data>
      0 3</data></class_labels>
  <sv_total>359</sv_total>
  <support_vectors>
    <_>
      4.30672206e-02 3.37190032e-01 3.37190032e-01 1.10421695e-01
      2.42471453e-02 1.30157163e-02 2.21857266e-03 4.24788008e-03
      1.03306063e-02 7.63419867e-02 3.37190032e-01 3.37190032e-01
      9.01598632e-02 1.98276769e-02 1.16980718e-02 8.50451353e-04
      4.00755228e-03 2.18989104e-02 2.84575131e-02 3.37190032e-01
      3.37190032e-01 1.81902975e-01 6.38374761e-02 1.58755947e-02
      2.62409002e-02 2.64060944e-02 1.14818010e-02 1.30278036e-01
      2.96875417e-01 3.37190032e-01 1.20429188e-01 3.98602076e-02
      1.34543674e-02 3.79802324e-02 5.72525561e-02 7.06327483e-02
      1.26849920e-01 2.74527520e-01 3.24620098e-01 5.31549230e-02
      3.28644477e-02 1.28898239e-02 1.88201182e-02 2.42835861e-02
      5.20566069e-02 8.78848359e-02 1.16522126e-01 2.06255049e-01
      2.41393656e-01 1.99046284e-01 1.59173355e-01 1.00806057e-01
      8.23409483e-02 7.30303377e-02 1.87850475e-01 3.24620098e-01
      3.24620098e-01 7.34893307e-02 2.47078948e-02 7.55501864e-03
      2.42168233e-02 2.51254980e-02 7.42826760e-02 6.80793524e-02
      3.14228147e-01 3.24620098e-01 2.97779799e-01 1.24124743e-01
      8.54470059e-02 5.60895167e-02 1.99815072e-02 1.80484951e-02
      2.60104965e-02 2.42728665e-02 1.95813984e-01 3.23405713e-01
      3.23405713e-01 2.29573607e-01 1.07200488e-01 7.98583180e-02
      7.51968101e-02 2.80414913e-02 6.96182996e-03 4.16849740e-02
      1.87601238e-01 2.41854638e-01 1.16455354e-01 1.67030692e-01
      1.03527606e-01 1.12878889e-01 1.16310939e-02 1.19423561e-01
      3.23405713e-01 3.23405713e-01 2.83513308e-01 1.35234416e-01
      5.58712669e-02 1.36645082e-02 4.13484452e-03 4.80422899e-02
      5.25061414e-02 2.47942820e-01 2.53722429e-01 2.07682684e-01
      8.11230764e-02 5.41893691e-02 2.02948432e-02 3.19081433e-02
      6.87500611e-02 2.31022865e-01 2.84616768e-01 8.93635899e-02
      5.59056550e-02 2.92241126e-02 6.35347739e-02 1.46390453e-01
      9.95961204e-02 2.74694055e-01 2.84616768e-01 2.84616768e-01
      1.06282495e-01 3.49584036e-02 1.21059064e-02 5.42128272e-02
      1.06442809e-01 9.16718468e-02 1.94912449e-01 1.60668701e-01
      1.11132629e-01 3.86609547e-02 3.91526334e-02 6.55079186e-02
      1.18199743e-01 2.84616768e-01 2.77799517e-01 2.84616768e-01
      2.84616768e-01 2.84616768e-01 8.62560868e-02 3.55161168e-02
      1.25819296e-02 2.45753955e-02 9.65780020e-02 1.43022582e-01
      3.15597713e-01 3.15597713e-01 3.15597713e-01 4.38983887e-02
      7.89243821e-03 2.10610009e-03 1.73644442e-02 2.16472000e-02
      6.26135841e-02 1.25901341e-01 3.15597713e-01 3.15597713e-01
      1.09272331e-01 1.89340599e-02 4.22161724e-03 3.94406309e-03
      3.47533938e-03 2.29284111e-02 3.15597713e-01 3.15597713e-01
      1.76120952e-01 3.54599468e-02 1.89475380e-02 4.56260005e-03
      3.86414956e-03 7.53000891e-03 8.67029950e-02 2.30243728e-01
      3.15597713e-01 2.32162178e-01 8.88096467e-02 4.19582576e-02
      1.04299700e-02 1.03923976e-02 1.74700283e-02 8.54394361e-02
      2.21380778e-02 1.58542126e-01 3.10936540e-01 1.68517977e-01
      4.27118242e-02 3.15720774e-02 1.50727853e-02 1.07184919e-02
      1.42751951e-02 1.10633895e-01 1.67545393e-01 3.10936540e-01
      2.11354584e-01 4.57411259e-02 3.68348956e-02 2.45591793e-02
      2.58922894e-02 4.80939150e-02 1.51606634e-01 3.10936540e-01
      3.10936540e-01 2.63523459e-01 5.98553792e-02 5.69071583e-02
      4.18481603e-02 2.23027356e-02 4.77161184e-02 2.17327341e-01
      3.10936540e-01 3.10936540e-01 3.10936540e-01 8.84302184e-02
      7.19340667e-02 2.99660712e-02 1.78886428e-02 7.41245970e-02
      1.62803754e-01 6.46192655e-02 4.14070264e-02 2.37561651e-02
      4.90774140e-02 8.14127475e-02 1.93424568e-01 2.93797106e-01
      2.83825487e-01 2.93797106e-01 1.97241262e-01 1.12133853e-01
      4.11722139e-02 3.96142639e-02 2.67208144e-02 6.19273148e-02
      1.56934723e-01 2.93797106e-01 1.14022143e-01 4.77908216e-02
      9.58498567e-03 1.98523737e-02 4.44129817e-02 9.87792090e-02
      2.15036646e-01 2.93797106e-01 1.95105955e-01 2.93797106e-01
      2.36055091e-01 5.02937101e-02 4.00223322e-02 4.44258861e-02
      9.02686343e-02 1.32442251e-01 1.89613715e-01 2.93797106e-01
      3.12072605e-01 2.16045842e-01 5.24893589e-02 1.85086522e-02
      1.80956814e-02 1.06226075e-02 2.50397231e-02 3.99130322e-02
      2.28993833e-01 3.12072605e-01 3.12072605e-01 1.50650024e-01
      1.02343924e-01 4.75422069e-02 1.34594580e-02 2.32836101e-02
      3.62755023e-02 1.54747799e-01 3.12072605e-01 2.17738137e-01
      3.57989259e-02 1.64634679e-02 2.20709387e-02 2.86179949e-02
      5.62260970e-02 7.38835186e-02 3.11554372e-01 3.12072605e-01
      3.12072605e-01 1.34579703e-01 1.02415621e-01 7.98164532e-02
      2.84811649e-02 2.66830008e-02 5.09663001e-02 2.26298377e-01
      1.54032752e-01 2.69781172e-01 2.53000855e-01 2.49324083e-01
      8.42976719e-02 3.52593176e-02 3.50500606e-02 1.50133334e-02
      3.61569747e-02 1.27531499e-01 2.69781172e-01 2.69781172e-01
      2.69781172e-01 1.01052471e-01 4.64877002e-02 2.03997120e-02
      4.92406543e-03 3.61864604e-02 1.83038041e-01 2.69781172e-01
      2.69781172e-01 2.49223560e-01 1.40091300e-01 5.02597056e-02
      3.95162962e-02 4.06401902e-02 8.41858014e-02 1.11777179e-01
      2.57092357e-01 2.69781172e-01 2.06603810e-01 1.09536923e-01
      5.52759878e-02 5.57679310e-02 1.37418717e-01 1.00223377e-01</_>
    <_>
      6.47813380e-02 2.36528233e-01 3.13279003e-01 7.98368901e-02
      1.09743260e-01 4.56996486e-02 3.32790576e-02 3.00424881e-02
      8.23626220e-02 1.02815084e-01 3.13279003e-01 3.13279003e-01
      9.17093679e-02 6.96570128e-02 2.70448402e-02 2.19892096e-02
      1.97745301e-02 6.94805607e-02 1.35023370e-01 2.95340240e-01
      3.13279003e-01 2.10072100e-01 1.41845718e-01 6.88644722e-02
      4.47238833e-02 9.30709764e-02 1.38697386e-01 1.57724485e-01
      3.13279003e-01 3.13279003e-01 1.69236884e-01 7.86754563e-02
      6.26518428e-02 7.13585168e-02 6.82879612e-02 1.02764368e-01
      1.66268989e-01 2.61802346e-01 2.82048464e-01 1.00120716e-01
      4.38032746e-02 1.53057380e-02 5.21383770e-02 5.58898710e-02
      8.33434761e-02 1.29079103e-01 1.46128237e-01 1.75253257e-01
      9.16483477e-02 1.06093027e-01 1.70295537e-01 2.63030499e-01
      2.22583279e-01 1.42200083e-01 2.55886585e-01 2.73507744e-01
      2.82048464e-01 8.19609314e-02 4.12517674e-02 3.12568098e-02
      7.11109713e-02 6.84961081e-02 7.73452148e-02 1.30286962e-01
      1.37321517e-01 2.82048464e-01 2.01388136e-01 1.54217258e-01
      2.22099110e-01 2.20596656e-01 1.20688155e-01 5.38777895e-02
      5.11142127e-02 1.44819796e-01 1.66794300e-01 1.19325586e-01
      1.75595760e-01 2.28905439e-01 2.29379281e-01 1.49269760e-01
      9.49329436e-02 6.89501166e-02 1.61744758e-01 9.95628536e-02
      1.00182295e-01 1.31514490e-01 2.02284589e-01 2.43755460e-01
      2.18255624e-01 2.07304999e-01 8.41636863e-03 8.31978172e-02
      2.43755460e-01 2.43755460e-01 2.27847636e-01 2.43755460e-01
      1.78462297e-01 6.75244480e-02 2.07279492e-02 2.67473776e-02
      6.47195503e-02 1.11804835e-01 1.61206394e-01 1.91028029e-01
      1.85063094e-01 2.43755460e-01 2.17112273e-01 1.04834385e-01
      1.28100559e-01 1.62930012e-01 2.36667350e-01 1.08452335e-01
      6.20532408e-02 1.08058684e-01 1.35927618e-01 1.23604618e-01
      1.37709543e-01 1.77214906e-01 1.89679205e-01 2.48264700e-01
      1.06982343e-01 4.51502167e-02 7.08399490e-02 1.67987183e-01
      1.68711945e-01 1.27903476e-01 1.08844928e-01 4.81795333e-02
      3.48019563e-02 2.54593380e-02 5.23079820e-02 2.03775793e-01
      2.48264700e-01 2.48264700e-01 2.48264700e-01 2.48264700e-01
      2.33724952e-01 2.25541607e-01 5.06994240e-02 7.17649385e-02
      8.98798481e-02 2.18141794e-01 2.46239707e-01 2.48264700e-01
      2.42512405e-01 2.21445501e-01 2.15586007e-01 4.14674692e-02
      2.72413604e-02 1.70570239e-02 7.20200390e-02 1.49733007e-01
      1.33057758e-01 1.37013316e-01 2.47524202e-01 2.83273131e-01
      1.29509747e-01 4.52585965e-02 5.08001186e-02 5.06622158e-02
      5.90351187e-02 6.77886531e-02 2.83273131e-01 2.83273131e-01
      2.83273131e-01 3.02849337e-02 3.90108675e-02 1.06681250e-02
      5.75637259e-02 1.87451914e-01 2.41005123e-01 2.65364438e-01
      2.83273131e-01 2.83273131e-01 4.74781618e-02 1.04954420e-02
      5.90497255e-03 7.88795948e-03 5.47879338e-02 1.62038907e-01
      2.49667298e-02 2.28243306e-01 3.42847377e-01 3.42847377e-01
      1.64169416e-01 1.37138397e-01 8.77212510e-02 3.70029770e-02
      1.20647643e-02 4.78455685e-02 9.92319807e-02 2.25281209e-01
      1.96574196e-01 1.91488937e-01 1.10683218e-01 7.91701078e-02
      9.29082558e-02 5.89394607e-02 1.13847405e-01 2.96715409e-01
      3.42847377e-01 1.23170145e-01 3.82882990e-02 2.76338775e-02
      3.24165598e-02 2.30044276e-02 7.92904794e-02 1.56573474e-01
      2.65673310e-01 2.51793027e-01 2.10438654e-01 1.08041577e-01
      7.62568712e-02 2.98638698e-02 4.18364517e-02 1.35100991e-01
      7.18884841e-02 1.22852214e-02 9.76323616e-03 2.03918535e-02
      4.55101579e-02 1.74139068e-01 2.72358209e-01 2.72358209e-01
      1.92265615e-01 2.16129571e-01 1.24561317e-01 1.28131881e-01
      3.49340960e-02 7.59919211e-02 8.31793398e-02 2.51487970e-01
      2.46518597e-01 2.72358209e-01 4.93705235e-02 3.21723074e-02
      1.03886817e-02 2.09025722e-02 4.50514853e-02 1.61553577e-01
      2.72358209e-01 2.72358209e-01 1.25595585e-01 1.84646502e-01
      1.21434599e-01 6.09871969e-02 2.22427230e-02 5.49186431e-02
      8.99232849e-02 2.72358209e-01 2.72358209e-01 2.72358209e-01
      3.05302590e-01 1.51925310e-01 1.31135508e-01 2.49212887e-02
      5.19661456e-02 2.19019279e-02 8.33513960e-02 1.17164731e-01
      3.05302590e-01 3.05302590e-01 1.68034583e-01 9.25678685e-02
      2.56181899e-02 3.27123813e-02 2.18671560e-02 1.96970645e-02
      4.47478890e-02 2.45889917e-01 3.05302590e-01 1.22236475e-01
      5.04735708e-02 1.86176635e-02 4.92048934e-02 4.05979939e-02
      1.52983069e-01 1.94004789e-01 3.05302590e-01 3.05302590e-01
      2.62582362e-01 4.74663228e-02 1.38277188e-02 4.61504422e-02
      3.36484388e-02 7.62186348e-02 1.20225988e-01 3.05302590e-01
      2.32002810e-01 2.66374290e-01 9.97370854e-02 6.06974773e-02
      4.38440442e-02 2.47027893e-02 1.57157965e-02 2.31290814e-02
      8.75287130e-02 1.96171388e-01 2.82544345e-01 1.50419697e-01
      2.11820632e-01 8.50105211e-02 4.43548039e-02 2.03914549e-02
      3.66165340e-02 7.03149289e-02 2.82544345e-01 2.82544345e-01
      1.08331837e-01 1.10420734e-01 1.66890085e-01 4.68992032e-02
      3.57767306e-02 8.24402571e-02 1.55641526e-01 2.42358819e-01
      2.82544345e-01 2.82544345e-01 2.82544345e-01 2.82544345e-01
      1.00691676e-01 3.83928306e-02 8.23069066e-02 6.07566051e-02</_>
    <_>
      1.49115458e-01 2.82196581e-01 2.82196581e-01 2.06496805e-01
      9.37728435e-02 1.94711201e-02 3.78507636e-02 1.03225699e-02
      3.45519073e-02 2.26125881e-01 2.82196581e-01 2.82196581e-01
      2.26509511e-01 1.95279121e-01 2.52507292e-02 3.82099785e-02
      2.90822182e-02 5.68687841e-02 1.02157332e-01 2.60807276e-01
      2.82196581e-01 2.26888627e-01 5.61970919e-02 2.08643470e-02
      4.85237986e-02 1.81025509e-02 4.72439528e-02 1.55231103e-01
      2.80916572e-01 2.82196581e-01 2.07187831e-01 9.94049609e-02
      9.11042187e-03 3.32108885e-02 1.19137811e-02 1.57575700e-02
      2.32716784e-01 2.54444689e-01 3.02451521e-01 1.86820239e-01
      1.48486301e-01 3.72760147e-02 1.05199173e-01 1.61051989e-01
      1.23337410e-01 1.27455667e-01 6.53223693e-02 1.26203805e-01
      5.68413176e-02 4.63115722e-02 2.70112827e-02 3.02451521e-01
      3.02451521e-01 1.66815296e-01 1.27387092e-01 1.63117558e-01
      3.02451521e-01 1.19608834e-01 7.72085860e-02 4.35219668e-02
      5.38027398e-02 7.63093978e-02 6.14972226e-02 6.31341040e-02
      3.27523611e-02 1.82224378e-01 1.43456995e-01 9.38477665e-02
      1.29350051e-01 2.57565320e-01 3.02451521e-01 1.07455462e-01
      6.49516135e-02 3.13384160e-02 5.83522581e-02 4.10344526e-02
      8.08905512e-02 2.09998116e-02 2.84529299e-01 2.84529299e-01
      1.34565368e-01 9.27209929e-02 4.32303548e-02 4.11446691e-02
      3.56633775e-02 9.32573751e-02 1.56461403e-01 2.84529299e-01
      2.84529299e-01 1.43615216e-01 2.78510302e-02 1.77841652e-02
      2.84529299e-01 2.22524896e-01 1.98682770e-01 9.15503800e-02
      2.81050891e-01 2.69688606e-01 4.78482954e-02 2.63367612e-02
      1.40882451e-02 1.69709131e-01 1.24420173e-01 2.00345173e-01
      2.01412767e-01 2.84529299e-01 1.71205297e-01 3.36655751e-02
      1.62266329e-01 3.13519359e-01 3.13519359e-01 3.13519359e-01
      7.96496421e-02 1.83701944e-02 3.04467734e-02 2.34137420e-02
      4.64897379e-02 9.63420048e-02 2.82870442e-01 3.13519359e-01
      2.55335987e-01 6.64017498e-02 2.51127873e-02 1.61556117e-02
      1.56231746e-02 2.06329916e-02 2.22348064e-01 2.61949360e-01
      2.58116096e-01 3.05462569e-01 9.96853560e-02 6.79779649e-02
      9.43134800e-02 8.58471990e-02 6.62990585e-02 1.28188431e-01
      1.48695916e-01 1.56633332e-01 1.22192383e-01 4.42582928e-02
      3.51396911e-02 4.09600176e-02 8.09732527e-02 6.27294630e-02
      7.47334138e-02 8.31289142e-02 1.34023279e-01 6.52562082e-02
      4.67996337e-02 8.07894245e-02 5.66397682e-02 9.63976532e-02
      6.54615611e-02 6.07799143e-02 3.31884064e-02 2.97081620e-01
      2.47544914e-01 1.76917240e-01 3.11364383e-01 2.62756884e-01
      2.94491589e-01 1.40003413e-01 1.29286692e-01 1.69448286e-01
      1.92288220e-01 4.28943224e-02 2.14651339e-02 3.97240929e-02
      4.07156684e-02 1.54191971e-01 1.04103267e-01 4.58614677e-02
      2.53154606e-01 3.66234362e-01 2.65819669e-01 8.28100815e-02
      1.23889908e-01 1.22779623e-01 1.90400258e-01 1.05414607e-01
      2.07302310e-02 2.21184026e-02 2.93938130e-01 2.93938130e-01
      2.68944085e-01 2.23369762e-01 1.94696143e-01 1.26188144e-01
      4.85239178e-02 2.30164360e-02 1.43323438e-02 1.89392179e-01
      1.97318003e-01 2.72312969e-01 1.64923951e-01 1.34191602e-01
      4.06985320e-02 2.84940731e-02 1.05407443e-02 1.06104560e-01
      2.93938130e-01 2.80208766e-01 1.48674190e-01 1.04953021e-01
      9.28094015e-02 6.32053986e-02 3.41122262e-02 4.51899655e-02
      1.04599811e-01 2.93938130e-01 2.82707542e-01 1.85965344e-01
      6.47979528e-02 4.63425145e-02 3.27743962e-02 5.54874800e-02
      7.10785463e-02 7.20115826e-02 8.72876570e-02 2.94207484e-02
      3.12729031e-02 7.61387050e-02 2.61878312e-01 2.61878312e-01
      1.22665524e-01 1.39211595e-01 2.25850657e-01 2.61878312e-01
      4.14177030e-02 1.52949318e-02 3.13309245e-02 8.26520473e-02
      1.52270883e-01 1.45276427e-01 8.38943422e-02 5.78122623e-02
      1.05518192e-01 3.10802441e-02 7.32092708e-02 1.30780235e-01
      2.61878312e-01 2.61878312e-01 2.43082732e-01 2.40135416e-01
      2.59924352e-01 2.61878312e-01 4.81999815e-02 5.89104295e-02
      9.22753885e-02 2.29222372e-01 2.37117276e-01 2.61878312e-01
      1.47064105e-01 2.34433576e-01 2.22113863e-01 2.15633921e-02
      6.51982985e-03 7.54864514e-03 1.36477742e-02 1.74501762e-01
      1.64487854e-01 7.73723722e-02 2.41510823e-01 2.75459617e-01
      7.14524463e-02 1.38071934e-02 2.06773467e-02 8.81629437e-03
      9.66652632e-02 1.06213689e-01 2.62964129e-01 2.75459617e-01
      1.70099482e-01 1.47408945e-02 3.93739529e-02 2.88969036e-02
      3.66063416e-02 1.96657956e-01 2.75459617e-01 2.75459617e-01
      2.75459617e-01 2.75459617e-01 2.16666423e-02 6.13259822e-02
      9.72818881e-02 3.10498066e-02 1.96091637e-01 2.70643532e-01
      2.77262889e-02 1.78631812e-01 2.92592585e-01 1.14131890e-01
      3.55134346e-02 3.45590077e-02 8.74434318e-03 3.28745767e-02
      3.88715155e-02 4.87665422e-02 2.05498859e-01 2.92592585e-01
      1.70434162e-01 4.59132530e-02 2.98726447e-02 1.79891121e-02
      3.60332504e-02 4.48736697e-02 1.82305589e-01 2.92592585e-01
      2.92592585e-01 1.62322298e-01 1.51028872e-01 1.93710029e-01
      3.02459728e-02 1.34654537e-01 1.71555951e-01 1.41855627e-01
      2.92592585e-01 2.92592585e-01 2.92592585e-01 2.11412519e-01
      1.33806393e-01 3.06537487e-02 5.00130020e-02 1.10113800e-01</_>
    <_>
      2.70971388e-01 2.86751598e-01 2.86751598e-01 8.91521126e-02
      8.91666859e-02 7.20990226e-02 2.46228445e-02 3.66250686e-02
      1.19121082e-01 2.86751598e-01 2.86751598e-01 2.86751598e-01
      6.25606775e-02 8.69199559e-02 3.08059454e-02 5.53401448e-02
      3.11098788e-02 1.96031839e-01 2.42038861e-01 1.88404724e-01
      2.62254834e-01 1.88662291e-01 1.39480785e-01 5.94410375e-02
      2.09733937e-02 2.47031692e-02 1.12945460e-01 2.86751598e-01
      2.37648979e-01 1.62470251e-01 4.26742844e-02 2.94079948e-02
      2.49590483e-02 2.13092212e-02 2.24774219e-02 1.25904292e-01
      3.02685708e-01 3.02685708e-01 1.87296376e-01 8.90422836e-02
      1.03487231e-01 4.62420695e-02 8.24031234e-02 3.57957482e-02
      2.75305182e-01 3.02685708e-01 3.02685708e-01 1.21175669e-01
      6.68597147e-02 1.73327580e-01 8.79339352e-02 6.49607927e-02
      8.41311738e-02 3.02685708e-01 2.74480164e-01 1.95466444e-01
      5.63745126e-02 3.93799134e-02 8.25288519e-02 4.44191583e-02
      3.73763777e-02 3.52449380e-02 1.26061797e-01 1.71942011e-01
      1.68031380e-01 8.30920860e-02 9.26949382e-02 2.88329631e-01
      9.30304974e-02 3.74172814e-02 5.49711064e-02 1.25852436e-01
      1.77216470e-01 1.74182802e-01 5.80870546e-02 7.65695572e-02
      2.88885683e-01 1.89297065e-01 1.64940029e-01 1.15968324e-01
      1.43832713e-01 3.40824872e-02 1.50086712e-02 1.46547239e-02
      9.65531766e-02 2.88885683e-01 2.88885683e-01 2.88885683e-01
      1.79377496e-01 1.04124703e-01 8.76075476e-02 1.29220098e-01
      9.38823223e-02 1.71459943e-01 2.88885683e-01 8.01887289e-02
      4.48107757e-02 2.97133736e-02 4.79349792e-02 3.51850688e-02
      5.67719378e-02 7.17191175e-02 2.48347476e-01 2.88885683e-01
      2.88885683e-01 1.96033895e-01 5.25183305e-02 6.44671991e-02
      1.04729861e-01 4.05736975e-02 8.87571499e-02 2.07316890e-01
      2.62660533e-01 1.31490335e-01 5.13308346e-02 6.76882789e-02
      1.24153689e-01 1.41111165e-01 8.22509155e-02 5.76258227e-02
      5.77549152e-02 4.76893932e-02 5.72738834e-02 3.56047302e-02
      4.58199978e-02 7.66807497e-02 2.91629106e-01 8.82702395e-02
      8.14787000e-02 1.48241550e-01 2.19420135e-01 2.80412912e-01
      1.12086624e-01 2.60743529e-01 2.91629106e-01 2.91629106e-01
      2.91629106e-01 7.97974095e-02 2.87137553e-02 6.18442483e-02
      1.71446174e-01 6.30030856e-02 2.51427621e-01 2.91629106e-01
      1.11457087e-01 1.07417271e-01 1.00068659e-01 8.38053897e-02
      8.32400024e-02 3.70314568e-02 1.94376148e-02 2.36724764e-02
      2.47066002e-02 1.34414122e-01 3.22551131e-01 3.22551131e-01
      1.89767137e-01 1.97963297e-01 5.76193929e-02 1.99936330e-02
      4.28045169e-02 4.16894443e-02 3.22551131e-01 3.22551131e-01
      1.78476825e-01 8.66658017e-02 3.60953696e-02 1.67945903e-02
      7.38904160e-03 4.07788083e-02 6.70716539e-02 3.22551131e-01
      3.22551131e-01 3.22551131e-01 2.48512313e-01 8.68969262e-02
      9.35806707e-03 3.68732307e-03 1.10138869e-02 1.99857131e-02
      1.21135369e-01 2.84147590e-01 2.84147590e-01 1.69177204e-01
      2.52804935e-01 4.22160216e-02 1.01295430e-02 2.77065001e-02
      3.86558771e-02 5.82529008e-02 1.40599266e-01 1.29583463e-01
      2.34678790e-01 2.84147590e-01 2.30423138e-01 3.34948786e-02
      1.81703977e-02 7.37203732e-02 9.55230668e-02 2.84147590e-01
      2.84147590e-01 1.76032931e-01 7.96746090e-02 2.63981447e-02
      8.11831374e-03 1.15621062e-02 2.12533809e-02 6.58779144e-02
      1.63461566e-01 2.84147590e-01 2.84147590e-01 2.84147590e-01
      6.56113401e-02 1.66011862e-02 1.28215495e-02 3.56110260e-02
      1.91797659e-01 6.72146529e-02 6.82706386e-02 9.33604911e-02
      1.16331860e-01 2.20793724e-01 2.14277446e-01 2.17166454e-01
      2.30293766e-01 2.97572076e-01 2.12456599e-01 4.22473475e-02
      1.11330254e-02 3.23428884e-02 1.10217683e-01 6.66270554e-02
      1.97128266e-01 2.69879013e-01 6.54206127e-02 1.25863506e-02
      3.11648436e-02 3.31468917e-02 8.12994987e-02 1.82802990e-01
      2.97572076e-01 2.97572076e-01 1.30399138e-01 1.31832361e-01
      6.17646016e-02 6.43822327e-02 3.27659994e-02 4.97592837e-02
      8.56522992e-02 2.42761761e-01 2.97572076e-01 2.11383507e-01
      3.31672907e-01 3.31672907e-01 1.04821265e-01 2.72377804e-02
      8.37351661e-03 8.26937798e-03 9.38021857e-03 4.54625487e-02
      9.45334733e-02 2.90290803e-01 3.31672907e-01 3.04574311e-01
      1.02040924e-01 4.05882336e-02 3.55435163e-03 8.13246798e-03
      1.45808132e-02 1.64360255e-02 1.66661873e-01 1.76506877e-01
      1.58624530e-01 4.84210178e-02 7.59660304e-02 1.92800350e-02
      7.65086934e-02 1.64108545e-01 1.07284211e-01 2.47465119e-01
      3.31672907e-01 3.31672907e-01 8.59277770e-02 1.38444617e-01
      6.40567346e-03 2.90157292e-02 7.91252926e-02 4.72084135e-02
      5.11815324e-02 1.99115530e-01 3.41603369e-01 1.09156154e-01
      3.11080124e-02 4.02955292e-03 3.14532733e-03 5.31822862e-03
      6.58641476e-03 5.15727289e-02 1.70710742e-01 3.41603369e-01
      3.41603369e-01 1.00408345e-01 9.16205160e-03 4.43696463e-03
      4.76491731e-03 1.13452468e-02 9.90625098e-02 3.41603369e-01
      3.41603369e-01 9.70232263e-02 5.52524291e-02 1.64148724e-03
      5.28292591e-03 1.51936160e-02 3.21345367e-02 5.55903353e-02
      3.41603369e-01 3.41603369e-01 2.22843647e-01 6.35236725e-02
      1.76786501e-02 3.10202362e-03 2.97715925e-02 2.79968046e-02</_>
    <_>
      9.09194648e-02 1.03200704e-01 1.42552525e-01 1.38576612e-01
      1.28484726e-01 9.65103284e-02 9.12558883e-02 1.06167473e-01
      1.22394465e-01 1.85440183e-01 2.20652699e-01 2.25870460e-01
      2.17314795e-01 1.21695921e-01 1.26377597e-01 8.87692571e-02
      1.35582596e-01 2.01350927e-01 1.04304977e-01 2.83544749e-01
      2.83544749e-01 2.03855991e-01 1.09538153e-01 6.38228953e-02
      9.84113961e-02 7.91322663e-02 9.13994312e-02 2.15245530e-01
      2.83544749e-01 2.83544749e-01 2.12764159e-01 7.00801387e-02
      5.33960015e-02 8.21726397e-02 1.53125077e-01 2.35493183e-01
      1.76897585e-01 2.36379415e-01 1.23200081e-01 1.35460123e-01
      6.30500838e-02 1.00011177e-01 8.26683268e-02 1.68623373e-01
      2.34917209e-01 1.75419375e-01 2.37896323e-01 6.82042167e-02
      6.59152269e-02 3.17818560e-02 4.11320999e-02 1.09162971e-01
      2.45101690e-01 2.45101690e-01 2.45101690e-01 2.45101690e-01
      1.48477420e-01 8.70933905e-02 2.22026873e-02 5.08498959e-02
      9.98588949e-02 2.01264575e-01 2.45101690e-01 2.45101690e-01
      2.45101690e-01 1.66565627e-01 1.41046187e-02 9.40746628e-03
      3.52068767e-02 1.60854876e-01 2.06176266e-01 2.45101690e-01
      1.36637777e-01 1.15105763e-01 9.29418579e-02 5.09256013e-02
      5.30143864e-02 5.24552949e-02 2.58488148e-01 2.71784037e-01
      1.83768615e-01 1.21705666e-01 7.61627853e-02 9.69518796e-02
      9.43788439e-02 1.34548143e-01 1.13819577e-01 2.71784037e-01
      2.35474005e-01 1.03072070e-01 1.94381610e-01 2.17896730e-01
      1.29618481e-01 7.81516545e-03 2.44947132e-02 7.80984908e-02
      2.71784037e-01 2.70911425e-01 2.04257950e-01 9.11138132e-02
      4.14386913e-02 6.93853498e-02 6.10722974e-02 1.14333808e-01
      2.71784037e-01 2.71784037e-01 2.71784037e-01 1.14719272e-01
      1.19428955e-01 3.11931700e-01 3.11931700e-01 1.55318409e-01
      1.04818814e-01 3.00426595e-02 3.57821882e-02 4.36020866e-02
      6.15984164e-02 1.50179744e-01 3.11931700e-01 3.11931700e-01
      6.91091195e-02 4.33125459e-02 1.54313743e-02 3.44348811e-02
      4.54190820e-02 1.14415526e-01 8.92055854e-02 2.61123806e-01
      3.11931700e-01 1.89507589e-01 2.70168096e-01 1.25281245e-01
      1.47245347e-01 4.41970378e-02 5.19820862e-02 4.80259210e-02
      2.21590593e-01 3.11931700e-01 8.32276866e-02 8.63927081e-02
      6.99014440e-02 1.06497422e-01 2.35909466e-02 1.93757415e-02
      2.75513917e-01 2.75513917e-01 2.56221920e-01 2.63051670e-02
      2.08414271e-02 4.37370427e-02 1.58330977e-01 1.88524872e-01
      2.75513917e-01 2.75513917e-01 2.75513917e-01 2.56985158e-01
      1.60986762e-02 3.80797237e-02 8.19788799e-02 2.37032309e-01
      2.01222166e-01 2.75513917e-01 6.69185743e-02 1.60995543e-01
      1.78331077e-01 4.10518534e-02 2.99264733e-02 3.19143161e-02
      7.40393326e-02 7.76343420e-02 6.01053722e-02 1.51901767e-01
      2.41761118e-01 2.00349078e-01 1.03468813e-01 6.85114488e-02
      4.95755859e-02 8.33036229e-02 8.03833008e-02 8.66773874e-02
      9.46347117e-02 1.82725072e-01 1.13041721e-01 1.08413771e-02
      3.49946804e-02 1.21573992e-01 2.73610920e-01 1.19139075e-01
      9.62289721e-02 4.03094515e-02 2.63443198e-02 4.57861237e-02
      4.79773432e-02 2.21758276e-01 2.73610920e-01 2.73610920e-01
      2.31881037e-01 6.90986887e-02 9.25382003e-02 2.73610920e-01
      2.30608881e-01 7.86267444e-02 5.28568439e-02 7.10240602e-02
      1.52817339e-01 4.35839146e-02 3.77212279e-02 6.55388609e-02
      2.73610920e-01 2.38124430e-01 2.21947759e-01 2.73610920e-01
      2.24128798e-01 2.61370748e-01 7.69654587e-02 4.21980582e-02
      3.38254832e-02 2.42765650e-01 2.75291562e-01 2.17651665e-01
      2.54730195e-01 1.65412843e-01 2.14013666e-01 4.03074659e-02
      3.30221839e-02 2.29883082e-02 1.20158173e-01 2.53332824e-01
      9.49647576e-02 8.30264315e-02 8.55883360e-02 1.75434962e-01
      5.01091890e-02 1.88232046e-02 2.40708701e-02 2.09969237e-01
      2.75291562e-01 1.55101463e-01 2.26101786e-01 2.50713944e-01
      2.75291562e-01 5.88425621e-02 3.13630253e-02 1.00278094e-01
      2.75291562e-01 2.75291562e-01 8.63286331e-02 1.17198311e-01
      4.70367670e-02 8.48337710e-02 4.54603136e-02 6.49045780e-02
      2.86570936e-02 1.91323072e-01 1.94027051e-01 4.30124141e-02
      1.48281744e-02 9.15957987e-03 2.50560325e-02 1.70240831e-02
      8.35877005e-03 1.25071570e-01 3.39817971e-01 3.39817971e-01
      1.58078045e-01 3.06090862e-02 7.96473399e-03 1.04926433e-02
      7.81467371e-03 3.86566930e-02 1.31594002e-01 3.39817971e-01
      3.39817971e-01 1.26124188e-01 1.08660474e-01 1.55414417e-02
      1.90749206e-02 1.41781354e-02 6.94979206e-02 2.33507723e-01
      3.39817971e-01 3.39817971e-01 2.17399791e-01 1.11170821e-01
      6.17171489e-02 9.59085859e-03 4.13765339e-03 1.16202183e-01
      1.30627185e-01 2.60764629e-01 2.60764629e-01 1.22007534e-01
      3.31904776e-02 1.20160189e-02 1.23074623e-02 8.14459939e-03
      3.94288115e-02 1.61992610e-01 2.60764629e-01 2.59425223e-01
      2.42723852e-01 1.84793830e-01 4.79253009e-02 1.63365807e-02
      1.70902759e-02 6.74054697e-02 1.93140328e-01 2.60764629e-01
      2.60764629e-01 1.96704239e-01 9.59948376e-02 7.77651146e-02
      2.54731113e-03 9.30453592e-04 6.00908175e-02 2.31323883e-01
      2.60764629e-01 2.60764629e-01 2.60764629e-01 2.34667853e-01
      1.22760415e-01 1.64903107e-03 4.28093737e-03 7.67299235e-02</_>
    <_>
      1.12684600e-01 2.30292693e-01 2.94888586e-01 1.41726613e-01
      1.46813661e-01 4.83452082e-02 3.19428556e-02 6.01538047e-02
      6.54652417e-02 2.34943047e-01 2.94888586e-01 2.94888586e-01
      1.29996598e-01 1.02508657e-01 3.01445816e-02 1.51130296e-02
      4.23786715e-02 1.01747684e-01 6.54748753e-02 2.02218220e-01
      2.94888586e-01 2.94888586e-01 1.90889165e-01 2.82327104e-02
      2.06136014e-02 5.11259772e-02 4.60848585e-02 7.30625242e-02
      2.68819392e-01 2.94888586e-01 2.94888586e-01 7.92268887e-02
      2.37587634e-02 1.80304125e-02 1.00440728e-02 3.69544812e-02
      2.49382526e-01 2.27270544e-01 2.48848945e-01 8.87485668e-02
      4.78902347e-02 1.82379372e-02 1.26842940e-02 4.83389422e-02
      1.84443220e-01 2.49382526e-01 1.41581595e-01 2.28462666e-01
      9.18214768e-02 3.96532677e-02 7.67517984e-02 1.62284955e-01
      2.49382526e-01 2.49382526e-01 1.73226714e-01 2.33810231e-01
      2.49382526e-01 2.49382526e-01 1.67072155e-02 6.49623247e-03
      1.31283076e-02 1.75860487e-02 1.04422309e-01 2.19886407e-01
      1.88359663e-01 2.49382526e-01 1.64149761e-01 2.27979887e-02
      3.32955979e-02 1.05086327e-01 1.71107888e-01 1.94916114e-01
      1.06655933e-01 7.73882642e-02 1.39649108e-01 5.59937693e-02
      6.30430356e-02 1.23175666e-01 2.59029239e-01 2.59029239e-01
      1.98452592e-01 5.68333268e-02 5.99318445e-02 9.70726013e-02
      6.69547319e-02 1.05144888e-01 1.07803218e-01 2.59029239e-01
      2.23277047e-01 8.49887207e-02 6.63218647e-02 8.38183612e-02
      2.02865720e-01 1.02118433e-01 1.11070909e-01 1.31377235e-01
      2.59029239e-01 2.59029239e-01 1.75996751e-01 4.65479493e-02
      6.91906288e-02 1.86247259e-01 1.32045761e-01 2.55340159e-01
      2.59029239e-01 2.59029239e-01 2.59029239e-01 1.17365122e-01
      3.10003292e-02 5.65031804e-02 1.70646176e-01 2.67251074e-01
      2.13904321e-01 7.61152655e-02 8.45326707e-02 1.08209401e-01
      3.95586491e-02 1.77201405e-02 9.86739993e-02 2.67251074e-01
      2.67251074e-01 2.13240311e-01 1.42573550e-01 6.65672943e-02
      2.62032356e-02 1.53884729e-02 6.98074028e-02 5.09640537e-02
      3.10745351e-02 1.33713797e-01 2.23126337e-01 2.16707140e-01
      2.67251074e-01 2.06576079e-01 9.82749984e-02 3.41603644e-02
      3.94400284e-02 1.70380056e-01 2.67251074e-01 2.67251074e-01
      2.67251074e-01 2.61216551e-01 1.81111291e-01 5.23410551e-02
      7.24409893e-02 1.58875674e-01 2.96547443e-01 2.96547443e-01
      1.19044997e-01 1.21962614e-01 5.71274869e-02 5.59496395e-02
      6.70351684e-02 9.19676349e-02 9.94783044e-02 2.89047629e-01
      1.87062994e-01 8.33845809e-02 4.65508252e-02 5.53399101e-02
      6.53148144e-02 1.03392720e-01 5.59444278e-02 5.25384136e-02
      2.06880197e-01 2.65671581e-01 2.96547443e-01 2.96547443e-01
      1.72814667e-01 1.94311947e-01 7.98360035e-02 6.00520112e-02
      9.38898399e-02 2.96547443e-01 2.96547443e-01 1.00241378e-01
      7.64737278e-02 5.27841896e-02 7.75194615e-02 6.75066561e-02
      1.79018024e-02 8.53646025e-02 2.82137632e-01 2.10889578e-01
      1.71217635e-01 8.06445628e-02 6.84254020e-02 6.38426095e-02
      4.84467968e-02 4.34723459e-02 9.27243307e-02 2.82137632e-01
      2.47727305e-01 2.82137632e-01 2.11321175e-01 1.13314629e-01
      5.89159317e-02 5.36643714e-02 3.49626951e-02 1.49202049e-01
      2.82137632e-01 2.82137632e-01 1.65277839e-01 6.68639392e-02
      3.00803278e-02 3.21163982e-02 2.50327047e-02 9.55244675e-02
      1.62338436e-01 2.82137632e-01 2.82137632e-01 2.51492530e-01
      1.80750430e-01 8.50197822e-02 5.96288554e-02 7.24069998e-02
      9.72965360e-02 5.09538166e-02 2.05898639e-02 7.03097433e-02
      1.34558424e-01 1.64872289e-01 2.78776765e-01 2.62863904e-01
      1.23407178e-01 1.04261354e-01 5.51769137e-02 4.53786552e-02
      1.87508941e-01 2.09805027e-01 2.06047907e-01 2.78776765e-01
      2.78776765e-01 1.84716389e-01 1.31448850e-01 1.18710101e-01
      7.15746060e-02 7.90912062e-02 1.17092408e-01 8.23604241e-02
      1.67621762e-01 1.79106161e-01 1.36571437e-01 1.94748491e-01
      1.66529164e-01 7.25817084e-02 1.05175778e-01 8.41723904e-02
      8.37201253e-02 2.77709514e-01 2.78776765e-01 2.28687704e-01
      1.40211150e-01 5.77376932e-02 6.57474846e-02 1.38215378e-01
      8.92757103e-02 9.87160653e-02 1.69081032e-01 2.59279281e-01
      1.76386282e-01 2.12025791e-01 1.12120681e-01 2.59279281e-01
      2.59279281e-01 3.56456749e-02 2.03721579e-02 6.02499023e-02
      1.18778288e-01 1.64857358e-01 2.59279281e-01 1.58646017e-01
      8.52591693e-02 1.05171025e-01 4.15495634e-02 4.00683321e-02
      1.37912631e-01 2.59279281e-01 2.38277242e-01 2.59279281e-01
      1.91416323e-01 2.42634729e-01 1.66808710e-01 3.63000743e-02
      3.09262928e-02 7.21812621e-02 2.13116437e-01 2.59279281e-01
      1.69504970e-01 1.71929136e-01 2.63800651e-01 2.63800651e-01
      8.88016149e-02 4.20753621e-02 8.52290913e-02 1.05880529e-01
      1.43558964e-01 1.88439235e-01 1.39786109e-01 1.40469104e-01
      1.39161304e-01 1.09532028e-01 1.12299964e-01 1.52910709e-01
      2.06433147e-01 2.63800651e-01 2.49777108e-01 1.74627557e-01
      2.19133824e-01 1.03794202e-01 4.76715788e-02 3.79579514e-02
      1.33019730e-01 1.74894318e-01 2.37488866e-01 2.16059908e-01
      9.44875255e-02 5.32194339e-02 5.36910072e-02 4.65004668e-02
      4.69192043e-02 1.78507686e-01 2.63800651e-01 2.63800651e-01</_>
    <_>
      1.65860787e-01 2.32811019e-01 2.63847560e-01 1.23403549e-01
      1.10599905e-01 2.44450886e-02 2.59252042e-02 4.05203737e-02
      1.02940693e-01 2.63847560e-01 2.37410992e-01 2.30530798e-01
      8.38803649e-02 6.44664243e-02 4.84683029e-02 6.71954304e-02
      1.12219110e-01 2.63847560e-01 1.68147042e-01 2.63847560e-01
      2.63847560e-01 1.45741895e-01 7.45728910e-02 2.70043723e-02
      1.38592450e-02 2.78956387e-02 1.30828664e-01 2.22780958e-01
      2.60306805e-01 2.63847560e-01 1.93230316e-01 5.49098067e-02
      1.51598640e-02 5.47190905e-02 1.11165360e-01 2.63847560e-01
      2.02397123e-01 1.14284478e-01 9.82344002e-02 5.37405945e-02
      4.56842259e-02 8.09422731e-02 1.77548379e-01 2.13064477e-01
      2.86526442e-01 8.22914317e-02 1.13710806e-01 7.63639435e-02
      9.61093754e-02 6.72222674e-02 1.29825845e-01 2.86526442e-01
      2.30302945e-01 1.51981175e-01 1.14212856e-01 1.26780719e-01
      1.92528680e-01 1.04980193e-01 3.27069536e-02 4.84868921e-02
      2.40838841e-01 2.86526442e-01 2.77548522e-01 3.75925191e-02
      5.73449470e-02 7.16041625e-02 7.89567530e-02 6.39794171e-02
      1.90311834e-01 2.86526442e-01 2.86526442e-01 1.73803374e-01
      1.16400167e-01 1.53593242e-01 1.64593801e-01 1.72122896e-01
      1.03597142e-01 1.04746096e-01 2.38698855e-01 1.46076888e-01
      1.11398607e-01 1.46014154e-01 1.51734889e-01 1.13250881e-01
      1.59344524e-01 1.36414126e-01 5.39638810e-02 6.82995021e-02
      1.06999904e-01 1.83659896e-01 9.09362659e-02 9.94936377e-02
      1.19130775e-01 1.76389813e-01 1.37701660e-01 2.76638627e-01
      2.76638627e-01 2.76638627e-01 1.42776355e-01 1.47186607e-01
      1.10695690e-01 1.03651822e-01 2.70226419e-01 1.75014421e-01
      1.14492394e-01 1.22065961e-01 2.52412856e-01 2.54128635e-01
      1.79524764e-01 2.88517773e-01 2.88517773e-01 2.66740084e-01
      9.75421965e-02 5.16978204e-02 2.84089260e-02 4.14131470e-02
      2.18514264e-01 1.52976632e-01 2.18051732e-01 2.88517773e-01
      1.81190208e-01 5.53379320e-02 2.37438884e-02 6.28944859e-02
      1.20400839e-01 2.88517773e-01 6.34415895e-02 8.50701481e-02
      2.88517773e-01 2.88517773e-01 2.47757137e-01 1.25183150e-01
      1.17119752e-01 5.42405657e-02 6.96076378e-02 7.33379200e-02
      1.00335397e-01 1.83343157e-01 1.48981318e-01 1.00857526e-01
      4.81185094e-02 4.85420451e-02 6.79920986e-02 7.36548677e-02
      3.79287489e-02 9.73530337e-02 1.76740080e-01 1.20618351e-01
      5.97914979e-02 2.79207863e-02 1.10489257e-01 1.76391542e-01
      1.30637690e-01 3.72608267e-02 1.02302775e-01 2.48206183e-01
      2.12886781e-01 1.58900127e-01 2.05050051e-01 2.82439053e-01
      2.82439053e-01 9.87047330e-02 4.53730561e-02 1.38592720e-01
      2.82439053e-01 2.82439053e-01 1.19224407e-01 4.26196083e-02
      3.96797955e-02 3.00843660e-02 2.06760149e-02 8.26598853e-02
      2.04035863e-01 2.82439053e-01 2.82439053e-01 2.39091203e-01
      1.92178532e-01 1.23825267e-01 4.25613523e-02 3.70705612e-02
      4.19549607e-02 1.04374997e-01 1.55814618e-01 1.92428485e-01
      1.92409560e-01 2.56554246e-01 2.41661862e-01 2.56554246e-01
      6.30527884e-02 7.70051256e-02 1.10628784e-01 7.52127171e-02
      1.91799447e-01 1.51632458e-01 1.13215327e-01 9.85373631e-02
      1.58160001e-01 1.04435958e-01 5.61262630e-02 1.47277847e-01
      2.56554246e-01 2.56554246e-01 2.56554246e-01 2.56554246e-01
      1.74227327e-01 8.28794613e-02 2.58946475e-02 6.98902011e-02
      1.15417503e-01 1.38633877e-01 2.07574651e-01 2.56554246e-01
      2.09685132e-01 1.16396330e-01 1.14189819e-01 8.64850953e-02
      2.46597771e-02 1.79226026e-02 1.57433450e-01 2.14476109e-01
      2.15079084e-01 2.50392556e-01 1.95646673e-01 6.05905689e-02
      3.49154510e-02 3.14370841e-02 8.69432613e-02 2.74759293e-01
      2.07124829e-01 1.41560838e-01 8.61153826e-02 3.29796746e-02
      1.98762752e-02 1.85962673e-02 5.22337519e-02 1.56626292e-02
      2.14622855e-01 2.74759293e-01 2.60324240e-01 2.07071334e-01
      2.59834945e-01 2.03338802e-01 5.59900105e-02 5.08370884e-02
      1.57518476e-01 2.74759293e-01 2.74759293e-01 2.74759293e-01
      9.81606990e-02 6.12279028e-02 4.94447760e-02 1.77649111e-02
      4.44213785e-02 9.55100134e-02 2.79985100e-01 2.79985100e-01
      1.12141609e-01 7.33602718e-02 1.81687791e-02 3.78440181e-03
      2.59709246e-02 1.12333842e-01 1.53835595e-01 2.79985100e-01
      2.79985100e-01 1.62939951e-01 1.50006011e-01 7.27596804e-02
      1.74398010e-03 5.68705313e-02 7.76623189e-02 1.95088521e-01
      2.79985100e-01 2.79985100e-01 2.40482584e-01 9.95170772e-02
      1.48767699e-02 9.74433217e-03 2.69867163e-02 1.53256387e-01
      2.48174623e-01 2.79985100e-01 2.75076598e-01 1.73672199e-01
      1.23398982e-01 2.81794611e-02 4.28559957e-03 6.85861036e-02
      7.69300163e-02 1.11593649e-01 2.50667721e-01 2.50667721e-01
      2.50667721e-01 2.21438527e-01 1.04126580e-01 1.50875738e-02
      3.96596007e-02 8.02661926e-02 4.87886816e-02 2.00868681e-01
      2.31694803e-01 2.35652804e-01 1.46251902e-01 7.45718703e-02
      1.02821745e-01 1.20608911e-01 1.57162353e-01 2.04134047e-01
      2.50667721e-01 2.50667721e-01 1.77018419e-01 1.33438066e-01
      3.77833657e-02 3.03137954e-02 1.60172626e-01 1.92479476e-01
      8.96652862e-02 2.04881236e-01 1.84497163e-01 1.38596535e-01
      1.19498089e-01 7.53672048e-02 1.61858186e-01 2.50667721e-01</_>
    <_>
      6.48632422e-02 6.15686998e-02 4.84233610e-02 5.99082708e-02
      9.17800590e-02 2.69133061e-01 2.69133061e-01 1.10964842e-01
      4.57562841e-02 2.62539148e-01 1.95526063e-01 1.52494267e-01
      1.10465832e-01 8.36161673e-02 1.44381285e-01 1.60291597e-01
      1.40349612e-01 1.35446474e-01 1.18238173e-01 1.61924005e-01
      1.51590049e-01 1.40960470e-01 1.58646673e-01 2.69133061e-01
      2.69133061e-01 4.66389880e-02 3.59716788e-02 2.69133061e-01
      2.69133061e-01 2.69133061e-01 1.93439946e-01 1.22678824e-01
      1.09929778e-01 1.17016695e-01 1.27753213e-01 1.14352472e-01
      2.59755939e-01 1.85966194e-01 1.27281457e-01 6.06993660e-02
      6.18993230e-02 4.87537459e-02 4.10140492e-02 1.39682487e-01
      2.15604529e-01 2.59755939e-01 2.20388040e-01 1.06778786e-01
      3.15651968e-02 5.85275255e-02 6.73816353e-02 1.54435858e-01
      1.71484396e-01 2.59755939e-01 2.59755939e-01 2.59755939e-01
      1.63072467e-01 7.17580393e-02 5.38721085e-02 4.16251421e-02
      4.46575284e-02 2.02089489e-01 2.10321337e-01 2.59755939e-01
      1.92641795e-01 7.96427503e-02 3.58899347e-02 3.57887484e-02
      1.17705442e-01 1.54103026e-01 2.59755939e-01 2.59755939e-01
      1.96267441e-01 1.53509468e-01 7.74160549e-02 3.13260555e-02
      1.03565902e-01 1.52490690e-01 2.45975718e-01 1.67393595e-01
      2.25740835e-01 9.64506045e-02 9.52652171e-02 8.23637396e-02
      9.89606306e-02 1.46442279e-01 2.05780238e-01 1.56813338e-01
      1.14992790e-01 1.50951043e-01 2.45975718e-01 1.35456502e-01
      9.79861915e-02 6.90488443e-02 1.07349209e-01 2.45975718e-01
      2.45975718e-01 2.31122449e-01 2.45975718e-01 1.17545880e-01
      8.05628523e-02 1.15305193e-01 1.67514771e-01 1.81771502e-01
      2.45975718e-01 2.45975718e-01 1.40647531e-01 1.43187240e-01
      1.08536154e-01 1.67450234e-01 2.44413003e-01 2.44413003e-01
      2.37599894e-01 1.79011256e-01 1.08597592e-01 1.76866874e-02
      4.76251803e-02 2.14621663e-01 2.44413003e-01 2.44413003e-01
      2.14237109e-01 1.45988896e-01 7.51032904e-02 2.80728471e-02
      4.93685603e-02 9.26496387e-02 1.07141212e-01 1.34904116e-01
      1.50402248e-01 1.74991488e-01 2.44413003e-01 2.44413003e-01
      2.44413003e-01 6.64469674e-02 6.00613914e-02 2.44413003e-01
      2.44413003e-01 1.34976283e-01 8.62717181e-02 1.15488723e-01
      1.42840385e-01 7.79641122e-02 4.06952947e-02 1.68587670e-01
      2.35829353e-01 2.18467712e-01 1.43963620e-01 9.46256965e-02
      6.67310730e-02 3.80189754e-02 3.54272649e-02 1.14703238e-01
      1.16806343e-01 2.95764863e-01 2.06844315e-01 1.05493598e-01
      6.07166253e-02 4.36439477e-02 1.23339072e-01 1.17774181e-01
      1.91723704e-01 2.49128431e-01 2.95764863e-01 2.95764863e-01
      1.86374873e-01 8.21150690e-02 3.91827822e-02 3.65053043e-02
      4.10662368e-02 2.83018444e-02 1.44703403e-01 2.95764863e-01
      2.95764863e-01 2.95764863e-01 9.97039154e-02 4.84858677e-02
      6.79372624e-02 8.76343027e-02 2.34616958e-02 1.57749265e-01
      1.82311997e-01 1.21394217e-01 9.26093906e-02 1.50309980e-01
      1.50551021e-01 2.43942410e-01 1.89445525e-01 7.96961039e-02
      1.58287257e-01 9.76417661e-02 7.05669001e-02 1.12426348e-01
      2.43942410e-01 2.43942410e-01 2.43942410e-01 1.81358084e-01
      5.19436784e-02 7.78037012e-02 2.42233932e-01 2.43942410e-01
      2.43942410e-01 2.13417828e-01 1.20975159e-01 9.12159905e-02
      7.72258565e-02 1.44266840e-02 1.41424462e-01 9.85486358e-02
      1.99256226e-01 1.90252870e-01 2.43942410e-01 2.43942410e-01
      1.31233513e-01 1.28896177e-01 6.33896142e-02 8.23379084e-02
      1.26104593e-01 1.28902853e-01 5.39057814e-02 6.58859164e-02
      1.81306183e-01 2.71792948e-01 2.71792948e-01 1.75964624e-01
      8.95050913e-02 2.71792948e-01 2.71792948e-01 9.30411145e-02
      5.90182841e-02 1.14249855e-01 1.66974887e-01 2.42465377e-01
      1.12742335e-01 2.71792948e-01 1.38179466e-01 8.15139711e-02
      7.76038989e-02 6.31058812e-02 5.96123934e-02 1.09375916e-01
      2.22432286e-01 1.10843547e-01 1.33257851e-01 2.40971416e-01
      1.11128628e-01 7.29733035e-02 7.30109438e-02 1.27651840e-01
      1.23633496e-01 2.38366380e-01 1.32737890e-01 2.71792948e-01
      2.64943480e-01 2.64943480e-01 1.54657453e-01 9.89031196e-02
      5.98008260e-02 3.87222245e-02 6.74750283e-02 4.78289649e-02
      2.24713877e-01 2.64943480e-01 2.64943480e-01 2.64943480e-01
      1.30375087e-01 1.10077754e-01 5.75119480e-02 7.93179274e-02
      3.33392210e-02 1.45390034e-01 2.00509727e-01 1.30926237e-01
      6.57847449e-02 8.58018175e-02 1.22902267e-01 8.51222202e-02
      1.09977707e-01 1.37175411e-01 2.61294723e-01 1.92687169e-01
      2.64943480e-01 2.34573305e-01 1.42677262e-01 1.57410890e-01
      6.57028183e-02 1.04904853e-01 1.69707507e-01 2.17075080e-01
      2.36393109e-01 2.61241406e-01 2.61241406e-01 2.14333490e-01
      1.60165533e-01 6.10272735e-02 4.51023951e-02 1.69708729e-02
      1.43219709e-01 1.27223656e-01 2.45146558e-01 2.36539006e-01
      2.52346277e-01 1.89613774e-01 7.44164586e-02 1.09161019e-01
      7.98108131e-02 1.36112750e-01 1.72329530e-01 2.61241406e-01
      2.61241406e-01 1.62940919e-01 1.75971419e-01 1.02634840e-01
      1.01507008e-01 8.69685039e-02 1.20577566e-01 1.68799073e-01
      1.18917614e-01 1.90806970e-01 1.26276881e-01 1.31278440e-01
      1.21669076e-01 1.14834934e-01 8.04379508e-02 1.38987526e-01</_>
    <_>
      1.02779448e-01 1.36819065e-01 1.44709393e-01 1.59965292e-01
      1.00414820e-01 2.15940937e-01 1.62869662e-01 1.06185362e-01
      1.14158802e-01 7.20152557e-02 5.41428067e-02 4.07777503e-02
      1.10101469e-01 2.91909128e-01 2.91909128e-01 2.91909128e-01
      1.23786949e-01 4.14579101e-02 1.42165422e-01 1.25289112e-01
      1.38346747e-01 1.25783682e-01 1.33522049e-01 1.48690611e-01
      1.68909326e-01 1.06506519e-01 1.49140760e-01 1.35722965e-01
      9.44394097e-02 6.62216395e-02 1.98179305e-01 2.91909128e-01
      2.91909128e-01 2.91909128e-01 9.34713855e-02 1.04171604e-01
      1.52986506e-02 5.01060635e-02 6.09468110e-02 6.91599399e-02
      2.15190053e-01 2.54966348e-01 2.54966348e-01 1.22845665e-01
      1.62347779e-02 1.00772999e-01 1.46314085e-01 1.97238356e-01
      1.51039183e-01 1.59510314e-01 2.12540582e-01 1.07045963e-01
      1.09227434e-01 8.98181871e-02 4.73828018e-02 8.71473774e-02
      8.74812752e-02 1.31415710e-01 2.26314560e-01 2.54966348e-01
      2.33181387e-01 5.70893995e-02 9.00456533e-02 2.54966348e-01
      2.54966348e-01 2.54966348e-01 2.16996357e-01 1.01596549e-01
      2.16313288e-01 7.20723271e-02 1.14119872e-01 2.54966348e-01
      1.71766713e-01 1.56814486e-01 1.42960280e-01 1.19139597e-01
      7.45863616e-02 8.69917646e-02 4.19790372e-02 5.51393814e-02
      1.34717956e-01 2.30476335e-01 1.79635957e-01 1.54720083e-01
      8.76575336e-02 6.59089088e-02 8.91373828e-02 8.76937807e-02
      8.22851285e-02 1.99590832e-01 2.71481842e-01 2.71481842e-01
      2.44085342e-01 1.18327022e-01 3.13925520e-02 5.65379560e-02
      6.24102429e-02 1.80427507e-01 2.71481842e-01 2.71481842e-01
      2.21748099e-01 1.58819512e-01 3.64742316e-02 3.00582442e-02
      1.05002694e-01 2.11662665e-01 2.71481842e-01 2.71481842e-01
      1.22078478e-01 6.33930862e-02 6.90339357e-02 1.17915943e-01
      1.59438506e-01 1.45113796e-01 1.35910258e-01 7.95699209e-02
      1.12906508e-01 1.39256269e-01 1.26457468e-01 1.81299895e-01
      2.63110399e-01 2.63110399e-01 2.46091843e-01 2.03315347e-01
      6.23970143e-02 8.58458653e-02 1.13688946e-01 1.03686906e-01
      7.52645433e-02 1.47389948e-01 2.08939075e-01 2.28276640e-01
      1.20675482e-01 1.14190660e-01 1.46446183e-01 9.96061638e-02
      1.38017997e-01 2.37991408e-01 2.63110399e-01 2.63110399e-01
      2.63110399e-01 2.18394861e-01 9.41922143e-02 1.00705504e-01
      8.40691030e-02 1.33206308e-01 2.32860073e-01 2.41551787e-01
      1.54965863e-01 1.64224863e-01 1.12695232e-01 2.25186534e-02
      8.96033868e-02 2.16101021e-01 2.39266738e-01 2.41551787e-01
      2.41551787e-01 6.83671683e-02 6.76911622e-02 3.02130356e-02
      6.40406534e-02 2.41551787e-01 9.93709415e-02 1.62997603e-01
      2.41551787e-01 2.41551787e-01 2.41551787e-01 2.36694992e-01
      1.07451111e-01 3.71489264e-02 9.20882523e-02 1.87754884e-01
      1.59324124e-01 2.41551787e-01 1.65323660e-01 1.10884108e-01
      5.88008128e-02 6.56734034e-02 6.05122969e-02 1.89115912e-01
      2.65148878e-01 2.65148878e-01 2.39391148e-01 1.47745386e-01
      2.96738259e-02 2.95682549e-02 4.83252220e-02 1.96558356e-01
      2.65148878e-01 2.65148878e-01 1.36434957e-01 6.54747263e-02
      2.32995152e-02 2.38359626e-02 1.21315479e-01 2.37901956e-01
      2.65148878e-01 2.65148878e-01 1.97364450e-01 1.57612741e-01
      1.47448599e-01 7.49768168e-02 3.56371142e-02 2.93696057e-02
      5.55202849e-02 8.85148272e-02 2.17185929e-01 2.65148878e-01
      1.93111122e-01 8.67770910e-02 3.91869172e-02 3.13963741e-02
      5.33980988e-02 6.80551007e-02 1.07361056e-01 2.65148878e-01
      1.13817275e-01 1.26293361e-01 8.59814584e-02 1.01131722e-01
      2.08900169e-01 2.13732198e-01 9.31223109e-02 9.83679965e-02
      1.56355903e-01 4.79144491e-02 1.01019748e-01 1.31330401e-01
      2.58226991e-01 2.69162863e-01 2.69162863e-01 2.69162863e-01
      1.33477688e-01 1.46893874e-01 2.43811488e-01 1.15890846e-01
      1.10974088e-01 1.16039336e-01 1.14873387e-01 1.13385387e-01
      1.37301534e-01 6.62119910e-02 1.30464032e-01 1.47415847e-01
      9.53095257e-02 1.08572461e-01 1.22848913e-01 1.97431937e-01
      2.12855726e-01 2.69162863e-01 1.78453371e-01 2.32936755e-01
      1.32849246e-01 7.38126487e-02 8.74212757e-02 1.34513602e-01
      2.63996422e-01 2.63996422e-01 2.28484377e-01 8.43849480e-02
      8.68174136e-02 2.63996422e-01 1.64425001e-01 1.29917219e-01
      3.96280624e-02 1.00111566e-01 9.77156013e-02 1.16076045e-01
      1.24833159e-01 2.13838279e-01 1.43355027e-01 5.04775047e-02
      4.27710675e-02 4.81660925e-02 1.19193189e-01 2.15696171e-01
      2.63996422e-01 1.88296884e-01 1.67536959e-01 2.63996422e-01
      1.33409530e-01 1.49707049e-01 3.82868163e-02 7.55548030e-02
      1.54571354e-01 2.20448688e-01 2.28653893e-01 2.63996422e-01
      2.56589442e-01 2.28862822e-01 1.70502707e-01 2.55458765e-02
      1.10816248e-02 2.48793233e-02 3.64357159e-02 1.01435162e-01
      2.33429849e-01 2.56589442e-01 2.56589442e-01 2.06520975e-01
      4.65343781e-02 2.33758166e-02 4.99800034e-02 3.61948386e-02
      5.74520305e-02 2.56589442e-01 2.56589442e-01 2.01026186e-01
      2.16131091e-01 5.16062118e-02 3.99945378e-02 4.96943034e-02
      6.62935674e-02 1.09822445e-01 2.56589442e-01 2.56589442e-01
      2.56589442e-01 2.56589442e-01 6.00080565e-02 1.08889334e-01
      8.23751390e-02 6.51057586e-02 6.92682639e-02 2.48753458e-01</_>
    <_>
      4.84788530e-02 7.26637542e-02 1.07073218e-01 9.28389579e-02
      2.08921507e-01 2.43846685e-01 1.33392990e-01 3.03825941e-02
      1.89312845e-02 2.36324519e-01 2.12249696e-01 2.05058023e-01
      1.65063798e-01 1.20726906e-01 2.35435233e-01 9.96381268e-02
      8.77634659e-02 1.58713296e-01 1.00688696e-01 2.14319646e-01
      2.43846685e-01 2.21788824e-01 2.43846685e-01 1.93507627e-01
      8.01183358e-02 7.64429709e-03 5.64474463e-02 2.23408833e-01
      2.43846685e-01 2.43846685e-01 2.43846685e-01 1.57859191e-01
      6.59681037e-02 3.10322382e-02 5.00034802e-02 1.79786012e-01
      2.50607908e-01 2.50607908e-01 1.86679348e-01 1.07226036e-01
      2.70653330e-02 4.40271460e-02 4.49387468e-02 1.66557848e-01
      2.50607908e-01 2.50607908e-01 1.76165953e-01 7.50655532e-02
      1.31135890e-02 2.03085709e-02 3.11002880e-02 1.51183814e-01
      2.50607908e-01 2.50607908e-01 2.19357803e-01 2.05567971e-01
      2.46686310e-01 1.53429523e-01 3.78560014e-02 1.31677454e-02
      1.91073716e-02 1.14838496e-01 2.16094434e-01 2.40072757e-01
      1.22859836e-01 4.46084887e-02 1.80835556e-02 2.42273379e-02
      3.89876626e-02 2.03530461e-01 2.50607908e-01 2.50607908e-01
      2.33231261e-01 9.73313674e-02 4.93967719e-02 1.50235202e-02
      2.83478331e-02 6.92584738e-02 2.25822315e-01 2.33231261e-01
      2.33231261e-01 1.82299018e-01 8.87993798e-02 7.71884993e-02
      6.69121966e-02 8.49248767e-02 1.65652767e-01 2.33231261e-01
      2.11958826e-01 1.53731182e-01 2.33231261e-01 6.59889877e-02
      2.37697493e-02 3.21382582e-02 9.64247137e-02 1.20287389e-01
      2.33231261e-01 2.09637403e-01 2.33231261e-01 1.88571095e-01
      5.70625551e-02 4.83150966e-02 2.09890872e-01 2.33231261e-01
      2.33231261e-01 2.33231261e-01 2.06650168e-01 1.69186249e-01
      9.47361961e-02 1.43348649e-01 1.83070496e-01 1.76741570e-01
      2.51823455e-01 2.51823455e-01 1.33023575e-01 2.04734541e-02
      7.11018071e-02 2.31392205e-01 2.18413666e-01 2.12416917e-01
      1.13593198e-01 2.04301059e-01 7.82218054e-02 6.61833435e-02
      6.67020380e-02 1.84192717e-01 1.11939713e-01 5.86297736e-02
      5.96171394e-02 7.22645000e-02 2.26213872e-01 2.29689673e-01
      2.51823455e-01 1.05435088e-01 1.17682956e-01 2.51823455e-01
      1.23325683e-01 6.38025850e-02 1.01140976e-01 1.47995874e-01
      1.13368444e-01 2.46859550e-01 1.85019463e-01 2.51823455e-01
      2.59672254e-01 1.54823557e-01 9.74498764e-02 7.44873360e-02
      4.09584381e-02 1.26762129e-02 2.24283580e-02 7.58152232e-02
      1.61745206e-01 2.93434799e-01 1.88359722e-01 6.71437830e-02
      5.13409711e-02 2.69362666e-02 2.92640645e-02 7.39112645e-02
      1.18542030e-01 1.80239022e-01 2.93434799e-01 2.72032648e-01
      5.82805350e-02 1.44457430e-01 1.02492057e-01 5.06278351e-02
      4.87423390e-02 1.17474698e-01 2.93434799e-01 2.93434799e-01
      2.93434799e-01 1.30821481e-01 1.79276064e-01 1.46984771e-01
      1.51291251e-01 6.12264425e-02 1.36143178e-01 2.93434799e-01
      2.54759699e-01 1.05762899e-01 9.43408236e-02 7.84179121e-02
      9.52795073e-02 1.03789017e-01 8.82484689e-02 1.13278911e-01
      1.64655998e-01 1.38711929e-01 6.85848594e-02 1.90119535e-01
      2.54759699e-01 2.48442322e-01 2.54759699e-01 9.14468616e-02
      7.59738535e-02 8.87030587e-02 2.54759699e-01 2.54759699e-01
      2.05750421e-01 1.42803416e-01 7.34081194e-02 9.71351042e-02
      6.68478012e-02 1.42353877e-01 1.95231989e-01 2.54759699e-01
      2.29044631e-01 2.54759699e-01 2.54759699e-01 1.28194824e-01
      1.23737402e-01 3.34137827e-02 6.03710413e-02 1.05990328e-01
      1.19523875e-01 1.09449573e-01 9.82591808e-02 8.23717043e-02
      1.02378562e-01 1.45797312e-01 2.63745368e-01 2.10704699e-01
      1.64021924e-01 2.63745368e-01 8.23482499e-02 1.34241834e-01
      1.69219837e-01 1.31234035e-01 1.34662166e-01 2.63745368e-01
      2.63745368e-01 2.63745368e-01 8.38919431e-02 1.21565126e-01
      9.08549428e-02 1.12223119e-01 7.40536675e-02 1.28580496e-01
      1.60748795e-01 1.24003135e-01 1.51302949e-01 1.41422316e-01
      4.36080508e-02 1.20454788e-01 1.53829113e-01 1.72872320e-01
      2.62149096e-01 1.70909002e-01 2.07431883e-01 2.35178575e-01
      2.50137478e-01 1.51368499e-01 9.49240401e-02 1.51247352e-01
      1.23819873e-01 7.97694921e-02 7.69805312e-02 1.64259642e-01
      2.50137478e-01 2.50137478e-01 2.50137478e-01 1.85184240e-01
      1.81317881e-01 1.56169474e-01 1.36969745e-01 7.98390880e-02
      1.35551363e-01 2.50137478e-01 8.96599889e-02 4.56459746e-02
      7.06761479e-02 9.93297398e-02 1.82473525e-01 2.15111077e-01
      1.29663527e-01 1.64329499e-01 1.51418790e-01 1.61847830e-01
      1.93227291e-01 1.20832942e-01 1.01706915e-01 1.74238101e-01
      1.82304129e-01 2.09208041e-01 1.79100513e-01 2.02424183e-01
      2.53824472e-01 2.53824472e-01 2.53824472e-01 1.77550659e-01
      1.00289993e-01 9.15425643e-02 7.74445832e-02 9.11682248e-02
      1.35542765e-01 2.53824472e-01 2.53824472e-01 2.32967079e-01
      2.42058262e-01 1.19072586e-01 1.02824301e-01 4.90693450e-02
      6.06602989e-02 1.37845054e-01 2.09631413e-01 2.22710788e-01
      1.67446375e-01 1.21961027e-01 1.28757417e-01 9.12229270e-02
      1.37899086e-01 9.66281965e-02 1.47274777e-01 2.53824472e-01
      1.85033187e-01 1.91953078e-01 1.39003009e-01 1.04404643e-01
      1.18207425e-01 9.48593318e-02 8.36137310e-02 1.51273549e-01</_>
    <_>
      1.29643217e-01 1.12589002e-01 2.31679276e-01 1.13856927e-01
      2.31679276e-01 1.21422321e-01 8.03250372e-02 3.76762152e-02
      8.32599699e-02 2.31679276e-01 1.99202165e-01 2.31679276e-01
      1.23753168e-01 2.31679276e-01 1.12418994e-01 5.98725006e-02
      4.52285148e-02 1.58929422e-01 9.72006768e-02 9.94832516e-02
      2.18198732e-01 2.31679276e-01 2.31679276e-01 2.05035761e-01
      1.12174265e-01 4.58306149e-02 7.74043277e-02 2.31679276e-01
      1.81548253e-01 2.31679276e-01 2.02746257e-01 2.31679276e-01
      1.63657784e-01 5.33351861e-02 6.61909506e-02 2.29495510e-01
      2.76724070e-01 2.58885443e-01 2.16141015e-01 1.14878021e-01
      1.37097374e-01 5.45105301e-02 4.20030840e-02 9.77201760e-02
      2.76724070e-01 2.76724070e-01 1.33686692e-01 7.83826709e-02
      6.94753677e-02 1.02836452e-01 4.20957357e-02 1.38517007e-01
      1.97936773e-01 2.76724070e-01 2.76724070e-01 1.75301939e-01
      1.92480356e-01 9.37354937e-02 8.38359147e-02 3.51383537e-02
      1.57029238e-02 8.93931910e-02 2.76724070e-01 2.53357142e-01
      7.04893768e-02 7.24095106e-02 3.49706113e-02 4.45053652e-02
      3.18268910e-02 1.08942591e-01 1.34445161e-01 2.76724070e-01
      1.78079799e-01 6.60475716e-02 1.23991203e-02 2.16607377e-02
      5.49062975e-02 9.85653177e-02 2.44102940e-01 2.22802237e-01
      2.44102940e-01 1.40238196e-01 5.58074638e-02 3.85701433e-02
      3.60264666e-02 7.48400465e-02 2.23467991e-01 2.44102940e-01
      2.44102940e-01 2.44102940e-01 1.54952064e-01 3.21581326e-02
      1.45036867e-02 2.36716513e-02 5.12837544e-02 6.13403879e-02
      2.34524563e-01 1.79990098e-01 2.42022365e-01 1.78336322e-01
      1.60107818e-02 4.84447367e-02 1.40794992e-01 2.44102940e-01
      2.44102940e-01 2.44102940e-01 2.20679253e-01 2.44102940e-01
      1.03485994e-01 4.61500362e-02 7.08076358e-02 2.03581616e-01
      2.47121885e-01 2.24770710e-01 1.96386874e-01 1.09617919e-01
      6.78854361e-02 2.47121885e-01 5.96879981e-02 9.89063829e-02
      1.69519380e-01 2.10641071e-01 1.82825640e-01 1.81910947e-01
      1.57443866e-01 1.98713243e-01 1.04875162e-01 2.08219290e-02
      4.84282933e-02 7.12464079e-02 1.23346590e-01 1.88965395e-01
      2.39914104e-01 1.77334383e-01 1.47784531e-01 2.47121885e-01
      5.89826144e-02 1.07916832e-01 7.42624253e-02 9.40926969e-02
      1.96831107e-01 2.47121885e-01 2.47121885e-01 2.47121885e-01
      2.89691299e-01 9.02534127e-02 6.12489097e-02 4.68047000e-02
      3.76719423e-02 3.41264270e-02 5.61476834e-02 1.55548528e-01
      2.80368418e-01 2.89691299e-01 9.66310278e-02 5.61218373e-02
      3.10560465e-02 5.26306331e-02 1.97948609e-02 2.87097078e-02
      1.23903826e-01 2.89691299e-01 2.89691299e-01 9.95828807e-02
      1.21307157e-01 9.17180702e-02 7.36949146e-02 1.26733333e-01
      1.60891324e-01 2.09776640e-01 2.89691299e-01 2.89691299e-01
      1.68656111e-01 1.19341314e-01 1.00794524e-01 1.63811043e-01
      8.85301456e-02 1.07655369e-01 1.75228298e-01 2.89691299e-01
      2.52860069e-01 5.64355850e-02 3.97319719e-02 3.39642577e-02
      6.67001456e-02 2.36753859e-02 5.38827181e-02 6.83471486e-02
      2.52860069e-01 1.98515087e-01 8.20452496e-02 1.62681758e-01
      2.52860069e-01 2.52860069e-01 1.07503399e-01 9.81620774e-02
      6.15135767e-02 2.07264692e-01 2.52860069e-01 1.92728862e-01
      1.19639687e-01 9.57687274e-02 1.27774164e-01 7.94807374e-02
      1.59902617e-01 9.66691226e-02 2.52860069e-01 2.52860069e-01
      2.15338096e-01 2.52860069e-01 2.52860069e-01 1.55507579e-01
      9.71385762e-02 1.14079624e-01 4.65973131e-02 2.22769126e-01
      1.25814632e-01 4.06121761e-02 6.75093830e-02 6.85466081e-02
      1.22444130e-01 2.05817908e-01 1.96471438e-01 1.72218725e-01
      1.88809887e-01 1.24628924e-01 3.15427333e-02 1.61781013e-01
      1.38093799e-01 1.58166692e-01 2.52422065e-01 2.52422065e-01
      2.52422065e-01 2.26635620e-01 1.89896435e-01 4.81467843e-02
      7.06080049e-02 1.17310211e-01 1.64715588e-01 1.49394646e-01
      2.20536023e-01 1.20481916e-01 1.73454508e-01 8.58512819e-02
      1.47650028e-02 9.74169374e-02 1.54105261e-01 2.52422065e-01
      2.52422065e-01 2.52422065e-01 1.48134321e-01 1.62611052e-01
      1.92784548e-01 3.70176099e-02 1.22302257e-01 1.05464190e-01
      1.11473247e-01 1.90799937e-01 2.06051365e-01 1.58831015e-01
      2.16186374e-01 2.50635952e-01 2.20207036e-01 1.52411893e-01
      1.02838308e-01 1.46190360e-01 1.39188901e-01 1.98227853e-01
      1.34508163e-01 2.50635952e-01 5.69022559e-02 1.26082702e-02
      6.36722296e-02 1.10109664e-01 2.50635952e-01 2.50635952e-01
      1.98326021e-01 8.65572840e-02 7.17441365e-02 1.75487652e-01
      1.07809156e-01 1.00585766e-01 1.06123611e-01 2.50635952e-01
      2.21353203e-01 1.94141567e-01 1.32189393e-01 1.88675195e-01
      2.37906620e-01 2.37906620e-01 1.77316695e-01 1.62698627e-01
      1.27638519e-01 1.11234449e-01 1.87246323e-01 8.46098661e-02
      1.90280363e-01 2.37906620e-01 2.26992801e-01 2.28461638e-01
      2.35851467e-01 1.20975688e-01 1.31980956e-01 1.40129551e-01
      7.73588791e-02 1.77394480e-01 1.95092559e-01 1.32121861e-01
      9.87643972e-02 1.13712013e-01 1.76464528e-01 1.25356779e-01
      8.97515342e-02 9.31886211e-02 1.80456161e-01 2.21914411e-01
      1.63001493e-01 2.16131121e-01 1.41355619e-01 1.46613032e-01
      1.28013670e-01 1.38159946e-01 1.15886755e-01 1.64499685e-01</_>
    <_>
      1.58271104e-01 2.84415275e-01 2.84415275e-01 8.50520208e-02
      4.38803174e-02 4.42257784e-02 8.14575236e-03 4.65307459e-02
      3.33506428e-02 2.65273243e-01 2.84415275e-01 2.84415275e-01
      9.88353640e-02 5.35701998e-02 4.88764867e-02 1.08057326e-02
      7.33391270e-02 1.11573972e-01 1.13437779e-01 2.84415275e-01
      2.84415275e-01 1.94316089e-01 9.63296816e-02 3.05044595e-02
      5.34153543e-03 3.77429537e-02 2.96352562e-02 1.63437277e-01
      2.84415275e-01 2.84415275e-01 2.84415275e-01 1.46738857e-01
      2.66559515e-02 6.38781628e-03 8.96733031e-02 7.79417232e-02
      2.74508685e-01 2.74508685e-01 2.02427790e-01 6.68377951e-02
      4.38740514e-02 3.56423892e-02 2.99745295e-02 1.47410676e-01
      2.34565660e-01 2.74508685e-01 1.28461972e-01 5.80373183e-02
      4.03666310e-02 3.05441339e-02 5.26132295e-03 7.28325024e-02
      2.74508685e-01 2.74508685e-01 1.73500240e-01 2.12008253e-01
      2.74508685e-01 2.20758930e-01 7.81607553e-02 3.22686583e-02
      2.45419126e-02 1.63739592e-01 1.34287015e-01 2.04296932e-01
      6.69350028e-02 8.52846950e-02 5.13257980e-02 3.82728130e-02
      3.17067914e-02 7.33901262e-02 2.74508685e-01 2.74508685e-01
      2.77511120e-01 9.42522064e-02 5.80866262e-02 2.82686912e-02
      3.64865027e-02 1.69895999e-02 1.14208445e-01 2.77511120e-01
      2.77511120e-01 1.36915013e-01 6.30617291e-02 7.11242557e-02
      5.18688336e-02 3.50955836e-02 7.86249936e-02 2.77511120e-01
      2.77511120e-01 2.42827237e-01 1.30132005e-01 1.61917862e-02
      1.46141604e-01 1.10220850e-01 1.38264313e-01 9.94612053e-02
      1.02323249e-01 2.77511120e-01 2.77511120e-01 5.17126545e-02
      1.70646738e-02 1.03435822e-01 1.04377478e-01 1.34628370e-01
      1.83214411e-01 2.77511120e-01 2.77511120e-01 1.14504375e-01
      7.32990727e-02 2.35830069e-01 3.10467690e-01 2.51604497e-01
      1.35294497e-01 3.43139470e-02 1.38158640e-02 5.62661216e-02
      3.39643098e-02 1.17974862e-01 2.36205906e-01 3.10467690e-01
      3.10467690e-01 1.55387253e-01 1.87579822e-02 7.28876377e-03
      7.94092417e-02 5.47790118e-02 2.84529906e-02 1.59447625e-01
      3.10467690e-01 3.10467690e-01 1.25700235e-01 3.24559323e-02
      2.12382693e-02 3.00604552e-02 3.45280170e-02 1.46022821e-02
      1.30965158e-01 3.10467690e-01 3.10467690e-01 7.21661597e-02
      1.55979134e-02 8.44881497e-03 3.05366386e-02 2.93001328e-02
      1.68414593e-01 1.81663617e-01 2.73043811e-01 2.73043811e-01
      1.29679471e-01 4.22240309e-02 1.56534892e-02 1.09201506e-01
      1.08867511e-01 1.62753806e-01 3.60774323e-02 1.61328658e-01
      1.45223156e-01 1.71566710e-01 1.19535148e-01 1.31594390e-01
      2.73043811e-01 2.52102405e-01 5.50466590e-02 9.94936898e-02
      2.73043811e-01 2.03565851e-01 9.49637666e-02 3.33865099e-02
      1.55998105e-02 5.68311363e-02 6.00415319e-02 1.44264966e-01
      6.29219636e-02 1.95597574e-01 2.57222503e-01 2.05353752e-01
      1.21946573e-01 1.27781019e-01 2.73043811e-01 2.16505870e-01
      4.81901839e-02 2.28215987e-03 2.45352864e-01 2.25733936e-01
      2.45352864e-01 1.78266957e-01 1.20239653e-01 2.45352864e-01
      1.25742182e-01 2.69880351e-02 2.97249225e-03 1.47400051e-01
      1.71452701e-01 2.45352864e-01 1.89410731e-01 1.39223889e-01
      1.53559551e-01 4.58881967e-02 7.75758326e-02 6.02748804e-02
      2.43856937e-01 2.45352864e-01 2.45352864e-01 1.71766311e-01
      1.13614753e-01 2.45027497e-01 1.20944880e-01 5.48446998e-02
      7.42077529e-02 1.81960002e-01 2.45352864e-01 2.45352864e-01
      1.53616726e-01 4.24088798e-02 1.07699379e-01 5.48743941e-02
      2.98939981e-02 2.24113584e-01 2.68257469e-01 2.68257469e-01
      1.35482237e-01 3.61125171e-02 6.10487647e-02 4.04885858e-02
      2.86570769e-02 1.71733834e-02 1.15439013e-01 2.64263242e-01
      2.68257469e-01 7.39333108e-02 1.47976419e-02 2.05378626e-02
      2.18549054e-02 2.35781409e-02 7.60647058e-02 1.78385749e-01
      2.30314955e-01 1.71120584e-01 8.28717798e-02 4.87932377e-02
      1.58809781e-01 2.68257469e-01 2.47743443e-01 1.95647627e-01
      1.23092800e-01 2.68257469e-01 1.20169409e-01 6.17901422e-02
      2.81864218e-02 1.94311455e-01 2.68257469e-01 2.68257469e-01
      5.17232753e-02 7.45680481e-02 1.37414292e-01 6.24022149e-02
      2.96210218e-02 1.13245286e-02 1.57363508e-02 3.14487442e-02
      8.40196684e-02 1.38034925e-01 1.19919576e-01 2.84799874e-01
      2.38565102e-01 9.14083198e-02 2.56454181e-02 2.18487438e-02
      7.52951577e-02 1.87471628e-01 2.57919878e-01 1.82628363e-01
      2.84799874e-01 1.25716448e-01 5.54336086e-02 2.38948092e-02
      6.60450459e-02 1.06729463e-01 2.84799874e-01 2.84799874e-01
      2.84799874e-01 2.84799874e-01 2.62305349e-01 8.77192467e-02
      2.92587895e-02 2.27744076e-02 1.88306630e-01 2.84799874e-01
      8.00397024e-02 1.27233610e-01 2.60089844e-01 2.60089844e-01
      1.32045820e-01 3.47487926e-02 1.85717978e-02 5.86605854e-02
      9.74271446e-02 8.40413719e-02 1.44837886e-01 2.41651714e-01
      1.90160751e-01 1.02192067e-01 3.23752463e-02 1.67939272e-02
      3.69353592e-02 9.31535959e-02 2.40397453e-01 2.60089844e-01
      2.60089844e-01 2.60089844e-01 1.09109730e-01 2.73561701e-02
      4.58407439e-02 1.48738280e-01 1.81417733e-01 1.82745203e-01
      2.60089844e-01 2.60089844e-01 2.03975037e-01 2.60089844e-01
      8.56235921e-02 5.88721819e-02 9.33284312e-02 1.87636644e-01</_>
    <_>
      1.77322313e-01 2.52474666e-01 2.33698294e-01 1.93191156e-01
      1.25811875e-01 5.14431559e-02 4.23757806e-02 2.34257001e-02
      1.04587279e-01 1.70627251e-01 2.85653770e-01 2.85653770e-01
      1.61418289e-01 7.77857676e-02 3.27777900e-02 2.39478815e-02
      4.39872742e-02 8.60234797e-02 1.10407889e-01 2.31764659e-01
      2.32541397e-01 2.64659941e-01 2.31443137e-01 7.33591020e-02
      2.76275091e-02 4.04717922e-02 7.00293183e-02 7.59347379e-02
      2.85653770e-01 2.85653770e-01 2.85653770e-01 1.48828894e-01
      7.72922561e-02 6.26594871e-02 4.16735746e-02 4.73166592e-02
      2.11038738e-01 2.62782276e-01 2.62782276e-01 8.48767906e-02
      4.33479026e-02 3.04551143e-02 2.80976798e-02 7.29782507e-02
      1.04457475e-01 2.33519986e-01 2.62782276e-01 2.62782276e-01
      1.50500327e-01 5.60593531e-02 4.04925980e-02 1.31632909e-01
      2.62782276e-01 2.13031620e-01 1.77460968e-01 2.62782276e-01
      2.62782276e-01 1.77010044e-01 6.60221055e-02 3.54777463e-02
      6.27942681e-02 8.45122188e-02 9.83921662e-02 1.78715378e-01
      2.19714686e-01 2.34660566e-01 8.53947848e-02 6.40661940e-02
      3.44023481e-02 9.21762660e-02 1.55690938e-01 1.67149603e-01
      7.78734833e-02 7.96249583e-02 6.98661283e-02 7.00819567e-02
      5.72404712e-02 7.05885664e-02 2.68344223e-01 2.68344223e-01
      2.06881553e-01 4.75377962e-02 3.06320898e-02 3.51729430e-02
      9.17591900e-02 1.15137689e-01 2.37453595e-01 2.68344223e-01
      2.68344223e-01 2.18813017e-01 4.85745929e-02 1.07865080e-01
      1.17999278e-01 8.58710781e-02 6.34775087e-02 3.68996859e-02
      1.29599124e-01 2.10973948e-01 1.33147359e-01 3.12439166e-02
      1.63857222e-01 1.91264704e-01 2.15143725e-01 2.28587970e-01
      2.35443056e-01 2.68344223e-01 2.68344223e-01 1.53420284e-01
      5.72099425e-02 6.80049956e-02 1.47832841e-01 1.75525203e-01
      1.81827158e-01 1.05460867e-01 9.60093662e-02 3.91051583e-02
      8.54515582e-02 1.54907042e-02 1.42144367e-01 2.69819409e-01
      2.69819409e-01 2.08040446e-01 2.01935500e-01 1.98558792e-01
      2.90609561e-02 2.00922769e-02 5.34071848e-02 2.77964268e-02
      5.85618094e-02 1.94104373e-01 2.27098718e-01 1.95436910e-01
      2.69819409e-01 1.45327523e-01 1.18782364e-01 1.53575195e-02
      9.62999463e-02 1.75879598e-01 2.69819409e-01 2.69819409e-01
      2.69819409e-01 2.69819409e-01 9.07617584e-02 3.61173190e-02
      7.20205009e-02 1.74159110e-01 2.79270262e-01 2.68533796e-01
      1.76712662e-01 1.39682233e-01 1.56626403e-01 4.47828397e-02
      4.94229831e-02 1.02360010e-01 1.03491612e-01 1.61159977e-01
      9.64726880e-02 1.57127291e-01 6.47482798e-02 7.38098323e-02
      7.04890192e-02 8.45550001e-02 8.95343572e-02 1.15871221e-01
      1.58663094e-01 2.49216706e-01 2.79270262e-01 2.79270262e-01
      2.25552261e-01 6.89580962e-02 7.10940063e-02 1.18187629e-01
      1.97264194e-01 2.79270262e-01 2.79270262e-01 2.70684123e-01
      8.03227723e-02 3.98137085e-02 8.56273845e-02 7.78361186e-02
      4.18423265e-02 1.30184576e-01 2.22717494e-01 1.18301913e-01
      1.23367622e-01 4.89793047e-02 4.54860143e-02 3.03448681e-02
      2.96309032e-02 4.19894159e-02 2.38314748e-01 2.72812009e-01
      2.72812009e-01 2.72812009e-01 1.37469009e-01 8.84785578e-02
      6.12257421e-02 5.06796874e-02 6.96052015e-02 1.77406028e-01
      2.72812009e-01 2.72812009e-01 2.23280385e-01 6.44079968e-02
      3.82969603e-02 4.88906689e-02 5.73372096e-02 1.01911053e-01
      2.67278671e-01 2.72812009e-01 2.72812009e-01 2.72812009e-01
      1.08340286e-01 7.44180828e-02 4.58559133e-02 8.83838534e-02
      3.79242152e-02 4.65714782e-02 2.85950769e-02 1.52615592e-01
      1.93459749e-01 1.79511726e-01 2.70365328e-01 2.21831203e-01
      9.48769823e-02 2.54469886e-02 6.05628900e-02 8.50954726e-02
      2.63271213e-01 2.44524106e-01 1.94668770e-01 2.70365328e-01
      2.70365328e-01 1.28654584e-01 5.98221682e-02 1.16816603e-01
      6.90657645e-02 1.19361363e-01 1.68803841e-01 1.16390400e-01
      2.20214844e-01 1.83009997e-01 1.05848663e-01 6.00359030e-02
      9.71171632e-02 5.72348610e-02 8.41728300e-02 9.73522142e-02
      1.11803204e-01 2.70365328e-01 2.70365328e-01 2.53526330e-01
      4.73047644e-02 4.39579152e-02 8.91426727e-02 1.24604464e-01
      1.19288355e-01 9.09321681e-02 2.18741849e-01 1.85729250e-01
      1.19574219e-01 5.81813566e-02 2.04530597e-01 2.66397715e-01
      2.66397715e-01 1.45642430e-01 3.26263048e-02 4.64369729e-02
      8.40463564e-02 7.71019459e-02 1.09922692e-01 7.82759115e-02
      8.97919461e-02 8.77575576e-02 6.45847172e-02 6.16492443e-02
      2.66397715e-01 2.66397715e-01 2.66397715e-01 2.41598278e-01
      2.43592933e-01 2.66397715e-01 2.52486795e-01 1.04289167e-01
      3.66335399e-02 9.98013243e-02 1.59815431e-01 2.66397715e-01
      5.52922376e-02 2.63316453e-01 2.63316453e-01 2.63316453e-01
      1.92640916e-01 4.87867035e-02 2.72649080e-02 7.43998662e-02
      7.19211698e-02 1.01572968e-01 2.38212660e-01 2.63316453e-01
      2.63316453e-01 2.55518943e-01 5.43804690e-02 6.16954565e-02
      1.02285556e-01 1.23189919e-01 1.46575779e-01 2.63316453e-01
      2.63316453e-01 1.66194797e-01 1.02813341e-01 3.35733145e-02
      6.14896417e-02 7.57027343e-02 1.41089663e-01 1.11455105e-01
      2.05565095e-01 2.24917129e-01 8.36034939e-02 1.03512257e-01
      4.12825756e-02 1.46522015e-01 1.74551681e-01 1.62582159e-01</_>
    <_>
      6.39377981e-02 9.47107300e-02 1.57781169e-01 1.48002356e-01
      1.39692336e-01 8.97461325e-02 1.19869791e-01 4.62408774e-02
      4.28819060e-02 1.06070615e-01 2.45293513e-01 2.59674072e-01
      2.59674072e-01 1.89961880e-01 1.09748274e-01 7.31370449e-02
      5.71634658e-02 6.83414564e-02 8.08371156e-02 1.18098430e-01
      1.29947737e-01 1.91093966e-01 2.59674072e-01 2.14654535e-01
      1.47866026e-01 8.65646228e-02 3.80456783e-02 2.59674072e-01
      2.59674072e-01 2.59674072e-01 2.59674072e-01 2.59674072e-01
      2.00619400e-01 5.85057102e-02 5.28905727e-02 1.48711532e-01
      2.38093674e-01 1.21575147e-01 2.33330652e-01 9.55103561e-02
      9.05198827e-02 4.86782864e-02 3.45559679e-02 7.65635744e-02
      1.85613304e-01 2.79266953e-01 6.10166453e-02 3.74743827e-02
      1.48925493e-02 3.97625789e-02 1.57938413e-02 6.22483604e-02
      2.17310071e-01 2.79266953e-01 2.79266953e-01 2.68878132e-01
      2.67224491e-01 7.65868649e-02 5.89651503e-02 3.51361819e-02
      7.34388269e-03 7.05949739e-02 2.79266953e-01 2.79266953e-01
      7.07498416e-02 6.93198815e-02 1.63254663e-02 2.75856722e-02
      4.68231663e-02 1.83152869e-01 2.79266953e-01 2.79266953e-01
      9.80932564e-02 3.05991154e-02 2.35013515e-02 1.04659526e-02
      3.33104879e-02 4.70724292e-02 2.74726510e-01 2.93765008e-01
      2.24849850e-01 4.42193933e-02 7.99809024e-03 2.07920726e-02
      2.27910317e-02 8.67292807e-02 1.82550550e-01 2.93765008e-01
      2.93765008e-01 1.15179263e-01 8.90473947e-02 1.17051173e-02
      1.34106595e-02 2.10105814e-02 4.00588401e-02 1.23909205e-01
      2.93765008e-01 2.93765008e-01 2.93765008e-01 7.75084794e-02
      1.67571772e-02 3.57964262e-02 9.21615586e-02 1.19884193e-01
      2.93765008e-01 2.93765008e-01 2.05897003e-01 1.02685541e-01
      5.21661825e-02 7.92397559e-02 1.17095582e-01 1.58487752e-01
      2.13307068e-01 2.26183444e-01 1.40915930e-01 8.41411650e-02
      4.69300821e-02 1.99842483e-01 1.69628292e-01 1.51508585e-01
      1.99948072e-01 2.62041986e-01 2.62041986e-01 1.51295856e-01
      8.66253749e-02 1.46143004e-01 5.81364483e-02 1.02810614e-01
      9.64243039e-02 1.16171710e-01 1.44555032e-01 2.04075873e-01
      1.53793544e-01 1.22732475e-01 1.12870321e-01 1.29322931e-01
      7.10660145e-02 4.47912440e-02 9.87082347e-02 2.32394964e-01
      2.62041986e-01 2.62041986e-01 2.62041986e-01 2.42388815e-01
      2.55760729e-01 1.57856524e-01 1.46851212e-01 4.84424457e-02
      7.68407956e-02 8.38269144e-02 5.60428686e-02 7.38037974e-02
      2.40830868e-01 2.10594773e-01 6.33522272e-02 6.86833784e-02
      4.33647856e-02 4.98860925e-02 7.56852031e-02 1.81510076e-01
      2.23742962e-01 2.70259291e-01 2.49933198e-01 5.04691042e-02
      2.04793960e-02 2.54430287e-02 8.64881724e-02 1.47781268e-01
      2.70259291e-01 2.70259291e-01 2.70259291e-01 2.70259291e-01
      1.23682834e-01 6.58733100e-02 4.77912910e-02 4.33495753e-02
      4.39851247e-02 1.57910988e-01 2.70259291e-01 2.70259291e-01
      7.50509873e-02 1.81695186e-02 3.79860178e-02 8.09849128e-02
      1.22347601e-01 1.49469346e-01 2.49568015e-01 2.41184279e-01
      2.25243613e-01 4.89867330e-02 4.50250767e-02 1.13825433e-01
      2.49568015e-01 2.49568015e-01 2.49568015e-01 2.29209334e-01
      1.32709056e-01 9.08968225e-02 1.38602793e-01 1.39082268e-01
      1.70909792e-01 1.98786169e-01 1.53149933e-01 6.99404404e-02
      9.04130563e-02 1.70774773e-01 2.49568015e-01 7.23934621e-02
      1.68694258e-01 2.49568015e-01 2.49568015e-01 2.49568015e-01
      1.40874118e-01 8.31659585e-02 6.98268786e-02 7.04061612e-02
      8.41519982e-02 1.54324606e-01 6.71171471e-02 7.05839321e-02
      1.19014800e-01 1.62446275e-01 1.94118932e-01 1.48262262e-01
      1.38722315e-01 1.26718372e-01 9.39330980e-02 4.48223390e-02
      9.12078917e-02 2.02017635e-01 2.69227445e-01 2.69227445e-01
      2.69227445e-01 2.08332703e-01 9.34899375e-02 1.81723535e-01
      1.95002049e-01 9.77644101e-02 1.14528202e-01 1.06639005e-01
      1.78782150e-01 1.68019310e-01 1.59426421e-01 1.25088722e-01
      1.16161808e-01 1.15796104e-01 1.60680503e-01 2.69227445e-01
      2.20317855e-01 2.60644376e-01 1.56693384e-01 1.38799384e-01
      1.28184229e-01 6.09275587e-02 1.82197578e-02 6.53630793e-02
      1.61574155e-01 1.61787242e-01 2.58621305e-01 2.58621305e-01
      1.97559386e-01 2.34683424e-01 2.02826574e-01 1.01370916e-01
      5.41000701e-02 1.08073905e-01 6.72917888e-02 1.70483470e-01
      2.58621305e-01 2.58621305e-01 4.10892665e-02 5.01802973e-02
      3.94323952e-02 1.59475580e-01 2.58621305e-01 2.58621305e-01
      1.97012231e-01 7.89363459e-02 4.88385223e-02 1.36152804e-01
      1.31508797e-01 1.09056003e-01 1.74590334e-01 2.58621305e-01
      2.58621305e-01 1.30623862e-01 7.73541182e-02 1.08208537e-01
      2.47485816e-01 2.52011389e-01 2.52011389e-01 1.38146639e-01
      7.81394765e-02 3.44661660e-02 5.19956574e-02 2.37430930e-01
      2.52011389e-01 1.66700318e-01 2.52011389e-01 2.52011389e-01
      2.40058199e-01 1.87100679e-01 6.73947558e-02 3.28220800e-02
      9.14722383e-02 1.24644302e-01 2.48840362e-01 2.11843312e-01
      1.35278001e-01 1.16927482e-01 1.23662047e-01 9.80201140e-02
      7.01751560e-02 1.04110204e-01 1.81946993e-01 1.89823195e-01
      2.05569223e-01 1.40574589e-01 1.09187409e-01 7.65743181e-02
      8.21045563e-02 7.07795024e-02 1.15252063e-01 1.72829717e-01</_>
    <_>
      1.00706056e-01 1.60968974e-01 2.80461878e-01 2.02578932e-01
      1.09976627e-01 8.52076858e-02 3.79572250e-02 2.38891579e-02
      5.63784614e-02 2.80461878e-01 1.52209446e-01 1.02100320e-01
      4.62936051e-02 6.26977906e-02 1.70867518e-02 3.77841629e-02
      6.04025647e-02 2.28721038e-01 2.80461878e-01 2.80461878e-01
      2.80461878e-01 1.87033072e-01 5.98911121e-02 8.03527012e-02
      4.04385999e-02 2.24929731e-02 2.03084365e-01 2.80461878e-01
      2.20512554e-01 2.80461878e-01 4.94113825e-02 5.73409954e-03
      3.95542756e-03 3.91671807e-02 1.66982904e-01 2.80461878e-01
      2.62311816e-01 6.11445792e-02 2.73185577e-02 3.55417561e-03
      2.51349527e-02 2.69862283e-02 7.75379762e-02 1.05881028e-01
      2.87508309e-01 1.39538974e-01 3.06795463e-02 2.96372529e-02
      8.11276026e-03 4.58958484e-02 1.12919733e-01 2.87508309e-01
      2.87508309e-01 2.40058705e-01 2.87508309e-01 4.59842831e-02
      3.58761400e-02 9.71302949e-03 1.54035250e-02 4.82921451e-02
      1.06984630e-01 2.87508309e-01 2.87508309e-01 1.19847462e-01
      2.06165873e-02 4.51017963e-03 1.56586114e-02 7.06379786e-02
      1.72895983e-01 2.87508309e-01 2.87508309e-01 2.87508309e-01
      6.30925223e-02 3.12608033e-02 2.85014734e-02 2.72253174e-02
      5.24937697e-02 1.25464082e-01 2.91144550e-01 2.91144550e-01
      1.16204545e-01 1.10039227e-01 6.15816303e-02 6.99224845e-02
      4.20636423e-02 1.09767370e-01 2.00432703e-01 2.91144550e-01
      2.02100068e-01 1.52442575e-01 4.81726676e-02 2.20791195e-02
      2.27680132e-02 8.82470608e-02 1.34777308e-01 1.93550378e-01
      2.91144550e-01 2.91144550e-01 1.44707516e-01 1.30304754e-01
      8.83933529e-02 6.31847531e-02 1.69016317e-01 2.03789055e-01
      2.85469890e-01 2.91144550e-01 1.60972431e-01 1.30979508e-01
      2.49320939e-01 2.34080687e-01 2.38514394e-01 2.08831429e-01
      1.61819384e-01 1.16160788e-01 6.31228313e-02 2.67041307e-02
      2.02430964e-01 2.49320939e-01 1.81693912e-01 2.06953213e-01
      5.11334240e-02 1.41579574e-02 2.01261956e-02 4.53111678e-02
      1.42443374e-01 2.49320939e-01 1.83929756e-01 6.13490380e-02
      2.99915783e-02 1.95887834e-01 2.12912470e-01 2.45974153e-01
      1.35968164e-01 1.68152466e-01 2.49320939e-01 2.49320939e-01
      5.76488674e-02 1.61005147e-02 2.30980888e-02 2.20744032e-02
      3.71535644e-02 6.52308092e-02 2.06849724e-01 2.49320939e-01
      2.43497372e-01 5.08804247e-02 3.31863016e-02 3.99894938e-02
      2.83740982e-02 6.97235838e-02 1.18517406e-01 2.54393846e-01
      2.54393846e-01 1.21844806e-01 2.17116345e-02 2.14342885e-02
      8.91594589e-02 1.70691326e-01 2.36912087e-01 2.54393846e-01
      2.54393846e-01 2.54393846e-01 2.54393846e-01 7.90373534e-02
      3.32742333e-02 4.55899313e-02 2.24735327e-02 2.38451157e-02
      4.80146632e-02 1.34657040e-01 2.54393846e-01 1.97786734e-01
      1.09464213e-01 1.41183197e-01 2.54393846e-01 2.54393846e-01
      1.51579812e-01 1.02542780e-01 1.54174685e-01 2.49978080e-01
      5.36055937e-02 3.29730436e-02 6.89071342e-02 1.68463588e-01
      2.45312482e-01 1.73699811e-01 1.82422087e-01 1.56935200e-01
      1.80895895e-01 9.01993290e-02 1.03600629e-01 1.19790792e-01
      2.45312482e-01 2.38597050e-01 2.22257420e-01 1.87439471e-01
      6.43736422e-02 6.84011132e-02 6.64396808e-02 1.18354879e-01
      2.07894981e-01 2.45312482e-01 2.45312482e-01 2.09119216e-01
      7.12538287e-02 7.47657865e-02 1.07892528e-01 8.72777775e-02
      1.48069233e-01 2.31079996e-01 2.45312482e-01 2.45312482e-01
      2.40888864e-01 1.25031784e-01 6.86077699e-02 7.80925304e-02
      1.69293955e-01 4.86640260e-02 3.74885052e-02 5.33435456e-02
      1.09572969e-01 1.50542155e-01 1.94348902e-01 2.48976737e-01
      2.59859681e-01 2.59859681e-01 6.33373708e-02 3.93591635e-02
      3.11849508e-02 5.87736666e-02 6.01666942e-02 7.86144137e-02
      2.46907815e-01 2.59859681e-01 1.05994254e-01 7.03959465e-02
      6.25348762e-02 8.95928741e-02 2.35214666e-01 2.06351176e-01
      1.86564803e-01 2.03791335e-01 1.47125393e-01 2.41871521e-01
      1.31747678e-01 1.42139614e-01 1.28614560e-01 2.59859681e-01
      2.05774978e-01 7.64139965e-02 1.56530872e-01 2.59859681e-01
      2.58128285e-01 9.65467393e-02 3.18106748e-02 2.38379426e-02
      2.16819383e-02 5.84364533e-02 4.31099907e-02 2.07681641e-01
      2.58128285e-01 2.58128285e-01 1.99688613e-01 1.99991152e-01
      1.49693221e-01 1.09922528e-01 7.07056671e-02 3.65961567e-02
      1.25620514e-01 2.25270629e-01 2.58128285e-01 1.88315883e-01
      1.03987888e-01 1.09917514e-01 1.22093335e-01 1.37043461e-01
      4.64260057e-02 1.93020031e-01 2.58128285e-01 2.58128285e-01
      2.58128285e-01 1.98671162e-01 1.35379493e-01 1.07097909e-01
      9.60734189e-02 5.09561449e-02 1.69483364e-01 2.06703112e-01
      1.19292788e-01 2.25400105e-01 2.52367109e-01 2.52367109e-01
      2.41626665e-01 1.37327671e-01 4.90036570e-02 6.54462278e-02
      7.65745863e-02 6.28434792e-02 1.30889118e-01 2.52367109e-01
      2.52367109e-01 2.02933729e-01 1.94423035e-01 1.27717108e-01
      9.42487419e-02 1.00148343e-01 2.51179934e-01 2.30269074e-01
      2.52367109e-01 1.41972199e-01 1.31282002e-01 8.03046152e-02
      1.06326714e-01 1.16703354e-01 8.48105922e-02 1.89634860e-01
      1.48704275e-01 1.33241951e-01 1.26195982e-01 1.44914031e-01
      1.40774027e-01 1.78687036e-01 1.43244058e-01 1.08748712e-01</_>
    <_>
      6.20647259e-02 4.99130338e-02 7.91804120e-02 8.83894190e-02
      2.45503709e-01 2.45503709e-01 1.40972912e-01 5.15648499e-02
      3.76683660e-02 2.45503709e-01 1.82194963e-01 1.61537737e-01
      6.52305409e-02 1.58985958e-01 1.65240169e-01 5.63620590e-02
      1.66344315e-01 2.45503709e-01 1.25754237e-01 2.45503709e-01
      2.45503709e-01 1.93859160e-01 2.36966431e-01 1.21802896e-01
      7.43178129e-02 5.86172864e-02 1.23300292e-01 2.45503709e-01
      2.45503709e-01 2.45503709e-01 1.22159697e-01 1.32674441e-01
      9.38773379e-02 3.23826075e-02 1.11995287e-01 2.45503709e-01
      2.65531510e-01 1.79228976e-01 1.27715483e-01 4.14669774e-02
      6.90630078e-02 3.96938957e-02 3.10121141e-02 1.76717505e-01
      2.65531510e-01 2.65531510e-01 1.02270290e-01 6.11042678e-02
      5.60670123e-02 9.99048650e-02 4.95398119e-02 1.65880710e-01
      2.65531510e-01 2.65531510e-01 2.65531510e-01 1.05529457e-01
      1.77237317e-01 4.75992076e-02 4.44449894e-02 3.66750993e-02
      3.38768922e-02 1.31697416e-01 2.65531510e-01 2.65531510e-01
      4.35614884e-02 4.29576747e-02 3.13812084e-02 2.44613905e-02
      6.19519986e-02 2.65531510e-01 2.65531510e-01 2.65531510e-01
      2.31452763e-01 7.78416172e-02 7.08675310e-02 7.76594579e-02
      1.07451484e-01 7.98240006e-02 2.21818790e-01 1.94575787e-01
      2.39317760e-01 1.73768565e-01 1.01176508e-01 7.86597282e-02
      1.25648901e-01 1.33188948e-01 1.50645569e-01 2.30640545e-01
      1.24549650e-01 1.82151332e-01 2.22905323e-01 4.80683558e-02
      5.94713502e-02 3.28910910e-02 7.72011429e-02 1.36045918e-01
      2.39317760e-01 2.39317760e-01 2.39317760e-01 1.70947388e-01
      6.22062273e-02 8.94830972e-02 1.81030065e-01 1.24532469e-01
      2.39317760e-01 2.39317760e-01 2.39317760e-01 2.14105725e-01
      1.13466792e-01 2.24188998e-01 2.28890464e-01 2.13110149e-01
      2.53778547e-01 1.34917974e-01 5.21964394e-02 4.48655784e-02
      1.27782658e-01 1.98998868e-01 2.15417221e-01 2.02683106e-01
      7.46592507e-02 1.11337148e-01 7.79242143e-02 3.66780609e-02
      7.21528009e-02 2.03875437e-01 2.06175253e-01 7.08659738e-02
      4.69130054e-02 1.35344267e-01 2.53778547e-01 2.01318666e-01
      2.51504421e-01 1.47127792e-01 1.17334045e-01 2.53778547e-01
      2.03177139e-01 1.24510325e-01 8.55570138e-02 5.73981702e-02
      5.16594984e-02 1.58555821e-01 1.94784760e-01 2.53778547e-01
      1.85001746e-01 9.78939533e-02 9.78091955e-02 3.75102162e-02
      4.67072017e-02 4.59681749e-02 2.77237538e-02 6.01356253e-02
      1.82779625e-01 1.81029305e-01 1.15513854e-01 8.92667919e-02
      3.24305668e-02 1.25548374e-02 5.22238165e-02 1.39631212e-01
      1.56809196e-01 2.61355311e-01 3.01720202e-01 3.01720202e-01
      1.82586670e-01 1.07664622e-01 2.49072667e-02 6.19065911e-02
      8.57082084e-02 1.29105955e-01 3.01720202e-01 3.01720202e-01
      3.01720202e-01 2.13828206e-01 8.90754983e-02 3.05680633e-02
      1.19677894e-01 1.45548776e-01 1.41407743e-01 3.01720202e-01
      1.48407459e-01 6.62676767e-02 5.42668328e-02 5.43376766e-02
      1.72452107e-01 1.49658680e-01 1.00708872e-01 1.36204869e-01
      1.96336433e-01 9.61264297e-02 4.30850983e-02 1.26052186e-01
      2.50658542e-01 2.50658542e-01 2.50658542e-01 1.60168886e-01
      1.30125657e-01 1.17358550e-01 2.50658542e-01 2.04609185e-01
      1.80836409e-01 1.32999018e-01 1.52497351e-01 1.01695731e-01
      7.32719749e-02 9.87886190e-02 2.50658542e-01 1.70810565e-01
      1.91985577e-01 2.50658542e-01 2.50658542e-01 2.50658542e-01
      1.82090715e-01 7.76957646e-02 7.35246465e-02 9.05724540e-02
      1.70926347e-01 7.15339333e-02 4.41373289e-02 7.75736570e-02
      9.27476361e-02 1.60654977e-01 2.53990263e-01 2.48414859e-01
      1.40178114e-01 2.53990263e-01 2.03439280e-01 1.53783649e-01
      1.71538278e-01 6.45170584e-02 9.61022824e-02 2.51373529e-01
      2.53990263e-01 2.53990263e-01 6.74263537e-02 8.24377388e-02
      6.59377426e-02 9.52471718e-02 1.04623854e-01 1.01762898e-01
      1.67027727e-01 1.83379978e-01 1.10898837e-01 1.30778834e-01
      8.69994238e-02 1.21701322e-01 1.80345774e-01 1.90879568e-01
      1.33285329e-01 2.53990263e-01 2.21795246e-01 2.24714726e-01
      2.47848913e-01 1.95590049e-01 1.26276523e-01 1.27235278e-01
      4.09855656e-02 8.14188346e-02 1.06114030e-01 9.83014703e-02
      2.47848913e-01 2.47848913e-01 2.47848913e-01 1.71368748e-01
      1.14590712e-01 4.68950905e-02 1.59667805e-01 1.58905759e-01
      8.91784877e-02 2.47848913e-01 2.47848913e-01 1.06221281e-01
      1.09152980e-01 9.12252367e-02 1.28171280e-01 6.68307096e-02
      1.65122226e-01 1.67557091e-01 2.01877177e-01 2.47848913e-01
      2.47848913e-01 1.81898534e-01 1.20828561e-01 9.61039364e-02
      9.07658041e-02 1.52191535e-01 1.34204134e-01 2.19613954e-01
      2.40426615e-01 2.40426615e-01 2.40426615e-01 1.82897121e-01
      7.60368854e-02 1.35625616e-01 8.87340680e-02 7.84208402e-02
      2.35882744e-01 1.69896320e-01 2.40426615e-01 2.40426615e-01
      2.08126038e-01 1.83844566e-01 1.42048150e-01 9.60829109e-02
      7.51681998e-02 8.64541680e-02 2.22699434e-01 2.40426615e-01
      2.06430554e-01 1.54895231e-01 1.04253747e-01 9.34049934e-02
      1.02393970e-01 9.92612541e-02 1.59611523e-01 1.60225809e-01
      2.02855930e-01 1.86640561e-01 1.17468737e-01 1.83925301e-01
      1.11459479e-01 8.13423172e-02 1.26482740e-01 9.50349495e-02</_>
    <_>
      8.00181031e-02 1.77419767e-01 3.26253623e-01 1.26371756e-01
      8.64111260e-02 6.29989579e-02 5.05807139e-02 3.45265195e-02
      2.90733017e-02 1.59823626e-01 3.26253623e-01 3.26253623e-01
      1.39652684e-01 8.07784349e-02 1.83813535e-02 1.49582364e-02
      4.47540507e-02 4.92046699e-02 1.03810102e-01 1.36808425e-01
      3.26253623e-01 2.01900691e-01 1.63478538e-01 1.06716745e-01
      4.43686061e-02 1.43139223e-02 4.27831858e-02 2.78126597e-01
      3.26253623e-01 3.26253623e-01 1.61373392e-01 9.74706784e-02
      3.25160436e-02 1.73114724e-02 1.02708554e-02 7.01369643e-02
      2.92484581e-01 3.05758357e-01 2.78188944e-01 7.39891455e-02
      6.40939251e-02 8.92955810e-03 1.01224072e-02 4.38163318e-02
      9.79426429e-02 3.05758357e-01 1.60369128e-01 4.63305190e-02
      1.91198643e-02 3.91936004e-02 4.34766011e-03 2.22484805e-02
      9.08425450e-02 2.52983868e-01 3.05758357e-01 3.05758357e-01
      2.55179822e-01 6.25564158e-02 3.02446485e-02 3.20433220e-03
      2.08187918e-03 1.77206993e-02 1.56869620e-01 3.05758357e-01
      2.04259127e-01 8.94514099e-02 1.80911366e-02 2.26468612e-02
      2.60443566e-03 3.81971337e-03 6.16629831e-02 3.05758357e-01
      3.18407357e-01 8.47201347e-02 1.59139372e-02 1.42365387e-02
      1.74817871e-02 1.81879103e-03 3.63564603e-02 1.22698970e-01
      3.18407357e-01 1.28179386e-01 2.78267711e-02 4.94761346e-03
      1.40418913e-02 1.73538513e-02 1.19477278e-02 1.53953940e-01
      3.18407357e-01 3.18407357e-01 2.83540666e-01 5.13350926e-02
      1.78406741e-02 6.72974857e-03 7.00691715e-03 3.04130893e-02
      7.63567910e-02 1.90825433e-01 3.18407357e-01 6.98802471e-02
      1.00059723e-02 5.57432603e-03 8.61371029e-03 1.73584726e-02
      1.25900626e-01 2.70908028e-01 3.18407357e-01 3.18407357e-01
      8.88395086e-02 6.41744211e-02 1.63402423e-01 2.21372649e-01
      2.53363401e-01 1.72944531e-01 4.90133278e-02 3.12287565e-02
      5.11334538e-02 2.53363401e-01 2.53363401e-01 2.53363401e-01
      2.18906775e-01 1.57633960e-01 7.58825913e-02 3.50649953e-02
      1.72588322e-02 1.36534065e-01 5.24286292e-02 4.35667783e-02
      1.08804658e-01 2.53363401e-01 2.53363401e-01 2.49954268e-01
      7.27414116e-02 6.00356460e-02 3.17984261e-02 2.53363401e-01
      1.10979557e-01 1.61313772e-01 2.53363401e-01 2.38076180e-01
      1.84749231e-01 7.96334594e-02 5.95561117e-02 1.83577359e-01
      2.90072680e-01 2.90072680e-01 2.48064861e-01 6.75988272e-02
      5.48506379e-02 1.38802249e-02 1.60956886e-02 3.16828899e-02
      1.76175728e-01 2.90072680e-01 2.90072680e-01 1.76597282e-01
      3.41840759e-02 6.28735796e-02 1.17672039e-02 1.81342196e-02
      9.16061029e-02 2.90072680e-01 2.13283971e-01 1.38191730e-01
      1.54175282e-01 1.02980681e-01 1.00848787e-01 8.33484381e-02
      5.05430251e-02 8.25803950e-02 2.82224894e-01 2.36286566e-01
      1.92728028e-01 1.38029844e-01 3.79941687e-02 6.36483058e-02
      3.72357741e-02 3.57831903e-02 1.42054990e-01 2.90072680e-01
      2.40844533e-01 9.71474424e-02 3.77539769e-02 1.57709364e-02
      2.89797504e-02 1.00346819e-01 9.48485136e-02 2.21157879e-01
      2.90450126e-01 4.81242128e-02 9.73364245e-03 1.29576633e-02
      1.66123807e-02 3.43716368e-02 2.32587829e-01 2.82749385e-01
      2.90450126e-01 2.90450126e-01 1.90820992e-01 1.23572700e-01
      9.30899978e-02 4.78187092e-02 3.98552082e-02 8.99819061e-02
      5.93467690e-02 1.27498448e-01 2.90450126e-01 8.76573697e-02
      7.01120794e-02 1.40759796e-01 1.50553584e-01 1.27601355e-01
      1.71157658e-01 1.59700409e-01 2.90450126e-01 2.84636945e-01
      7.04410672e-02 4.90882508e-02 9.26051736e-02 1.40821248e-01
      1.49830014e-01 2.19755813e-01 1.45847559e-01 8.97143260e-02
      4.74606641e-02 2.73391724e-01 5.44311218e-02 9.21567529e-02
      1.63292065e-01 1.95100322e-01 2.49281600e-01 2.50433981e-01
      1.83665186e-01 2.73391724e-01 6.13925271e-02 5.82467280e-02
      7.06774220e-02 6.39631823e-02 1.08624801e-01 1.07264750e-01
      1.35179490e-01 1.19266115e-01 7.10161775e-02 2.11609036e-01
      4.56799194e-02 4.66718599e-02 2.56480929e-02 2.73391724e-01
      2.73391724e-01 2.73391724e-01 2.21689358e-01 2.73391724e-01
      2.40612522e-01 3.69216390e-02 4.49147560e-02 3.14503685e-02
      6.02956526e-02 8.25607479e-02 9.92554501e-02 1.18224435e-01
      3.23173523e-01 3.23173523e-01 7.20401630e-02 3.93659361e-02
      8.64913221e-03 1.17239384e-02 2.12207641e-02 5.16645387e-02
      1.49470314e-01 3.23173523e-01 1.84151947e-01 4.95342314e-02
      7.05984831e-02 3.27684991e-02 2.90614367e-01 1.53258681e-01
      1.15841947e-01 1.02839582e-01 3.23173523e-01 3.23173523e-01
      1.58755198e-01 1.12625107e-01 5.72839268e-02 1.02068342e-01
      4.91733700e-02 6.13501258e-02 9.50492173e-02 3.23173523e-01
      2.93575406e-01 1.02096252e-01 5.54254688e-02 1.78049747e-02
      8.38451367e-03 9.30475816e-03 1.10600432e-02 1.11470811e-01
      2.93575406e-01 1.92597732e-01 1.58858955e-01 2.00716689e-01
      1.58907622e-01 9.90788788e-02 1.88616198e-02 1.04274563e-02
      1.45385444e-01 2.93575406e-01 2.93575406e-01 2.10558698e-01
      5.54574318e-02 4.50606234e-02 3.11105717e-02 1.89942401e-02
      1.60672832e-02 1.11298032e-01 2.93575406e-01 2.93575406e-01
      2.93575406e-01 1.45428926e-01 9.34357718e-02 5.44994995e-02
      3.21169160e-02 2.09988970e-02 1.55023873e-01 2.93575406e-01</_>
    <_>
      3.96419615e-02 6.09247126e-02 4.42410670e-02 8.17900673e-02
      2.45342970e-01 2.45342970e-01 1.23852558e-01 9.68712196e-02
      3.34731303e-02 1.37117222e-01 1.51411280e-01 1.12862594e-01
      9.73327458e-02 1.86195880e-01 2.45342970e-01 1.09871536e-01
      2.11807773e-01 1.91005886e-01 9.01425406e-02 1.55876398e-01
      1.32488519e-01 1.39602616e-01 2.45342970e-01 2.20888779e-01
      1.31017342e-01 1.45948634e-01 9.06911492e-02 2.45342970e-01
      2.45342970e-01 1.95218369e-01 1.70315027e-01 1.03125773e-01
      1.69758871e-01 1.12627812e-01 2.45342970e-01 2.45342970e-01
      1.53747931e-01 1.34172469e-01 1.05795220e-01 8.07861388e-02
      6.74909949e-02 1.03634655e-01 1.44590825e-01 1.74016386e-01
      2.12622151e-01 2.71640509e-01 1.42672926e-01 8.70286450e-02
      1.19205050e-01 8.13848004e-02 1.02517977e-01 1.82083815e-01
      1.07163869e-01 1.92710653e-01 2.71640509e-01 1.76086992e-01
      1.53333902e-01 6.65751398e-02 1.52757941e-02 4.62447442e-02
      1.17340289e-01 1.92033544e-01 2.71640509e-01 2.71640509e-01
      1.79379806e-01 1.18777774e-01 4.27005216e-02 5.85002378e-02
      8.38888511e-02 2.68175155e-01 2.71640509e-01 2.71640509e-01
      2.38096625e-01 9.68280956e-02 5.82386181e-02 6.41379952e-02
      7.69785047e-02 1.21268816e-01 1.14590116e-01 1.13623634e-01
      2.08435699e-01 2.23485470e-01 1.49431363e-01 1.90013289e-01
      8.50616023e-02 1.26250908e-01 9.57361460e-02 1.43372729e-01
      1.62193283e-01 1.87682584e-01 2.38096625e-01 1.62726313e-01
      9.74205136e-02 4.23048846e-02 9.04779807e-02 1.85432538e-01
      2.17997238e-01 2.38096625e-01 2.35544801e-01 2.38096625e-01
      1.54726490e-01 1.49883434e-01 7.43663013e-02 1.15090914e-01
      2.16162637e-01 2.38096625e-01 2.38096625e-01 1.80080950e-01
      2.45684862e-01 1.96291998e-01 2.45684862e-01 1.76901162e-01
      1.66080356e-01 9.44614336e-02 5.09537011e-02 1.02815688e-01
      2.21279338e-01 2.45684862e-01 2.45684862e-01 2.14234352e-01
      1.81186542e-01 9.41031128e-02 6.56828582e-02 4.04663794e-02
      1.08243942e-01 2.45684862e-01 2.45684862e-01 1.22582711e-01
      1.99701339e-01 2.07905039e-01 2.34001622e-01 8.31564292e-02
      3.07349190e-02 7.51946494e-02 2.08231151e-01 2.45684862e-01
      1.04521424e-01 1.21591456e-01 7.56617859e-02 1.08683325e-01
      4.87604402e-02 2.43960042e-02 7.56217316e-02 1.99013889e-01
      3.08043391e-01 1.90718055e-01 1.23914577e-01 8.62812772e-02
      5.85397445e-02 4.66815233e-02 4.90681566e-02 1.21037759e-01
      3.08043391e-01 3.08043391e-01 9.45085883e-02 5.94792962e-02
      3.74935605e-02 1.81705564e-01 1.04677550e-01 3.08043391e-01
      3.08043391e-01 3.08043391e-01 2.19740555e-01 8.31225589e-02
      5.61857894e-02 4.60520089e-02 8.50782022e-02 4.08540405e-02
      1.68091971e-02 4.81277667e-02 1.46905527e-01 2.74325579e-01
      9.58631858e-02 2.53646411e-02 3.04855742e-02 1.35928094e-01
      9.54436138e-02 1.29240587e-01 1.31499887e-01 2.16177300e-01
      2.47035354e-01 7.61028901e-02 3.93219292e-02 4.08442691e-02
      1.33895978e-01 1.08634584e-01 2.40724683e-01 2.49592662e-01
      2.49592662e-01 1.97809547e-01 6.93504810e-02 3.30040939e-02
      6.20078482e-02 1.28758088e-01 2.35568374e-01 2.49592662e-01
      2.49592662e-01 2.12721273e-01 1.80505604e-01 3.94274518e-02
      7.61525147e-03 4.60260287e-02 1.53582767e-01 6.43225685e-02
      1.14587829e-01 1.51675403e-01 2.32749030e-01 1.41139254e-01
      3.92559208e-02 4.41126339e-02 1.67040750e-01 2.49592662e-01
      2.08513081e-01 1.64007172e-01 2.26131141e-01 1.86953291e-01
      2.57230788e-01 3.35828140e-02 5.92623837e-02 1.31655172e-01
      1.32728085e-01 8.37045237e-02 1.10751092e-01 9.46262777e-02
      2.37575218e-01 2.72341132e-01 9.70081761e-02 2.52414607e-02
      1.50460703e-02 3.99905629e-02 2.61930898e-02 7.30205625e-02
      1.26898602e-01 2.72341132e-01 2.72341132e-01 3.54001150e-02
      3.88611406e-02 1.04725145e-01 1.08283751e-01 1.67176977e-01
      2.26237431e-01 2.47707546e-01 2.72341132e-01 2.72341132e-01
      1.68711245e-01 7.22570792e-02 1.51469767e-01 1.58835545e-01
      6.66508675e-02 1.08123310e-01 2.52792299e-01 2.72341132e-01
      2.91955411e-01 1.44327626e-01 2.25248486e-02 7.34032504e-03
      1.93029158e-02 1.12386784e-02 3.13879959e-02 8.00396129e-02
      2.88420528e-01 2.91955411e-01 1.58387303e-01 1.25000393e-02
      1.04099074e-02 1.26694804e-02 1.66811105e-02 7.84066785e-03
      9.45455432e-02 2.75055766e-01 2.91955411e-01 2.50019431e-01
      6.64720610e-02 7.50084296e-02 9.58815068e-02 4.55406271e-02
      6.58452585e-02 1.89642906e-01 2.91955411e-01 2.91955411e-01
      2.26678118e-01 4.99522947e-02 5.94006665e-02 1.24708012e-01
      1.02007173e-01 5.48355989e-02 2.28576750e-01 2.91955411e-01
      2.14239329e-01 9.24344957e-02 4.06694189e-02 5.53850047e-02
      8.79973546e-02 3.54563557e-02 2.26416141e-02 1.23904258e-01
      2.25588679e-01 1.04752176e-01 1.14469461e-01 1.83530301e-01
      2.57441849e-01 2.57441849e-01 1.42305732e-01 5.05145229e-02
      7.81848133e-02 1.13037184e-01 2.57441849e-01 1.80206999e-01
      1.12550721e-01 1.44479796e-01 1.80322483e-01 8.25624093e-02
      3.34291607e-02 1.99430153e-01 2.57441849e-01 2.57441849e-01
      2.57441849e-01 2.57441849e-01 2.57441849e-01 2.02333212e-01
      8.49574059e-02 5.52483760e-02 1.01668403e-01 1.58302128e-01</_>
    <_>
      2.71135811e-02 9.79212224e-02 2.60087878e-01 1.91923812e-01
      1.40586942e-01 1.01202674e-01 8.86436701e-02 6.57221004e-02
      3.85163501e-02 1.67393312e-01 1.22328214e-01 2.60087878e-01
      1.97382137e-01 1.42468467e-01 8.77194628e-02 8.68024752e-02
      1.01183742e-01 1.88819125e-01 9.00362805e-02 1.78291336e-01
      2.60087878e-01 2.60087878e-01 1.68130487e-01 2.43703470e-01
      1.02450855e-01 7.18953684e-02 1.00096874e-01 2.60087878e-01
      2.60087878e-01 2.60087878e-01 1.46047458e-01 8.53705928e-02
      6.76736310e-02 3.52126807e-02 1.19881704e-01 2.60087878e-01
      2.68599778e-01 1.14515699e-01 6.47148937e-02 6.37637824e-02
      6.18188344e-02 2.70177051e-02 4.35576662e-02 1.73767820e-01
      2.78370261e-01 2.10323423e-01 8.38142708e-02 2.36270186e-02
      3.11984513e-02 4.62639928e-02 6.33400828e-02 2.43833080e-01
      2.78370261e-01 2.78370261e-01 2.78370261e-01 1.46307945e-01
      8.60824510e-02 3.11313178e-02 1.85070392e-02 3.10505722e-02
      6.27925321e-02 1.86531067e-01 2.78370261e-01 1.45181865e-01
      2.05664914e-02 1.19717121e-02 1.79149117e-02 5.02539203e-02
      1.85532317e-01 2.78370261e-01 2.78370261e-01 2.78370261e-01
      9.01737139e-02 3.78129669e-02 2.25624554e-02 6.06161319e-02
      7.53495693e-02 1.38711870e-01 2.81437963e-01 2.81437963e-01
      1.65153682e-01 9.76713896e-02 1.15373246e-01 6.01621419e-02
      1.13870896e-01 1.40995711e-01 1.75615266e-01 2.47470170e-01
      2.06806004e-01 1.40771642e-01 5.78312911e-02 6.51886128e-03
      2.72668209e-02 8.41985792e-02 6.99522197e-02 2.58925349e-01
      2.81437963e-01 2.81437963e-01 1.68258265e-01 1.03088260e-01
      5.88125475e-02 1.05885945e-01 1.98953897e-01 1.60427123e-01
      2.76914805e-01 2.81437963e-01 1.55507430e-01 1.35203332e-01
      7.99531192e-02 1.37005419e-01 1.35752052e-01 1.47595018e-01
      2.47570544e-01 2.47570544e-01 1.50201976e-01 6.76949918e-02
      1.16134100e-01 1.96037754e-01 2.47570544e-01 1.67646766e-01
      7.95076787e-02 1.38882458e-01 1.18628509e-01 4.29626927e-02
      9.02095139e-02 2.05753937e-01 9.86103490e-02 4.56337109e-02
      5.10110743e-02 9.64633748e-02 2.47570544e-01 2.47570544e-01
      2.47570544e-01 1.77223817e-01 1.44448310e-01 2.47570544e-01
      7.00005218e-02 3.10205240e-02 4.94926348e-02 1.50856137e-01
      1.61392957e-01 2.19675556e-01 2.47570544e-01 2.47570544e-01
      2.06047341e-01 1.40069172e-01 6.04468100e-02 4.01675403e-02
      5.70342951e-02 5.57596833e-02 6.50977492e-02 1.51404440e-01
      2.56257325e-01 1.23692386e-01 4.13996428e-02 1.14242611e-02
      5.44077307e-02 1.71781346e-01 2.45659083e-01 2.56257325e-01
      2.56257325e-01 2.56257325e-01 2.53103793e-01 8.08487013e-02
      2.32083350e-02 3.36290933e-02 5.70888408e-02 4.53750640e-02
      8.59547928e-02 2.56257325e-01 2.56257325e-01 2.25948393e-01
      1.26205385e-01 6.45210594e-02 1.00381225e-01 2.56257325e-01
      1.29038945e-01 1.12947583e-01 2.56257325e-01 2.56257325e-01
